{"learner":{"attributes":{},"feature_names":["open","high","low","close","volume","ret_1","ret_3","ret_5","ret_10","vol_10","vol_20","ma_10","ma_20","ma_50","close_over_ma20","close_over_ma50","atr_14","rsi_14","body_to_range","upper_wick","lower_wick","vol_zscore_20"],"feature_types":["float","float","float","float","int","float","float","float","float","float","float","float","float","float","float","float","float","float","float","float","float","float"],"gradient_booster":{"model":{"cats":{"enc":[],"feature_segments":[],"sorted_idx":[]},"gbtree_model_param":{"num_parallel_tree":"1","num_trees":"71"},"iteration_indptr":[0,1,2,3,4,5,6,7,8,9,10,11,12,13,14,15,16,17,18,19,20,21,22,23,24,25,26,27,28,29,30,31,32,33,34,35,36,37,38,39,40,41,42,43,44,45,46,47,48,49,50,51,52,53,54,55,56,57,58,59,60,61,62,63,64,65,66,67,68,69,70,71],"tree_info":[0,0,0,0,0,0,0,0,0,0,0,0,0,0,0,0,0,0,0,0,0,0,0,0,0,0,0,0,0,0,0,0,0,0,0,0,0,0,0,0,0,0,0,0,0,0,0,0,0,0,0,0,0,0,0,0,0,0,0,0,0,0,0,0,0,0,0,0,0,0,0],"trees":[{"base_weights":[3.8260553E-2,1.3491707E0,6.635413E-3,7.8926206E-2,6.816939E-1,-6.746765E-2,5.470771E-1,6.077489E-2,-1.3697791E-2,2.3741594E-1,-2.6375973E-1,1.5383056E0,2.2946563E-1,2.8920498E-1,-1.0758697E0,-5.0564235E-1,-4.8794713E-2,8.522539E-2,8.55089E-3,7.0118356E-1,-8.841061E-2,8.08377E-3,4.977824E-2,8.55089E-3,-7.684689E-2,-9.841036E-3,-6.30726E-2,1.0461467E-2,-2.7631704E-2,-3.5946473E-2,4.484425E-2,-2.7163107E-2,3.5394635E-2],"categories":[],"categories_nodes":[],"categories_segments":[],"categories_sizes":[],"default_left":[0,0,0,0,0,0,0,0,0,0,0,0,0,0,0,0,0,0,0,0,0,0,0,0,0,0,0,0,0,0,0,0,0],"id":0,"left_children":[1,3,5,-1,7,9,11,-1,-1,13,15,17,19,21,23,25,27,-1,-1,29,31,-1,-1,-1,-1,-1,-1,-1,-1,-1,-1,-1,-1],"loss_changes":[1.5370052E1,2.60911E-1,1.4583403E1,0E0,2.3702345E0,1.9232267E1,1.3470359E1,0E0,0E0,8.879653E0,1.0131929E1,2.0899582E0,5.2244425E0,1.0828157E1,3.1324205E0,2.1180002E1,1.3704535E1,0E0,0E0,4.527918E0,8.155972E0,0E0,0E0,0E0,0E0,0E0,0E0,0E0,0E0,0E0,0E0,0E0,0E0],"parents":[2147483647,0,0,1,1,2,2,4,4,5,5,6,6,9,9,10,10,11,11,12,12,13,13,14,14,15,15,16,16,19,19,20,20],"right_children":[2,4,6,-1,8,10,12,-1,-1,14,16,18,20,22,24,26,28,-1,-1,30,32,-1,-1,-1,-1,-1,-1,-1,-1,-1,-1,-1,-1],"split_conditions":[1.3332427E5,1.778803E-2,7.734091E1,7.8926206E-2,-8.625352E-2,-1.7240226E-2,1.1497594E4,6.077489E-2,-1.3697791E-2,6.070119E-2,4.1061785E4,3.727681E-2,3.0875024E-1,3.979869E-2,-1.7826037E-1,2.7351812E5,7.499906E6,8.522539E-2,8.55089E-3,1.1600331E12,5.6408208E-2,8.08377E-3,4.977824E-2,8.55089E-3,-7.684689E-2,-9.841036E-3,-6.30726E-2,1.0461467E-2,-2.7631704E-2,-3.5946473E-2,4.484425E-2,-2.7163107E-2,3.5394635E-2],"split_indices":[2,9,17,0,8,14,16,0,0,9,16,9,18,10,8,13,13,0,0,4,6,0,0,0,0,0,0,0,0,0,0,0,0],"split_type":[0,0,0,0,0,0,0,0,0,0,0,0,0,0,0,0,0,0,0,0,0,0,0,0,0,0,0,0,0,0,0,0,0],"sum_hessian":[3.6995636E2,7.73341E0,3.6222296E2,4.739832E0,2.993578E0,3.19315E2,4.290795E1,1.7462538E0,1.2473242E0,1.2498189E2,1.9433311E2,9.479664E0,3.3428288E1,1.2099045E2,3.9914374E0,9.08052E1,1.0352791E2,8.23234E0,1.2473242E0,1.2972172E1,2.0456118E1,1.0352791E2,1.746254E1,1.2473242E0,2.7441132E0,6.535979E1,2.5445414E1,6.8852295E1,3.4675613E1,1.2473242E0,1.1724848E1,1.3221637E1,7.2344804E0],"tree_param":{"num_deleted":"0","num_feature":"22","num_nodes":"33","size_leaf_vector":"1"}},{"base_weights":[4.803177E-2,-2.1609379E-2,7.0707613E-1,3.3753657E-1,-2.3174953E-1,8.465976E-1,-7.3428404E-1,4.6780708E-1,-4.468004E-1,-2.989133E-1,6.51816E-1,1.517776E0,4.6804327E-1,-6.271549E-2,8.512488E-3,1.6031818E-1,7.32176E-1,2.586622E-1,-1.0894343E0,2.5639031E-2,-4.2745554E-1,1.1633269E0,-6.561891E-2,8.330985E-2,7.600471E-3,5.5520095E-2,1.356588E0,1.55457845E-2,-5.8782555E-2,4.2990316E-2,-2.4108235E-2,-5.8432102E-2,3.0332288E-2,-6.751754E-2,4.583052E-3,2.4599155E-2,-1.7650925E-2,-2.897059E-2,1.4830629E-2,6.492E-2,8.2603E-3,1.6536381E-2,-5.680597E-2,3.7246235E-2,-2.9224643E-2,7.648137E-2,3.005148E-2],"categories":[],"categories_nodes":[],"categories_segments":[],"categories_sizes":[],"default_left":[0,0,0,0,0,0,0,0,0,0,0,0,0,0,0,0,0,0,0,0,0,0,0,0,0,0,0,0,0,0,0,0,0,0,0,0,0,0,0,0,0,0,0,0,0,0,0],"id":1,"left_children":[1,3,5,7,9,11,13,15,17,19,21,23,25,-1,-1,27,29,31,33,35,37,39,41,-1,-1,43,45,-1,-1,-1,-1,-1,-1,-1,-1,-1,-1,-1,-1,-1,-1,-1,-1,-1,-1,-1,-1],"loss_changes":[1.7459263E1,2.6094423E1,7.9323406E0,1.3252044E1,1.313562E1,7.829035E0,1.9746106E0,8.821249E0,8.75655E0,8.494282E0,5.845019E0,2.1132183E0,8.331445E0,0E0,0E0,1.0850583E1,9.534739E0,5.536291E0,3.1974974E0,1.0527249E1,1.6204237E1,1.0298977E0,3.5534053E0,0E0,0E0,7.8064995E0,2.5811195E-2,0E0,0E0,0E0,0E0,0E0,0E0,0E0,0E0,0E0,0E0,0E0,0E0,0E0,0E0,0E0,0E0,0E0,0E0,0E0,0E0],"parents":[2147483647,0,0,1,1,2,2,3,3,4,4,5,5,6,6,7,7,8,8,9,9,10,10,11,11,12,12,15,15,16,16,17,17,18,18,19,19,20,20,21,21,22,22,25,25,26,26],"right_children":[2,4,6,8,10,12,14,16,18,20,22,24,26,-1,-1,28,30,32,34,36,38,40,42,-1,-1,44,46,-1,-1,-1,-1,-1,-1,-1,-1,-1,-1,-1,-1,-1,-1,-1,-1,-1,-1,-1,-1],"split_conditions":[7.878524E1,4.452707E1,3.6669817E-2,4.231113E-2,9.825066E-2,3.0832484E5,8.4746735E1,2.3331717E-2,-2.9304957E-2,1.8307606E-2,3.3840626E-2,9.35552E-2,3.090784E-2,-6.271549E-2,8.512488E-3,3.4285834E5,7.298006E-1,3.6868714E-2,2.1514397E-2,3.3105126E-1,3.864875E-2,4.2333597E-1,2.8069956E5,8.330985E-2,7.600471E-3,8.421922E-2,7.2604005E6,1.55457845E-2,-5.8782555E-2,4.2990316E-2,-2.4108235E-2,-5.8432102E-2,3.0332288E-2,-6.751754E-2,4.583052E-3,2.4599155E-2,-1.7650925E-2,-2.897059E-2,1.4830629E-2,6.492E-2,8.2603E-3,1.6536381E-2,-5.680597E-2,3.7246235E-2,-2.9224643E-2,7.648137E-2,3.005148E-2],"split_indices":[17,17,10,9,7,2,17,10,7,9,10,6,9,0,0,16,18,10,8,18,10,19,13,0,0,14,2,0,0,0,0,0,0,0,0,0,0,0,0,0,0,0,0,0,0,0,0],"split_type":[0,0,0,0,0,0,0,0,0,0,0,0,0,0,0,0,0,0,0,0,0,0,0,0,0,0,0,0,0,0,0,0,0,0,0,0,0,0,0,0,0,0,0,0,0,0,0],"sum_hessian":[3.7907135E2,3.4371793E2,3.5353424E1,1.2665256E2,2.1706535E2,3.2609512E1,2.7439113E0,1.089591E2,1.7693453E1,2.0234584E2,1.4719518E1,1.0674384E1,2.1935127E1,1.4967321E0,1.247179E0,5.111425E1,5.784485E1,8.719245E0,8.974208E0,5.763232E1,1.4471352E2,8.230146E0,6.489372E0,9.429669E0,1.244715E0,1.5705873E1,6.2292547E0,4.6625637E1,4.488615E0,5.260761E1,5.237239E0,1.2468375E0,7.4724073E0,7.233047E0,1.741161E0,2.5691769E1,3.1940552E1,1.1977647E2,2.4937054E1,6.984155E0,1.2459915E0,5.240252E0,1.2491194E0,7.4822617E0,8.223611E0,4.234876E0,1.9943782E0],"tree_param":{"num_deleted":"0","num_feature":"22","num_nodes":"47","size_leaf_vector":"1"}},{"base_weights":[6.4546424E-3,3.842288E-2,-7.716935E-2,6.3564914E-1,-2.9496059E-2,-3.702745E-1,1.0263469E0,-1.0413831E-1,4.954606E-1,-7.405053E-1,4.6233892E-2,-1.9969292E-2,1.1515929E0,1.1908405E0,-1.3594784E-1,7.508379E-1,-4.069436E-1,2.308878E-2,-5.356322E-2,3.6947682E-2,7.534271E-2,6.8866335E-2,8.250514E-3,-1.7366031E-2,4.6870867E-3,6.6680156E-2,1.9402703E-2,-7.2492585E-2,2.2625616E-2],"categories":[],"categories_nodes":[],"categories_segments":[],"categories_sizes":[],"default_left":[0,0,0,0,0,0,0,0,0,0,0,0,0,0,0,0,0,0,0,0,0,0,0,0,0,0,0,0,0],"id":2,"left_children":[1,3,-1,5,7,9,11,13,15,17,-1,-1,19,21,23,25,27,-1,-1,-1,-1,-1,-1,-1,-1,-1,-1,-1,-1],"loss_changes":[1.8978897E1,1.5234721E1,0E0,1.5451403E1,1.3286812E1,6.180276E0,5.4394093E0,1.2377558E1,1.0035715E1,4.2603273E0,0E0,0E0,2.682045E0,1.152442E0,1.4128473E1,6.5142956E0,9.584972E0,0E0,0E0,0E0,0E0,0E0,0E0,0E0,0E0,0E0,0E0,0E0,0E0],"parents":[2147483647,0,0,1,1,3,3,4,4,5,5,6,6,7,7,8,8,9,9,12,12,13,13,14,14,15,15,16,16],"right_children":[2,4,-1,6,8,10,12,14,16,18,-1,-1,20,22,24,26,28,-1,-1,-1,-1,-1,-1,-1,-1,-1,-1,-1,-1],"split_conditions":[1.0193791E7,3.1954882E1,-7.716935E-2,1.8904887E-2,7.734091E1,1.5366275E5,2.3586558E-2,1.3578848E5,3.24303E-1,1.3904103E5,4.6233892E-2,-1.9969292E-2,2.890278E5,4.569725E1,4.1061785E4,2.684546E5,1.8290712E-1,2.308878E-2,-5.356322E-2,3.6947682E-2,7.534271E-2,6.8866335E-2,8.250514E-3,-1.7366031E-2,4.6870867E-3,6.6680156E-2,1.9402703E-2,-7.2492585E-2,2.2625616E-2],"split_indices":[11,17,0,10,17,16,19,3,15,1,0,0,1,17,16,12,8,0,0,0,0,0,0,0,0,0,0,0,0],"split_type":[0,0,0,0,0,0,0,0,0,0,0,0,0,0,0,0,0,0,0,0,0,0,0,0,0,0,0,0,0],"sum_hessian":[3.8086142E2,3.7411975E2,6.741676E0,3.7348366E1,3.3677136E2,1.0462639E1,2.6885727E1,2.9554956E2,4.1221813E1,8.469378E0,1.9932605E0,1.9943469E0,2.489138E1,6.212189E0,2.8933737E2,3.2260235E1,8.961578E0,1.7418383E0,6.72754E0,1.2940683E1,1.1950697E1,4.966653E0,1.245536E0,1.504099E2,1.3892746E2,1.1350731E1,2.0909506E1,3.7383416E0,5.223237E0],"tree_param":{"num_deleted":"0","num_feature":"22","num_nodes":"29","size_leaf_vector":"1"}},{"base_weights":[3.4959104E-2,6.5892726E-2,-1.4763856E0,6.266891E-1,-2.8677874E-3,-1.1883261E-2,-8.389901E-2,-2.589783E-1,9.56158E-1,-7.226493E-2,5.3513926E-1,-9.831925E-1,3.0735698E-1,2.9776636E-1,1.479601E0,1.1765054E0,-9.720804E-2,7.264971E-2,2.2629489E-1,-6.94094E-2,-1.771239E-2,-2.8927311E-2,5.1335253E-2,5.561875E-2,-1.7249782E-2,1.425339E-2,7.89037E-2,6.971889E-2,1.5694313E-2,-4.7366884E-2,-1.8037091E-3,-1.9114854E-2,2.6185093E-2],"categories":[],"categories_nodes":[],"categories_segments":[],"categories_sizes":[],"default_left":[0,0,0,0,0,0,0,0,0,0,0,0,0,0,0,0,0,0,0,0,0,0,0,0,0,0,0,0,0,0,0,0,0],"id":3,"left_children":[1,3,5,7,9,-1,-1,11,13,15,17,19,21,23,25,27,29,-1,31,-1,-1,-1,-1,-1,-1,-1,-1,-1,-1,-1,-1,-1,-1],"loss_changes":[1.8058754E1,1.4556238E1,1.53615E0,1.2278257E1,1.262894E1,0E0,0E0,5.2098646E0,9.98913E0,9.445358E0,1.0626437E1,9.064107E-1,5.358599E0,8.05756E0,1.5036812E0,6.7920876E-1,1.5277976E1,0E0,5.648452E0,0E0,0E0,0E0,0E0,0E0,0E0,0E0,0E0,0E0,0E0,0E0,0E0,0E0,0E0],"parents":[2147483647,0,0,1,1,2,2,3,3,4,4,7,7,8,8,9,9,10,10,11,11,12,12,13,13,14,14,15,15,16,16,18,18],"right_children":[2,4,6,8,10,-1,-1,12,14,16,18,20,22,24,26,28,30,-1,32,-1,-1,-1,-1,-1,-1,-1,-1,-1,-1,-1,-1,-1,-1],"split_conditions":[1.0193791E7,3.2585716E1,9.908364E6,1.8904887E-2,7.835092E1,-1.1883261E-2,-8.389901E-2,-3.4398016E-1,-1.21629834E-1,1.3485144E5,1.1497594E4,2.2788209E-1,7.667515E-2,2.5886723E1,-1.3734941E-1,1.3472097E5,4.5911016E3,7.264971E-2,2.5963575E6,-6.94094E-2,-1.771239E-2,-2.8927311E-2,5.1335253E-2,5.561875E-2,-1.7249782E-2,1.425339E-2,7.89037E-2,6.971889E-2,1.5694313E-2,-4.7366884E-2,-1.8037091E-3,-1.9114854E-2,2.6185093E-2],"split_indices":[11,17,3,10,17,0,0,21,15,0,16,20,19,17,8,11,16,0,1,0,0,0,0,0,0,0,0,0,0,0,0,0,0],"split_type":[0,0,0,0,0,0,0,0,0,0,0,0,0,0,0,0,0,0,0,0,0,0,0,0,0,0,0,0,0,0,0,0,0],"sum_hessian":[3.8319138E2,3.764429E2,6.748487E0,4.0229057E1,3.3621384E2,1.2495311E0,5.4989557E0,1.0965614E1,2.9263445E1,2.985675E2,3.7646328E1,4.4890623E0,6.476552E0,1.3655849E1,1.56075945E1,4.9427433E0,2.9362476E2,8.545458E0,2.910087E1,1.9963714E0,2.492691E0,2.9899971E0,3.4865546E0,5.700573E0,7.9552765E0,1.4852715E0,1.4122323E1,3.453935E0,1.4888083E0,1.8725882E1,2.748989E2,9.459075E0,1.9641796E1],"tree_param":{"num_deleted":"0","num_feature":"22","num_nodes":"33","size_leaf_vector":"1"}},{"base_weights":[-6.1544715E-3,6.8563795E-1,-7.625844E-2,-9.775436E-1,9.653745E-1,-4.4311076E-2,-7.7348255E-2,-6.752562E-2,8.1308605E-3,4.9650544E-1,7.518064E-2,3.0636328E-1,-1.5558176E-1,1.1955692E0,1.0844255E-1,4.1056386E-1,-1.2805521E0,-3.2364884E-1,1.8501447E-1,1.6070867E-2,7.025952E-2,-5.3432323E-2,2.9750928E-2,-7.694363E-3,3.675425E-2,-7.6724164E-2,-1.29767805E-2,-4.2749975E-2,-9.726802E-3,1.412233E-2,-4.314379E-2],"categories":[],"categories_nodes":[],"categories_segments":[],"categories_sizes":[],"default_left":[0,0,0,0,0,0,0,0,0,0,0,0,0,0,0,0,0,0,0,0,0,0,0,0,0,0,0,0,0,0,0],"id":4,"left_children":[1,3,5,7,9,11,-1,-1,-1,13,-1,15,17,19,21,23,25,27,29,-1,-1,-1,-1,-1,-1,-1,-1,-1,-1,-1,-1],"loss_changes":[1.8259508E1,1.7061928E1,1.5990184E1,2.552011E0,6.864521E0,1.3140583E1,0E0,0E0,0E0,4.6479497E0,0E0,1.3946348E1,1.4678864E1,6.8202305E-1,7.7518992E0,1.4202584E1,9.612551E-1,1.1590153E1,8.923868E0,0E0,0E0,0E0,0E0,0E0,0E0,0E0,0E0,0E0,0E0,0E0,0E0],"parents":[2147483647,0,0,1,1,2,2,3,3,4,4,5,5,9,9,11,11,12,12,13,13,14,14,15,15,16,16,17,17,18,18],"right_children":[2,4,6,8,10,12,-1,-1,-1,14,-1,16,18,20,22,24,26,28,30,-1,-1,-1,-1,-1,-1,-1,-1,-1,-1,-1,-1],"split_conditions":[3.1954882E1,1.4218301E-2,1.0178169E7,1.5588108E-3,-8.681945E-2,1.778803E-2,-7.7348255E-2,-6.752562E-2,8.1308605E-3,2.0788496E1,7.518064E-2,2.7543516E5,8.901648E-2,1.7733403E12,2.3227723E-2,1.5026685E-2,3.2847256E5,2.179817E-2,3.5521868E-1,1.6070867E-2,7.025952E-2,-5.3432323E-2,2.9750928E-2,-7.694363E-3,3.675425E-2,-7.6724164E-2,-1.29767805E-2,-4.2749975E-2,-9.726802E-3,1.412233E-2,-4.314379E-2],"split_indices":[17,9,12,6,15,9,0,0,0,17,0,16,15,4,10,10,16,10,15,0,0,0,0,0,0,0,0,0,0,0,0],"split_type":[0,0,0,0,0,0,0,0,0,0,0,0,0,0,0,0,0,0,0,0,0,0,0,0,0,0,0,0,0,0,0],"sum_hessian":[3.7442676E2,3.3644035E1,3.4078275E2,4.4848323E0,2.9159204E1,3.3454572E2,6.2370267E0,3.2403562E0,1.244476E0,1.661128E1,1.2547924E1,8.016113E1,2.5438458E2,5.186806E0,1.1424475E1,7.5917496E1,4.243638E0,1.7036687E2,8.40177E1,1.493212E0,3.693594E0,2.9914706E0,8.433004E0,2.7905785E1,4.801171E1,2.9956975E0,1.2479403E0,3.2205654E1,1.3816122E2,7.753867E1,6.479031E0],"tree_param":{"num_deleted":"0","num_feature":"22","num_nodes":"31","size_leaf_vector":"1"}},{"base_weights":[9.650511E-3,2.5796673E-1,-1.884609E-1,3.1019375E-1,-6.749241E-1,-3.0514523E-1,5.5856717E-1,7.742675E-1,2.1961373E-1,4.6421918E-1,-1.296502E0,-6.2531406E-1,-1.3672689E-1,1.3125967E0,1.406543E-1,-2.1987218E-1,1.120849E0,-7.537588E-1,2.746191E-1,-3.1872865E-2,5.9904095E-2,-7.662459E-2,-9.833053E-3,-6.815285E-1,4.2440888E-2,-3.307941E-1,3.3208802E-1,7.390634E-2,2.8095248E-3,-2.4667735E-1,7.4133956E-1,-3.134594E-2,5.0584156E-2,6.344407E-2,-5.6189355E-3,1.6988927E-2,-5.41943E-2,5.5788632E-2,9.12749E-3,-5.072203E-2,-1.9591665E-2,6.354113E-3,-2.9627457E-2,7.0115365E-2,1.8436225E-3,2.160402E-2,-3.890193E-2,5.5886675E-2,-3.5545293E-2],"categories":[],"categories_nodes":[],"categories_segments":[],"categories_sizes":[],"default_left":[0,0,0,0,0,0,0,0,0,0,0,0,0,0,0,0,0,0,0,0,0,0,0,0,0,0,0,0,0,0,0,0,0,0,0,0,0,0,0,0,0,0,0,0,0,0,0,0,0],"id":5,"left_children":[1,3,5,7,9,11,13,15,17,19,21,23,25,27,29,31,33,35,37,-1,-1,-1,-1,39,-1,41,43,-1,-1,45,47,-1,-1,-1,-1,-1,-1,-1,-1,-1,-1,-1,-1,-1,-1,-1,-1,-1,-1],"loss_changes":[1.858678E1,8.377651E0,1.8491531E1,6.5324717E0,7.118232E0,9.7519E0,8.874569E0,9.081857E0,7.4245186E0,3.9857183E0,1.3124542E0,5.766571E0,1.1103123E1,2.0240536E0,4.747016E0,4.3764005E0,3.6437664E0,3.067668E0,9.734521E0,0E0,0E0,0E0,0E0,5.472206E0,0E0,1.0377273E1,1.1282339E1,0E0,0E0,4.908261E0,5.1347647E0,0E0,0E0,0E0,0E0,0E0,0E0,0E0,0E0,0E0,0E0,0E0,0E0,0E0,0E0,0E0,0E0,0E0,0E0],"parents":[2147483647,0,0,1,1,2,2,3,3,4,4,5,5,6,6,7,7,8,8,9,9,10,10,11,11,12,12,13,13,14,14,15,15,16,16,17,17,18,18,23,23,25,25,26,26,29,29,30,30],"right_children":[2,4,6,8,10,12,14,16,18,20,22,24,26,28,30,32,34,36,38,-1,-1,-1,-1,40,-1,42,44,-1,-1,46,48,-1,-1,-1,-1,-1,-1,-1,-1,-1,-1,-1,-1,-1,-1,-1,-1,-1,-1],"split_conditions":[-2.70185E-3,9.770253E6,7.989867E1,3.001426E1,1.4751362E-2,1.7787947E-1,1.1497594E4,1.8328402E-2,-1.6731738E-1,1.1028935E-2,7.399986E-1,5.41177E-2,1.768205E5,7.942745E-1,2.5902048E-2,-4.51079E-2,8.876306E6,-1.7826037E-1,-7.269218E-2,-3.1872865E-2,5.9904095E-2,-7.662459E-2,-9.833053E-3,1.954391E12,4.2440888E-2,1.9218564E-2,5.2474755E6,7.390634E-2,2.8095248E-3,8.2846115E1,3.6292467E-2,-3.134594E-2,5.0584156E-2,6.344407E-2,-5.6189355E-3,1.6988927E-2,-5.41943E-2,5.5788632E-2,9.12749E-3,-5.072203E-2,-1.9591665E-2,6.354113E-3,-2.9627457E-2,7.0115365E-2,1.8436225E-3,2.160402E-2,-3.890193E-2,5.5886675E-2,-3.5545293E-2],"split_indices":[7,0,17,17,10,19,16,10,15,10,18,10,16,18,9,14,12,8,6,0,0,0,0,4,0,9,12,0,0,17,10,0,0,0,0,0,0,0,0,0,0,0,0,0,0,0,0,0,0],"split_type":[0,0,0,0,0,0,0,0,0,0,0,0,0,0,0,0,0,0,0,0,0,0,0,0,0,0,0,0,0,0,0,0,0,0,0,0,0,0,0,0,0,0,0,0,0,0,0,0,0],"sum_hessian":[3.7583575E2,1.6665074E2,2.0918501E2,1.584477E2,8.203052E0,1.8143651E2,2.774851E1,2.4643316E1,1.3380438E2,2.985251E0,5.2178006E0,6.1606907E1,1.198296E2,9.131658E0,1.8616854E1,6.4648986E0,1.8178417E1,6.4773903E0,1.2732699E2,1.2460477E0,1.7392032E0,3.9721353E0,1.2456652E0,5.9861816E1,1.7450922E0,8.495617E1,3.4873432E1,7.912697E0,1.2189609E0,1.1676802E1,6.9400516E0,5.2279425E0,1.2369561E0,1.6204386E1,1.9740304E0,1.4952343E0,4.982156E0,1.14647875E1,1.158622E2,2.6689272E1,3.3172543E1,3.1088665E1,5.3867504E1,6.7290573E0,2.8144375E1,5.2093062E0,6.467495E0,5.694491E0,1.2455606E0],"tree_param":{"num_deleted":"0","num_feature":"22","num_nodes":"49","size_leaf_vector":"1"}},{"base_weights":[-9.60344E-3,1.811843E-2,-1.3413441E0,5.6279755E-1,-3.8408212E-2,-7.5693764E-2,-2.8020605E-2,-7.742159E-1,7.12737E-1,-1.1433234E-1,4.9914047E-1,-6.245617E-2,7.654935E-3,-1.6954528E-3,9.881249E-1,1.0532491E0,-1.4069818E-1,6.854402E-2,2.2502916E-1,5.6072444E-2,-1.8848984E-2,1.3908376E-2,6.1473645E-2,7.034311E-2,-1.3122173E-2,-5.15771E-2,-3.98181E-3,-1.6042234E-2,2.9615128E-2],"categories":[],"categories_nodes":[],"categories_segments":[],"categories_sizes":[],"default_left":[0,0,0,0,0,0,0,0,0,0,0,0,0,0,0,0,0,0,0,0,0,0,0,0,0,0,0,0,0],"id":6,"left_children":[1,3,5,7,9,-1,-1,11,13,15,17,-1,-1,19,21,23,25,-1,27,-1,-1,-1,-1,-1,-1,-1,-1,-1,-1],"loss_changes":[1.3913887E1,1.1399317E1,1.8707466E-1,7.5299597E0,1.3759208E1,0E0,0E0,1.9480934E0,6.262018E0,9.229356E0,9.664672E0,0E0,0E0,4.574981E0,3.5935516E0,3.4548106E0,1.5658159E1,0E0,6.795788E0,0E0,0E0,0E0,0E0,0E0,0E0,0E0,0E0,0E0,0E0],"parents":[2147483647,0,0,1,1,2,2,3,3,4,4,7,7,8,8,9,9,10,10,13,13,14,14,15,15,16,16,18,18],"right_children":[2,4,6,8,10,-1,-1,12,14,16,18,-1,-1,20,22,24,26,-1,28,-1,-1,-1,-1,-1,-1,-1,-1,-1,-1],"split_conditions":[1.0193791E7,3.1954882E1,7.401469E12,1.3872659E-2,7.734091E1,-7.5693764E-2,-2.8020605E-2,-4.2605776E-2,-2.2408867E-2,1.3485144E5,1.1336515E4,-6.245617E-2,7.654935E-3,-1.412406E-1,-7.6867096E-2,2.0194149E-2,4.5911016E3,6.854402E-2,8.567918E4,5.6072444E-2,-1.8848984E-2,1.3908376E-2,6.1473645E-2,7.034311E-2,-1.3122173E-2,-5.15771E-2,-3.98181E-3,-1.6042234E-2,2.9615128E-2],"split_indices":[11,17,4,9,17,0,0,14,5,0,16,0,0,14,7,9,16,0,16,0,0,0,0,0,0,0,0,0,0],"split_type":[0,0,0,0,0,0,0,0,0,0,0,0,0,0,0,0,0,0,0,0,0,0,0,0,0,0,0,0,0],"sum_hessian":[3.7522446E2,3.6853925E2,6.6852164E0,3.380875E1,3.347305E2,4.706795E0,1.9784211E0,2.9893272E0,3.0819422E1,2.939937E2,4.0736774E1,1.7473965E0,1.2419307E0,8.851089E0,2.1968334E1,5.632166E0,2.8836154E2,8.787914E0,3.194886E1,1.7188067E0,7.1322813E0,6.119516E0,1.5848818E1,4.384475E0,1.2476907E0,1.7478043E1,2.708835E2,1.2900872E1,1.9047989E1],"tree_param":{"num_deleted":"0","num_feature":"22","num_nodes":"29","size_leaf_vector":"1"}},{"base_weights":[2.545259E-2,4.5981762E-1,-4.831068E-2,7.802887E-2,7.037376E-1,-1.0627139E-1,6.835242E-1,6.85654E-1,-2.9742306E-1,2.2073221E-1,1.2270621E0,6.8289705E-2,-1.3118E-1,7.944112E-1,-3.70675E-2,1.0462075E0,-2.5476579E-2,-5.4022825E-1,4.212461E-2,6.196115E-1,-7.226009E-1,1.3523482E0,1.5726488E-2,-8.893095E-1,-7.854754E-2,-1.5061206E-1,1.030975E0,6.793484E-2,-1.2290014E-2,-4.594498E-2,6.1467723E-3,-3.5823654E-2,5.1126104E-2,3.1843975E-2,-6.0754914E-2,1.633115E-2,7.256233E-2,-1.1562691E-2,-6.681585E-2,1.6046809E-2,-8.35452E-3,3.739355E-2,-6.482211E-2,-2.1458035E-2,5.9348404E-2],"categories":[],"categories_nodes":[],"categories_segments":[],"categories_sizes":[],"default_left":[0,0,0,0,0,0,0,0,0,0,0,0,0,0,0,0,0,0,0,0,0,0,0,0,0,0,0,0,0,0,0,0,0,0,0,0,0,0,0,0,0,0,0,0,0],"id":7,"left_children":[1,3,5,7,9,11,13,15,17,19,21,-1,23,25,-1,27,-1,29,-1,31,33,35,-1,37,39,41,43,-1,-1,-1,-1,-1,-1,-1,-1,-1,-1,-1,-1,-1,-1,-1,-1,-1,-1],"loss_changes":[1.2137718E1,5.065858E0,1.3822203E1,5.350752E0,8.178465E0,1.1224187E1,4.3687315E0,4.376416E0,4.5076504E0,7.4474163E0,1.383831E0,0E0,1.17860775E1,5.2251663E0,0E0,3.232522E0,0E0,3.2971768E0,0E0,8.06057E0,4.784379E0,9.067364E-1,0E0,5.3363028E0,9.919882E0,6.542193E0,4.6696987E0,0E0,0E0,0E0,0E0,0E0,0E0,0E0,0E0,0E0,0E0,0E0,0E0,0E0,0E0,0E0,0E0,0E0,0E0],"parents":[2147483647,0,0,1,1,2,2,3,3,4,4,5,5,6,6,7,7,8,8,9,9,10,10,12,12,13,13,15,15,17,17,19,19,20,20,21,21,23,23,24,24,25,25,26,26],"right_children":[2,4,6,8,10,12,14,16,18,20,22,-1,24,26,-1,28,-1,30,-1,32,34,36,-1,38,40,42,44,-1,-1,-1,-1,-1,-1,-1,-1,-1,-1,-1,-1,-1,-1,-1,-1,-1,-1],"split_conditions":[-4.0788874E-2,1.1778122E-1,1.0215033E-1,2.6523912E-2,2.975583E-1,1.3591775E5,8.128104E6,8.3166205E6,5.487412E12,4.6051823E1,5.728124E-1,6.8289705E-2,4.5911016E3,2.1560428E5,-3.70675E-2,2.1147425E0,-2.5476579E-2,4.7204662E1,4.212461E-2,2.396588E-2,2.2018275E5,1.5322019E-1,1.5726488E-2,-4.893063E-3,1.581513E-1,9.24469E3,-6.313181E-1,6.793484E-2,-1.2290014E-2,-4.594498E-2,6.1467723E-3,-3.5823654E-2,5.1126104E-2,3.1843975E-2,-6.0754914E-2,1.633115E-2,7.256233E-2,-1.1562691E-2,-6.681585E-2,1.6046809E-2,-8.35452E-3,3.739355E-2,-6.482211E-2,-2.1458035E-2,5.9348404E-2],"split_indices":[6,19,7,10,21,1,1,0,4,17,20,0,16,0,0,21,0,17,0,10,11,18,0,7,18,16,21,0,0,0,0,0,0,0,0,0,0,0,0,0,0,0,0,0,0],"split_type":[0,0,0,0,0,0,0,0,0,0,0,0,0,0,0,0,0,0,0,0,0,0,0,0,0,0,0,0,0,0,0,0,0,0,0,0,0,0,0,0,0,0,0,0,0],"sum_hessian":[3.7713467E2,5.3987606E1,3.2314706E2,2.1560522E1,3.2427086E1,3.0022433E2,2.2922733E1,7.9187455E0,1.3641775E1,1.7602524E1,1.4824563E1,4.0997934E0,2.9612454E2,2.1678158E1,1.2445756E0,6.1792808E0,1.7394648E0,1.1679985E1,1.9617902E0,1.2612582E1,4.989941E0,1.2611144E1,2.2134187E0,1.8191635E1,2.779329E2,4.412894E0,1.7265263E1,4.93425E0,1.245031E0,7.1892443E0,4.4907413E0,2.7419167E0,9.870666E0,1.2490163E0,3.7409246E0,1.4873793E0,1.1123765E1,7.972449E0,1.0219187E1,4.994929E1,2.2798361E2,2.6680775E0,1.7448164E0,1.4974643E0,1.5767799E1],"tree_param":{"num_deleted":"0","num_feature":"22","num_nodes":"45","size_leaf_vector":"1"}},{"base_weights":[-2.1628909E-2,2.7346665E-1,-1.2605378E-1,1.2844183E-1,6.0166645E-1,9.222343E-1,-1.6473171E-1,3.8107106E-1,-3.2386017E-1,1.0127534E0,-4.7810484E-2,-2.0956022E-1,7.371696E-2,-2.3148814E-1,5.336202E-1,1.3114792E-1,1.0169476E0,5.3431552E-2,-4.6548125E-1,1.6446847E-2,1.1828635E0,-6.227493E-2,2.2390866E-1,2.9556587E-2,-3.7024986E-2,6.3877754E-2,-2.571909E-1,6.600243E-1,-4.1120723E-2,-4.363512E-3,5.399502E-2,7.277868E-2,-1.0847139E-2,2.9457713E-2,-3.142641E-2,3.489561E-2,-3.717393E-2,8.5863685E-3,6.783684E-2,-2.691269E-2,3.171139E-2,-1.460212E-2,3.1367972E-2,6.8747126E-3,4.6816144E-2],"categories":[],"categories_nodes":[],"categories_segments":[],"categories_sizes":[],"default_left":[0,0,0,0,0,0,0,0,0,0,0,0,0,0,0,0,0,0,0,0,0,0,0,0,0,0,0,0,0,0,0,0,0,0,0,0,0,0,0,0,0,0,0,0,0],"id":8,"left_children":[1,3,5,7,9,11,13,15,17,19,21,23,-1,25,27,29,31,-1,33,35,37,-1,39,-1,-1,-1,41,43,-1,-1,-1,-1,-1,-1,-1,-1,-1,-1,-1,-1,-1,-1,-1,-1,-1],"loss_changes":[1.1740534E1,4.663695E0,1.1556252E1,8.162201E0,8.125985E0,6.657728E0,1.2809223E1,7.1132784E0,5.576086E0,3.128214E0,4.405955E0,2.2261178E0,0E0,9.989036E0,4.664251E0,7.1153846E0,7.198698E0,0E0,4.5096445E0,2.446722E0,2.5535297E0,0E0,3.8390326E0,0E0,0E0,0E0,7.758497E0,3.126771E0,0E0,0E0,0E0,0E0,0E0,0E0,0E0,0E0,0E0,0E0,0E0,0E0,0E0,0E0,0E0,0E0,0E0],"parents":[2147483647,0,0,1,1,2,2,3,3,4,4,5,5,6,6,7,7,8,8,9,9,10,10,11,11,13,13,14,14,15,15,16,16,18,18,19,19,20,20,22,22,26,26,27,27],"right_children":[2,4,6,8,10,12,14,16,18,20,22,24,-1,26,28,30,32,-1,34,36,38,-1,40,-1,-1,-1,42,44,-1,-1,-1,-1,-1,-1,-1,-1,-1,-1,-1,-1,-1,-1,-1,-1,-1],"split_conditions":[-3.1508032E-2,-5.091246E-2,3.7068274E-2,-5.7400536E-2,-1.5812218E-2,2.8895097E5,1.0215033E-1,1.5366275E5,1.4980288E5,-7.178935E-2,-5.006884E-2,-2.1241799E-2,7.371696E-2,1.3591775E5,4.0400493E-1,-7.541843E-2,7.979809E6,5.3431552E-2,-1.01755895E-1,5.242266E6,-1.114437E0,-6.227493E-2,-4.87296E-2,2.9556587E-2,-3.7024986E-2,6.3877754E-2,1.8290712E-1,7.268907E1,-4.1120723E-2,-4.363512E-3,5.399502E-2,7.277868E-2,-1.0847139E-2,2.9457713E-2,-3.142641E-2,3.489561E-2,-3.717393E-2,8.5863685E-3,6.783684E-2,-2.691269E-2,3.171139E-2,-1.460212E-2,3.1367972E-2,6.8747126E-3,4.6816144E-2],"split_indices":[14,8,18,14,6,13,7,16,12,7,7,6,0,1,15,15,0,0,15,13,21,0,14,0,0,0,8,17,0,0,0,0,0,0,0,0,0,0,0,0,0,0,0,0,0],"split_type":[0,0,0,0,0,0,0,0,0,0,0,0,0,0,0,0,0,0,0,0,0,0,0,0,0,0,0,0,0,0,0,0,0,0,0,0,0,0,0,0,0,0,0,0,0],"sum_hessian":[3.7887802E2,9.860634E1,2.8027167E2,6.935232E1,2.9254026E1,9.160149E0,2.711115E2,4.4599274E1,2.4753042E1,1.7572294E1,1.1681732E1,3.2067876E0,5.953361E0,2.4806697E2,2.3044548E1,3.2881763E1,1.1717509E1,1.6808045E0,2.3072237E1,2.722683E0,1.4849611E1,1.4974549E0,1.0184278E1,1.2333876E0,1.9733999E0,3.338766E0,2.4472821E2,2.1549095E1,1.4954516E0,2.746654E1,5.4152255E0,8.511989E0,3.2055206E0,2.7394261E0,2.0332811E1,1.4784672E0,1.2442156E0,2.4704897E0,1.2379121E1,3.454953E0,6.7293243E0,2.3609583E2,8.632385E0,7.971394E0,1.3577702E1],"tree_param":{"num_deleted":"0","num_feature":"22","num_nodes":"45","size_leaf_vector":"1"}},{"base_weights":[5.0909832E-2,3.5505286E-1,-7.110766E-2,4.1664904E-1,-4.8963338E-1,-2.2527935E-1,2.3474355E-1,3.319393E-1,1.0973446E0,2.9564312E-1,-9.7897196E-1,-3.1943086E-1,2.967714E-1,6.64555E-1,1.4649665E-2,6.469028E-2,2.7765343E-1,7.088318E-2,3.950921E-1,3.525902E-2,-1.4542401E-2,-2.0859863E-3,-6.836753E-2,-3.489288E-1,6.330504E-2,6.921654E-2,1.2161701E-1,2.4095859E-1,1.3847847E0,-1.1764356E0,1.989086E-1,-3.404626E-2,1.7692635E-2,5.9986748E-2,-3.1078381E-2,-3.2732245E-2,-9.425105E-3,1.5543438E-2,-3.7535977E-2,4.1970976E-2,-2.7253712E-2,7.618529E-2,8.110369E-3,-9.858211E-3,-8.144094E-2,-9.3718795E-3,2.66428E-2],"categories":[],"categories_nodes":[],"categories_segments":[],"categories_sizes":[],"default_left":[0,0,0,0,0,0,0,0,0,0,0,0,0,0,0,0,0,0,0,0,0,0,0,0,0,0,0,0,0,0,0,0,0,0,0,0,0,0,0,0,0,0,0,0,0,0,0],"id":9,"left_children":[1,3,5,7,9,11,13,15,17,19,21,23,25,27,29,-1,31,-1,33,-1,-1,-1,-1,35,-1,-1,37,39,41,43,45,-1,-1,-1,-1,-1,-1,-1,-1,-1,-1,-1,-1,-1,-1,-1,-1],"loss_changes":[1.3827352E1,5.7531157E0,1.2608147E1,5.398718E0,3.2515445E0,8.821134E0,8.47814E0,4.356757E0,1.830493E0,1.1003923E0,1.7561092E0,7.4990463E0,5.097764E0,8.929756E0,1.3481456E1,0E0,6.5785584E0,0E0,4.603156E0,0E0,0E0,0E0,0E0,7.180439E0,0E0,0E0,4.345238E0,1.0020702E1,1.6268578E0,3.3254356E0,6.9546976E0,0E0,0E0,0E0,0E0,0E0,0E0,0E0,0E0,0E0,0E0,0E0,0E0,0E0,0E0,0E0,0E0],"parents":[2147483647,0,0,1,1,2,2,3,3,4,4,5,5,6,6,7,7,8,8,9,9,10,10,11,11,12,12,13,13,14,14,16,16,18,18,23,23,26,26,27,27,28,28,29,29,30,30],"right_children":[2,4,6,8,10,12,14,16,18,20,22,24,26,28,30,-1,32,-1,34,-1,-1,-1,-1,36,-1,-1,38,40,42,44,46,-1,-1,-1,-1,-1,-1,-1,-1,-1,-1,-1,-1,-1,-1,-1,-1],"split_conditions":[4.1716267E1,5.8464203E-2,1.00494444E-1,3.9474275E-2,-1.2432797E-1,5.189716E-1,3.023561E5,1.3606581E5,2.2937312E4,1.8081334E4,-5.663183E-1,2.5981395E0,-3.9207E-2,2.367019E5,3.0663184E5,6.469028E-2,4.834011E3,7.088318E-2,-1.9838687E-2,3.525902E-2,-1.4542401E-2,-2.0859863E-3,-6.836753E-2,1.7787947E-1,6.330504E-2,6.921654E-2,3.184995E-1,3.1072622E-2,3.0832484E5,3.155279E5,2.5319938E-2,-3.404626E-2,1.7692635E-2,5.9986748E-2,-3.1078381E-2,-3.2732245E-2,-9.425105E-3,1.5543438E-2,-3.7535977E-2,4.1970976E-2,-2.7253712E-2,7.618529E-2,8.110369E-3,-9.858211E-3,-8.144094E-2,-9.3718795E-3,2.66428E-2],"split_indices":[17,9,15,10,14,20,11,3,16,16,21,21,14,11,12,0,16,0,5,0,0,0,0,19,0,0,19,9,2,11,9,0,0,0,0,0,0,0,0,0,0,0,0,0,0,0,0],"split_type":[0,0,0,0,0,0,0,0,0,0,0,0,0,0,0,0,0,0,0,0,0,0,0,0,0,0,0,0,0,0,0,0,0,0,0,0,0,0,0,0,0,0,0,0,0,0,0],"sum_hessian":[3.709164E2,1.0565328E2,2.6526312E2,9.894478E1,6.708507E0,1.7653821E2,8.872491E1,8.931727E1,9.62751E0,2.7274327E0,3.9810743E0,1.498932E2,2.6645014E1,2.9363274E1,5.9361633E1,3.5517802E0,8.576549E1,5.91209E0,3.7154207E0,1.4868308E0,1.2406019E0,1.4908092E0,2.4902651E0,1.4792114E2,1.972064E0,2.7383995E0,2.3906614E1,1.9329414E1,1.0033859E1,7.231451E0,5.2130184E1,5.7312226E0,8.003426E1,1.9734467E0,1.741974E0,4.9848E1,9.8073135E1,2.0173622E1,3.732992E0,1.0935527E1,8.3938875E0,8.788875E0,1.2449845E0,2.7387426E0,4.492708E0,2.4372353E1,2.775783E1],"tree_param":{"num_deleted":"0","num_feature":"22","num_nodes":"47","size_leaf_vector":"1"}},{"base_weights":[-2.599698E-2,-8.135898E-2,6.383895E-1,1.3954175E-1,-2.2446328E-1,8.764065E-1,-2.297713E-1,6.295091E-2,8.260047E-2,-1.8859923E-1,-7.303508E-2,-5.098612E-1,1.0848967E0,-6.346908E-2,3.4215996E-1,-2.7315256E-1,2.7714866E-1,-3.8138664E-1,7.903703E-2,8.169515E-3,-4.5500387E-2,5.1292956E-1,1.2413245E0,8.567859E-1,-3.8510643E-2,-2.412684E-2,2.3712682E-2,2.3513196E-2,-2.3976123E-2,-3.707507E-3,-4.171362E-2,-4.8628576E-2,1.0138527E-2,-2.223093E-2,6.363129E-2,6.646831E-2,2.3397213E-2,5.728771E-2,4.286312E-3],"categories":[],"categories_nodes":[],"categories_segments":[],"categories_sizes":[],"default_left":[0,0,0,0,0,0,0,0,0,0,0,0,0,0,0,0,0,0,0,0,0,0,0,0,0,0,0,0,0,0,0,0,0,0,0,0,0,0,0],"id":10,"left_children":[1,3,5,7,9,11,13,-1,15,17,-1,19,21,-1,23,25,27,29,31,-1,-1,33,35,37,-1,-1,-1,-1,-1,-1,-1,-1,-1,-1,-1,-1,-1,-1,-1],"loss_changes":[1.4054622E1,1.1168196E1,6.2755966E0,8.764099E0,9.220564E0,7.2811127E0,4.6662116E0,0E0,9.312344E0,1.0828913E1,0E0,1.151813E0,1.2023506E0,0E0,3.739212E0,7.6912174E0,1.2904984E1,1.6889782E1,1.1707832E1,0E0,0E0,5.0166793E0,4.2897987E-1,8.2668686E-1,0E0,0E0,0E0,0E0,0E0,0E0,0E0,0E0,0E0,0E0,0E0,0E0,0E0,0E0,0E0],"parents":[2147483647,0,0,1,1,2,2,3,3,4,4,5,5,6,6,8,8,9,9,11,11,12,12,14,14,15,15,16,16,17,17,18,18,21,21,22,22,23,23],"right_children":[2,4,6,8,10,12,14,-1,16,18,-1,20,22,-1,24,26,28,30,32,-1,-1,34,36,38,-1,-1,-1,-1,-1,-1,-1,-1,-1,-1,-1,-1,-1,-1,-1],"split_conditions":[7.989867E1,4.5348515E1,3.115107E-1,1.3578848E5,1.0178169E7,1.658263E-2,1.7465083E-1,6.295091E-2,2.3024237E-2,2.831789E6,-7.303508E-2,2.6560515E-1,-3.1254524E-1,-6.346908E-2,2.443178E-1,8.390705E6,4.231113E-2,2.703359E5,-3.4773517E-2,8.169515E-3,-4.5500387E-2,2.8982595E-1,9.117249E1,4.4012208E-2,-3.8510643E-2,-2.412684E-2,2.3712682E-2,2.3513196E-2,-2.3976123E-2,-3.707507E-3,-4.171362E-2,-4.8628576E-2,1.0138527E-2,-2.223093E-2,6.363129E-2,6.646831E-2,2.3397213E-2,5.728771E-2,4.286312E-3],"split_indices":[17,17,15,3,12,10,8,0,10,2,0,19,21,0,19,2,9,13,15,0,0,19,17,5,0,0,0,0,0,0,0,0,0,0,0,0,0,0,0],"split_type":[0,0,0,0,0,0,0,0,0,0,0,0,0,0,0,0,0,0,0,0,0,0,0,0,0,0,0,0,0,0,0,0,0,0,0,0,0,0,0],"sum_hessian":[3.796963E2,3.5130066E2,2.8395638E1,1.3811952E2,2.1318114E2,2.2278278E1,6.11736E0,5.663486E0,1.3245602E2,2.0829103E2,4.8900967E0,2.7235684E0,1.9554708E1,1.7382481E0,4.3791122E0,4.668439E1,8.577164E1,1.20828896E2,8.746214E1,1.2358721E0,1.4876962E0,5.1184583E0,1.4436251E1,3.1510732E0,1.228039E0,3.67448E1,9.939591E0,6.8633675E1,1.7137964E1,7.2684E1,4.8144897E1,8.485325E0,7.8976814E1,2.4478464E0,2.6706116E0,1.2315366E1,2.1208851E0,1.9386005E0,1.2124727E0],"tree_param":{"num_deleted":"0","num_feature":"22","num_nodes":"39","size_leaf_vector":"1"}},{"base_weights":[-3.1979734E-3,1.9434383E-2,-1.2112659E0,2.9611287E-1,-6.647626E-2,-7.4316636E-3,-7.052223E-2,3.7018523E-1,-7.140472E-1,-1.9932738E-1,2.986727E-1,1.1670188E-2,5.387658E-1,1.14929015E-2,-1.1807939E0,5.686108E-2,-2.3057252E-1,4.026437E-1,-6.634797E-1,2.2655372E-2,-3.6021046E-2,4.0578093E-2,1.0592945E-2,-7.254319E-2,-1.3251967E-2,-1.43881235E-2,2.3462351E-2,1.1833093E-2,4.0822443E-2,-5.763803E-2,6.073245E-3],"categories":[],"categories_nodes":[],"categories_segments":[],"categories_sizes":[],"default_left":[0,0,0,0,0,0,0,0,0,0,0,0,0,0,0,0,0,0,0,0,0,0,0,0,0,0,0,0,0,0,0],"id":11,"left_children":[1,3,5,7,9,-1,-1,11,13,15,17,19,21,-1,23,-1,25,27,29,-1,-1,-1,-1,-1,-1,-1,-1,-1,-1,-1,-1],"loss_changes":[1.0506774E1,8.989215E0,1.2860756E0,6.9680476E0,1.4067441E1,0E0,0E0,5.0784082E0,3.1184123E0,9.1291685E0,8.013203E0,9.352408E0,4.929144E0,0E0,7.2516537E-1,0E0,8.472104E0,4.6492586E0,3.1852584E0,0E0,0E0,0E0,0E0,0E0,0E0,0E0,0E0,0E0,0E0,0E0,0E0],"parents":[2147483647,0,0,1,1,2,2,3,3,4,4,7,7,8,8,9,9,10,10,11,11,12,12,14,14,16,16,17,17,18,18],"right_children":[2,4,6,8,10,-1,-1,12,14,16,18,20,22,-1,24,-1,26,28,30,-1,-1,-1,-1,-1,-1,-1,-1,-1,-1,-1,-1],"split_conditions":[1.0210853E7,-2.9304957E-2,9.908364E6,2.7808452E-2,6.845401E1,-7.4316636E-3,-7.052223E-2,2.396588E-2,1.8393258E4,1.3485144E5,3.5521868E-1,2.219055E-2,3.2608844E-2,1.14929015E-2,-5.2610255E-4,5.686108E-2,8.951486E6,5.48166E-2,6.4120516E-2,2.2655372E-2,-3.6021046E-2,4.0578093E-2,1.0592945E-2,-7.254319E-2,-1.3251967E-2,-1.43881235E-2,2.3462351E-2,1.1833093E-2,4.0822443E-2,-5.763803E-2,6.073245E-3],"split_indices":[11,7,3,5,17,0,0,10,16,0,15,9,9,0,15,0,13,6,6,0,0,0,0,0,0,0,0,0,0,0,0],"split_type":[0,0,0,0,0,0,0,0,0,0,0,0,0,0,0,0,0,0,0,0,0,0,0,0,0,0,0,0,0,0,0],"sum_hessian":[3.8241943E2,3.7635263E2,6.0668054E0,8.8592E1,2.8776062E2,1.2332983E0,4.833507E0,8.3129845E1,5.462156E0,2.1132791E2,7.643272E1,2.692932E1,5.6200527E1,1.9752088E0,3.4869468E0,4.0188756E0,2.0730904E2,6.950362E1,6.9291024E0,1.7037252E1,9.892067E0,2.9827572E1,2.6372955E1,2.2415447E0,1.2454022E0,1.9219174E2,1.5117289E1,5.0727974E1,1.877564E1,3.9797866E0,2.9493158E0],"tree_param":{"num_deleted":"0","num_feature":"22","num_nodes":"31","size_leaf_vector":"1"}},{"base_weights":[2.392465E-2,4.6239074E-2,-1.1645218E0,1.2135605E0,2.4499156E-2,-5.331763E-3,-6.8462566E-2,1.8637104E-2,6.589217E-2,-1.3017566E0,5.5753972E-2,1.21443225E-2,-8.007599E-2,3.843353E-1,-2.2554372E-2,-2.9108314E-2,2.4031503E-2,1.3612829E-2,-7.0243734E-3],"categories":[],"categories_nodes":[],"categories_segments":[],"categories_sizes":[],"default_left":[0,0,0,0,0,0,0,0,0,0,0,0,0,0,0,0,0,0,0],"id":12,"left_children":[1,3,5,7,9,-1,-1,-1,-1,11,13,-1,-1,15,17,-1,-1,-1,-1],"loss_changes":[1.0052152E1,9.386084E0,1.3671608E0,1.0178852E-1,1.52136E1,0E0,0E0,0E0,0E0,4.301957E0,9.215525E0,0E0,0E0,6.694062E0,1.0117386E1,0E0,0E0,0E0,0E0],"parents":[2147483647,0,0,1,1,2,2,3,3,4,4,9,9,10,10,13,13,14,14],"right_children":[2,4,6,8,10,-1,-1,-1,-1,12,14,-1,-1,16,18,-1,-1,-1,-1],"split_conditions":[1.0210853E7,1.3485144E5,-2.1356696E-2,-7.769066E-3,3.363322E3,-5.331763E-3,-6.8462566E-2,1.8637104E-2,6.589217E-2,7.364003E-3,-2.908672E-2,1.21443225E-2,-8.007599E-2,7.64425E3,1.8625535E-2,-2.9108314E-2,2.4031503E-2,1.3612829E-2,-7.0243734E-3],"split_indices":[11,0,5,5,16,0,0,0,0,9,6,0,0,16,9,0,0,0,0],"split_type":[0,0,0,0,0,0,0,0,0,0,0,0,0,0,0,0,0,0,0],"sum_hessian":[3.7601712E2,3.7003046E2,5.9866467E0,5.763043E0,3.6426743E2,1.2173195E0,4.7693267E0,1.1406308E0,4.622412E0,7.450851E0,3.5681656E2,1.2417907E0,6.2090607E0,6.791936E1,2.8889722E2,5.696675E0,6.2222687E1,8.2172516E1,2.067247E2],"tree_param":{"num_deleted":"0","num_feature":"22","num_nodes":"19","size_leaf_vector":"1"}},{"base_weights":[-1.0547852E-3,5.445931E-1,-6.157404E-2,-3.9869133E-1,8.6969405E-1,-1.1236848E-1,6.3604623E-1,9.127727E-2,-1.0114305E0,3.5504463E-1,1.2676843E0,-4.707667E-2,-6.1746573E-1,9.7203976E-1,-1.778352E-1,8.0345654E-1,-5.980934E-1,-6.933349E-2,2.392783E-3,5.962482E-1,-5.7267036E-2,1.0636716E-2,1.421536E0,2.0770247E-1,-1.4265743E-1,-7.6051587E-1,3.2438335E-1,1.0981802E0,-1.6472649E-2,-7.648456E-1,5.734327E-1,5.4621547E-2,6.017029E-3,-6.0197156E-2,1.2813433E-2,2.4457274E-3,5.4882746E-2,7.4088246E-2,2.1765674E-2,1.5226764E-2,-5.745544E-2,-2.8400237E-3,-4.960526E-2,-4.2350236E-2,3.1013414E-2,4.437379E-2,-2.8083889E-2,6.2649965E-2,2.1028504E-2,-5.6531508E-2,7.384254E-3,-1.6531516E-2,5.516209E-2],"categories":[],"categories_nodes":[],"categories_segments":[],"categories_sizes":[],"default_left":[0,0,0,0,0,0,0,0,0,0,0,0,0,0,0,0,0,0,0,0,0,0,0,0,0,0,0,0,0,0,0,0,0,0,0,0,0,0,0,0,0,0,0,0,0,0,0,0,0,0,0,0,0],"id":13,"left_children":[1,3,5,7,9,11,13,15,17,19,21,23,25,27,29,31,33,-1,-1,35,-1,-1,37,39,41,43,45,47,-1,49,51,-1,-1,-1,-1,-1,-1,-1,-1,-1,-1,-1,-1,-1,-1,-1,-1,-1,-1,-1,-1,-1,-1],"loss_changes":[1.24708185E1,1.190928E1,1.2116957E1,3.1995463E0,5.3576813E0,1.0448555E1,6.5228376E0,3.7543483E0,1.927187E0,5.66051E0,2.2296524E0,6.9072013E0,5.1354666E0,3.0854664E0,3.8036568E0,6.002295E-1,2.359137E0,0E0,0E0,3.3786602E0,0E0,0E0,1.5323257E-1,1.0526195E1,1.4965176E1,4.322981E0,3.2353363E0,1.08391E0,0E0,1.7397993E0,2.2416477E0,0E0,0E0,0E0,0E0,0E0,0E0,0E0,0E0,0E0,0E0,0E0,0E0,0E0,0E0,0E0,0E0,0E0,0E0,0E0,0E0,0E0,0E0],"parents":[2147483647,0,0,1,1,2,2,3,3,4,4,5,5,6,6,7,7,8,8,9,9,10,10,11,11,12,12,13,13,14,14,15,15,16,16,19,19,22,22,23,23,24,24,25,25,26,26,27,27,29,29,30,30],"right_children":[2,4,6,8,10,12,14,16,18,20,22,24,26,28,30,32,34,-1,-1,36,-1,-1,38,40,42,44,46,48,-1,50,52,-1,-1,-1,-1,-1,-1,-1,-1,-1,-1,-1,-1,-1,-1,-1,-1,-1,-1,-1,-1,-1,-1],"split_conditions":[3.1954882E1,1.9057412E-2,1.0215033E-1,4.38734E-7,-1.21629834E-1,2.859124E-2,3.5694007E-2,-8.313947E-2,2.5288364E1,7.9248715E6,2.0114258E5,1.778803E-2,2.3507695E-1,7.979809E6,9.7474736E-1,-3.3901405E-2,-4.847914E-2,-6.933349E-2,2.392783E-3,-2.295971E-2,-5.7267036E-2,1.0636716E-2,9.545787E6,1.0236147E7,8.452415E6,1.8290712E-1,3.430588E-2,1.6097392E-1,-1.6472649E-2,5.693305E-1,4.6799026E-2,5.4621547E-2,6.017029E-3,-6.0197156E-2,1.2813433E-2,2.4457274E-3,5.4882746E-2,7.4088246E-2,2.1765674E-2,1.5226764E-2,-5.745544E-2,-2.8400237E-3,-4.960526E-2,-4.2350236E-2,3.1013414E-2,4.437379E-2,-2.8083889E-2,6.2649965E-2,2.1028504E-2,-5.6531508E-2,7.384254E-3,-1.6531516E-2,5.516209E-2],"split_indices":[17,10,7,5,15,5,10,8,17,3,12,9,19,0,21,21,15,0,0,5,0,0,3,3,12,8,10,7,0,18,9,0,0,0,0,0,0,0,0,0,0,0,0,0,0,0,0,0,0,0,0,0,0],"split_type":[0,0,0,0,0,0,0,0,0,0,0,0,0,0,0,0,0,0,0,0,0,0,0,0,0,0,0,0,0,0,0,0,0,0,0,0,0,0,0,0,0,0,0,0,0,0,0,0,0,0,0,0,0],"sum_hessian":[3.7563403E2,3.6704433E1,3.3892963E2,9.349726E0,2.7354706E1,3.1670865E2,2.2220951E1,5.668234E0,3.6814926E0,1.2754149E1,1.4600556E1,2.8142343E2,3.528523E1,1.5590445E1,6.630507E0,2.706595E0,2.9616387E0,2.4902802E0,1.1912124E0,1.1506892E1,1.247257E0,2.1615667E0,1.243899E1,7.645436E1,2.0496907E2,3.0799812E1,4.485414E0,1.4355343E1,1.235102E0,3.7120154E0,2.9184918E0,1.4809357E0,1.2256594E0,1.4934344E0,1.4682043E0,6.0262337E0,5.4806585E0,1.1249514E1,1.189476E0,7.2085335E1,4.3690295E0,1.8712273E2,1.7846346E1,2.9348099E1,1.4517142E0,2.7415564E0,1.7438576E0,1.0994251E1,3.3610914E0,2.4792228E0,1.2327925E0,1.2172788E0,1.7012129E0],"tree_param":{"num_deleted":"0","num_feature":"22","num_nodes":"53","size_leaf_vector":"1"}},{"base_weights":[-1.722069E-2,1.9987145E-1,-1.3337593E-1,-3.3035362E-1,3.1300563E-1,-1.0226338E-1,-6.729167E-2,3.712702E-1,-6.8009895E-1,7.3285145E-1,1.2022141E-1,-2.8462023E-1,1.24315046E-1,-2.9970407E-1,5.751837E-2,1.6169989E-1,-1.0772789E0,1.2147168E0,4.4366634E-1,-3.3347479E-1,3.2888848E-1,-3.9636052E-1,5.502464E-1,5.8956826E-1,-7.053263E-2,-3.3806678E-2,2.7089505E-2,-4.518493E-2,5.0277572E-2,-6.448142E-2,-7.995105E-3,7.052255E-2,-7.48538E-3,3.627701E-2,-9.98979E-3,-2.634412E-2,5.0162043E-2,-1.3642611E-2,3.2298144E-2,-1.6323462E-2,-7.181762E-2,5.304801E-2,-2.2784282E-2,7.148889E-3,5.3200748E-2,2.216964E-2,-1.8246172E-2],"categories":[],"categories_nodes":[],"categories_segments":[],"categories_sizes":[],"default_left":[0,0,0,0,0,0,0,0,0,0,0,0,0,0,0,0,0,0,0,0,0,0,0,0,0,0,0,0,0,0,0,0,0,0,0,0,0,0,0,0,0,0,0,0,0,0,0],"id":14,"left_children":[1,3,5,7,9,11,-1,13,15,17,19,21,23,25,-1,27,29,31,33,35,37,39,41,43,45,-1,-1,-1,-1,-1,-1,-1,-1,-1,-1,-1,-1,-1,-1,-1,-1,-1,-1,-1,-1,-1,-1],"loss_changes":[9.613009E0,8.076122E0,9.227209E0,6.1070905E0,8.8193035E0,1.0080911E1,0E0,4.8318386E0,5.6156135E0,4.2594776E0,7.3629665E0,1.2813208E1,9.93311E0,2.0784545E0,0E0,6.3809066E0,1.97328E0,3.5065765E0,4.333858E0,6.8969846E0,1.028511E1,8.228491E0,8.886267E0,6.694848E0,1.1932354E1,0E0,0E0,0E0,0E0,0E0,0E0,0E0,0E0,0E0,0E0,0E0,0E0,0E0,0E0,0E0,0E0,0E0,0E0,0E0,0E0,0E0,0E0],"parents":[2147483647,0,0,1,1,2,2,3,3,4,4,5,5,7,7,8,8,9,9,10,10,11,11,12,12,13,13,15,15,16,16,17,17,18,18,19,19,20,20,21,21,22,22,23,23,24,24],"right_children":[2,4,6,8,10,12,-1,14,16,18,20,22,24,26,-1,28,30,32,34,36,38,40,42,44,46,-1,-1,-1,-1,-1,-1,-1,-1,-1,-1,-1,-1,-1,-1,-1,-1,-1,-1,-1,-1,-1,-1],"split_conditions":[4.5348515E1,7.015863E-2,1.0178169E7,1.7959774E-2,-2.908672E-2,2.5963575E6,-6.729167E-2,-8.681945E-2,-7.179103E-2,2.3605308E-2,-5.7591586E-3,7.989867E1,5.0301095E6,2.8741626E-2,5.751837E-2,2.939863E5,6.2377634E-3,4.959627E-1,2.1105545E4,8.100971E6,2.0988245E-2,2.328245E6,2.3049617E5,3.5613665E6,3.3105126E-1,-3.3806678E-2,2.7089505E-2,-4.518493E-2,5.0277572E-2,-6.448142E-2,-7.995105E-3,7.052255E-2,-7.48538E-3,3.627701E-2,-9.98979E-3,-2.634412E-2,5.0162043E-2,-1.3642611E-2,3.2298144E-2,-1.6323462E-2,-7.181762E-2,5.304801E-2,-2.2784282E-2,7.148889E-3,5.3200748E-2,2.216964E-2,-1.8246172E-2],"split_indices":[17,19,12,19,6,1,0,15,14,9,6,17,12,10,0,13,6,19,16,2,10,12,13,13,18,0,0,0,0,0,0,0,0,0,0,0,0,0,0,0,0,0,0,0,0,0,0],"split_type":[0,0,0,0,0,0,0,0,0,0,0,0,0,0,0,0,0,0,0,0,0,0,0,0,0,0,0,0,0,0,0,0,0,0,0,0,0,0,0,0,0,0,0,0,0,0,0],"sum_hessian":[3.7916357E2,1.3190837E2,2.472552E2,2.2858345E1,1.09050026E2,2.4212642E2,5.128796E0,7.583515E0,1.5274829E1,3.343463E1,7.5615395E1,1.3401285E2,1.0811356E2,4.405085E0,3.1784298E0,5.086718E0,1.0188111E1,1.133942E1,2.209521E1,2.3633005E1,5.198239E1,1.18656815E2,1.5356033E1,3.1314844E1,7.679872E1,3.1793568E0,1.2257283E0,2.216885E0,2.869833E0,7.943592E0,2.2445188E0,9.8873E0,1.4521208E0,1.5275913E1,6.8192973E0,2.1175053E1,2.457952E0,1.7986763E1,3.399563E1,1.1241596E2,6.24085E0,1.0148776E1,5.2072573E0,1.6801329E1,1.4513516E1,2.7785948E1,4.901277E1],"tree_param":{"num_deleted":"0","num_feature":"22","num_nodes":"47","size_leaf_vector":"1"}},{"base_weights":[-8.225513E-3,1.575879E-2,-6.155135E-2,2.966962E-1,-7.458901E-2,3.784068E-1,-9.715844E-1,5.5710244E-1,-1.5345737E-1,1.8041517E-1,1.1053668E0,-7.391163E-2,-5.0122134E-4,-1.6313578E-1,7.229411E-1,-6.532891E-1,-6.6984065E-2,-1.1059911E-2,2.9723767E-2,7.374128E-2,1.0568307E-2,2.5154183E-2,-3.370924E-2,5.658258E-3,5.1870245E-2,-4.9106568E-2,4.212334E-2,1.0538993E-3,-2.292826E-2],"categories":[],"categories_nodes":[],"categories_segments":[],"categories_sizes":[],"default_left":[0,0,0,0,0,0,0,0,0,0,0,0,0,0,0,0,0,0,0,0,0,0,0,0,0,0,0,0,0],"id":15,"left_children":[1,3,-1,5,7,9,11,13,15,17,19,-1,-1,21,23,25,27,-1,-1,-1,-1,-1,-1,-1,-1,-1,-1,-1,-1],"loss_changes":[1.1024414E1,9.388309E0,0E0,9.693958E0,1.4035876E1,1.2073236E1,2.7754035E0,3.8560276E0,1.0749542E1,1.1474314E1,5.6523952E0,0E0,0E0,2.6112192E0,4.7958164E0,1.888692E1,7.3891563E0,0E0,0E0,0E0,0E0,0E0,0E0,0E0,0E0,0E0,0E0,0E0,0E0],"parents":[2147483647,0,0,1,1,3,3,4,4,5,5,6,6,7,7,8,8,9,9,10,10,13,13,14,14,15,15,16,16],"right_children":[2,4,-1,6,8,10,12,14,16,18,20,-1,-1,22,24,26,28,-1,-1,-1,-1,-1,-1,-1,-1,-1,-1,-1,-1],"split_conditions":[1.0210853E7,1.8241918E-2,-6.155135E-2,2.714873E5,3.2165115E1,8.405424E6,2.66641E-1,1.9057412E-2,2.1631433E-2,1.8172398E-2,2.5631612E-2,-7.391163E-2,-5.0122134E-4,2.173332E1,-2.2408867E-2,7.030006E1,2.7808452E-2,-1.1059911E-2,2.9723767E-2,7.374128E-2,1.0568307E-2,2.5154183E-2,-3.370924E-2,5.658258E-3,5.1870245E-2,-4.9106568E-2,4.212334E-2,1.0538993E-3,-2.292826E-2],"split_indices":[11,9,0,16,17,11,20,10,10,10,8,0,0,17,5,17,5,0,0,0,0,0,0,0,0,0,0,0,0],"split_type":[0,0,0,0,0,0,0,0,0,0,0,0,0,0,0,0,0,0,0,0,0,0,0,0,0,0,0,0,0],"sum_hessian":[3.7423865E2,3.680076E2,6.2310705E0,8.899446E1,2.7901312E2,8.426708E1,4.727377E0,3.0295935E1,2.487172E2,6.721019E1,1.7056892E1,2.7441497E0,1.983227E0,5.673254E0,2.462268E1,3.5716187E1,2.13001E2,3.435434E1,3.2855854E1,1.1609434E1,5.4474583E0,2.46951E0,3.203744E0,8.840316E0,1.5782365E1,2.9560658E1,6.15553E0,1.7466667E2,3.8334335E1],"tree_param":{"num_deleted":"0","num_feature":"22","num_nodes":"29","size_leaf_vector":"1"}},{"base_weights":[-2.2266243E-2,2.0843737E-1,-1.11738764E-1,2.509193E-2,9.467973E-1,-3.9992598E-1,2.0172443E-2,2.205384E-1,-4.4649062E-1,1.0961179E0,-7.8298405E-2,5.005416E-2,-4.592337E-1,1.1709282E0,-2.0058734E-2,3.404737E-2,8.814098E-1,-8.5738045E-1,2.2958106E-1,1.2636585E0,1.5035681E-1,2.2260966E-2,-2.525323E-2,-5.273192E-1,7.365253E-1,7.714417E-2,-2.2373223E-3,1.8810747E-2,-1.0089394E0,-7.603442E-3,5.8258332E-2,-2.5561372E-2,5.457365E-2,2.6330313E-2,-5.1075995E-2,2.956747E-2,-5.908456E-2,7.744751E-2,3.67353E-2,-3.4602668E-2,3.9417002E-2,-1.23061305E-2,-4.2463124E-2,5.5579305E-2,-1.0642487E-2,-2.0801838E-2,4.8930435E-3,-6.7426056E-2,3.557741E-3],"categories":[],"categories_nodes":[],"categories_segments":[],"categories_sizes":[],"default_left":[0,0,0,0,0,0,0,0,0,0,0,0,0,0,0,0,0,0,0,0,0,0,0,0,0,0,0,0,0,0,0,0,0,0,0,0,0,0,0,0,0,0,0,0,0,0,0,0,0],"id":16,"left_children":[1,3,5,7,9,11,13,15,17,19,21,-1,23,25,27,29,31,33,35,37,39,-1,-1,41,43,-1,-1,45,47,-1,-1,-1,-1,-1,-1,-1,-1,-1,-1,-1,-1,-1,-1,-1,-1,-1,-1,-1,-1],"loss_changes":[7.9515257E0,1.455368E1,1.0553749E1,8.14383E0,3.360384E0,7.7014275E0,8.877801E0,7.6583424E0,7.3936386E0,2.7793427E0,1.0410866E0,0E0,7.251583E0,2.9979305E0,7.159703E0,1.0638491E1,4.5626163E0,4.2464542E0,6.101555E0,1.2439308E0,2.6712513E0,0E0,0E0,7.0642414E0,2.0022366E0,0E0,0E0,6.218944E0,2.6796813E0,0E0,0E0,0E0,0E0,0E0,0E0,0E0,0E0,0E0,0E0,0E0,0E0,0E0,0E0,0E0,0E0,0E0,0E0,0E0,0E0],"parents":[2147483647,0,0,1,1,2,2,3,3,4,4,5,5,6,6,7,7,8,8,9,9,10,10,12,12,13,13,14,14,15,15,16,16,17,17,18,18,19,19,20,20,23,23,24,24,27,27,28,28],"right_children":[2,4,6,8,10,12,14,16,18,20,22,-1,24,26,28,30,32,34,36,38,40,-1,-1,42,44,-1,-1,46,48,-1,-1,-1,-1,-1,-1,-1,-1,-1,-1,-1,-1,-1,-1,-1,-1,-1,-1,-1,-1],"split_conditions":[2.3861533E5,2.1220377E5,2.2053135E6,2.9777186E-2,2.5558817E-1,-1.7826037E-1,2.2407142E6,2.617684E-2,3.864875E-2,2.3287517E5,2.1586649E-1,5.005416E-2,1.1732714E-1,6.0759895E1,1.0136914E7,7.626515E1,-2.8964771E-2,3.3212833E1,2.1747667E5,3.656512E-2,1.4159844E12,2.2260966E-2,-2.525323E-2,-1.6820997E-2,3.9881293E12,7.714417E-2,-2.2373223E-3,2.5963575E6,2.2177363E-2,-7.603442E-3,5.8258332E-2,-2.5561372E-2,5.457365E-2,2.6330313E-2,-5.1075995E-2,2.956747E-2,-5.908456E-2,7.744751E-2,3.67353E-2,-3.4602668E-2,3.9417002E-2,-1.23061305E-2,-4.2463124E-2,5.5579305E-2,-1.0642487E-2,-2.0801838E-2,4.8930435E-3,-6.7426056E-2,3.557741E-3],"split_indices":[13,13,13,10,8,8,13,10,10,13,19,0,7,17,2,17,15,17,3,7,4,0,0,14,4,0,0,1,6,0,0,0,0,0,0,0,0,0,0,0,0,0,0,0,0,0,0,0,0],"split_type":[0,0,0,0,0,0,0,0,0,0,0,0,0,0,0,0,0,0,0,0,0,0,0,0,0,0,0,0,0,0,0,0,0,0,0,0,0,0,0,0,0,0,0,0,0,0,0,0,0],"sum_hessian":[3.8308948E2,1.0668195E2,2.764075E2,8.628911E1,2.0392849E1,8.6154175E1,1.9025334E2,6.138186E1,2.4907248E1,1.7739536E1,2.6533136E0,2.8540602E0,8.330012E1,5.4773216E0,1.8477602E2,4.8692783E1,1.2689076E1,1.5325083E1,9.582165E0,1.478437E1,2.955165E0,1.172167E0,1.4811466E0,7.934149E1,3.9586284E0,3.9879777E0,1.4893436E0,1.7873167E2,6.0443473E0,4.255609E1,6.1366906E0,1.4752241E0,1.1213852E1,1.3907028E0,1.3934381E1,8.089474E0,1.4926908E0,8.351589E0,6.432781E0,1.2370195E0,1.7181454E0,4.329265E1,3.604884E1,2.7151272E0,1.2435012E0,2.683759E1,1.5189407E2,4.4094834E0,1.6348639E0],"tree_param":{"num_deleted":"0","num_feature":"22","num_nodes":"49","size_leaf_vector":"1"}},{"base_weights":[-1.9108357E-3,9.444928E-1,-2.8037746E-2,5.808502E-2,4.757721E-3,-6.620143E-2,6.771536E-1,9.96455E-2,-2.4624442E-1,9.1963935E-1,-4.0928993E-1,2.4816241E-2,6.5592873E-1,-3.2653946E-1,2.691381E-1,-4.682166E-3,1.041996E0,-4.4847142E-2,1.475931E-2,2.0577015E-2,-3.65711E-3,-1.6820556E-2,4.843208E-2,-1.3289872E-2,-5.4542225E-2,3.0780686E-2,-2.6105553E-2,6.98006E-2,2.9696122E-2],"categories":[],"categories_nodes":[],"categories_segments":[],"categories_sizes":[],"default_left":[0,0,0,0,0,0,0,0,0,0,0,0,0,0,0,0,0,0,0,0,0,0,0,0,0,0,0,0,0],"id":17,"left_children":[1,3,5,-1,-1,7,9,11,13,15,17,19,21,23,25,-1,27,-1,-1,-1,-1,-1,-1,-1,-1,-1,-1,-1,-1],"loss_changes":[9.447933E0,1.7831774E0,1.0049893E1,0E0,0E0,1.058243E1,5.428032E0,7.6746025E0,7.115675E0,2.0793371E0,1.7044874E0,6.2388425E0,7.1116295E0,6.552452E0,6.7474246E0,0E0,1.4462862E0,0E0,0E0,0E0,0E0,0E0,0E0,0E0,0E0,0E0,0E0,0E0,0E0],"parents":[2147483647,0,0,1,1,2,2,5,5,6,6,7,7,8,8,9,9,10,10,11,11,12,12,13,13,14,14,16,16],"right_children":[2,4,6,-1,-1,8,10,12,14,16,18,20,22,24,26,-1,28,-1,-1,-1,-1,-1,-1,-1,-1,-1,-1,-1,-1],"split_conditions":[1.3578848E5,1.357807E5,1.8290712E-1,5.808502E-2,4.757721E-3,3.6087302E-3,3.6547902E-1,1.12403266E-1,9.0876415E-2,2.384837E-2,2.5976192E5,1.6827032E-2,1.228565E12,1.3512865E-1,1.7825793E-1,-4.682166E-3,3.9718945E-2,-4.4847142E-2,1.475931E-2,2.0577015E-2,-3.65711E-3,-1.6820556E-2,4.843208E-2,-1.3289872E-2,-5.4542225E-2,3.0780686E-2,-2.6105553E-2,6.98006E-2,2.9696122E-2],"split_indices":[3,0,8,0,0,7,15,15,7,9,12,9,4,8,15,0,9,0,0,0,0,0,0,0,0,0,0,0,0],"split_type":[0,0,0,0,0,0,0,0,0,0,0,0,0,0,0,0,0,0,0,0,0,0,0,0,0,0,0,0,0],"sum_hessian":[3.8002496E2,9.265017E0,3.7075995E2,7.0852757E0,2.1797407E0,3.525848E2,1.8175135E1,1.8376025E2,1.6882455E2,1.4984289E1,3.190845E0,1.6289305E2,2.086719E1,1.4638467E2,2.2439873E1,1.6397289E0,1.3344561E1,1.7241483E0,1.4666966E0,3.2275085E1,1.3061798E2,4.981974E0,1.5885216E1,1.3685602E2,9.528664E0,1.5760548E1,6.6793246E0,6.2728734E0,7.0716867E0],"tree_param":{"num_deleted":"0","num_feature":"22","num_nodes":"29","size_leaf_vector":"1"}},{"base_weights":[4.5526236E-2,6.7483604E-1,-1.151511E-2,-5.873371E-1,8.033628E-1,2.8744927E-1,-1.05466984E-1,-5.1517237E-2,6.404815E-3,-2.1391356E-2,9.233575E-1,3.6124137E-1,-1.0733482E0,-4.0392958E-2,-8.611665E-1,6.9143035E-2,5.553891E-1,4.3452844E-1,-5.7266723E-2,-6.715608E-2,-1.0041424E-2,-1.2824668E-1,6.035623E-1,-1.0451008E0,3.6612815E-1,7.4358233E-3,5.2750118E-2,1.3602457E-2,5.167092E-2,-4.4085556E-3,-6.094235E-2,5.5310704E-2,5.620372E-4,5.5003017E-3,-5.8674213E-2,3.7256848E-2,-8.696771E-3],"categories":[],"categories_nodes":[],"categories_segments":[],"categories_sizes":[],"default_left":[0,0,0,0,0,0,0,0,0,0,0,0,0,0,0,0,0,0,0,0,0,0,0,0,0,0,0,0,0,0,0,0,0,0,0,0,0],"id":18,"left_children":[1,3,5,7,9,11,13,-1,-1,-1,15,17,19,21,23,-1,25,27,-1,-1,-1,29,31,33,35,-1,-1,-1,-1,-1,-1,-1,-1,-1,-1,-1,-1],"loss_changes":[1.3374207E1,5.4947224E0,9.647619E0,1.2220155E0,4.609003E0,8.635929E0,1.281283E1,0E0,0E0,0E0,3.6800537E0,9.183087E0,7.8405094E-1,1.3745171E1,5.047392E0,0E0,3.150816E0,7.088825E0,0E0,0E0,0E0,9.22006E0,8.67487E0,2.8325768E0,8.3247554E-1,0E0,0E0,0E0,0E0,0E0,0E0,0E0,0E0,0E0,0E0,0E0,0E0],"parents":[2147483647,0,0,1,1,2,2,3,3,4,4,5,5,6,6,10,10,11,11,12,12,13,13,14,14,16,16,17,17,21,21,22,22,23,23,24,24],"right_children":[2,4,6,8,10,12,14,-1,-1,-1,16,18,20,22,24,-1,26,28,-1,-1,-1,30,32,34,36,-1,-1,-1,-1,-1,-1,-1,-1,-1,-1,-1,-1],"split_conditions":[3.001426E1,1.4689229E-2,1.8241918E-2,6.2316E-1,1.3697744E-2,2.7543516E5,8.33875E6,-5.1517237E-2,6.404815E-3,-2.1391356E-2,2.2989266E-1,1.0210853E7,2.66641E-1,5.7830575E6,1.2999866E0,6.9143035E-2,-8.530073E-2,8.405424E6,-5.7266723E-2,-6.715608E-2,-1.0041424E-2,5.686922E6,7.432952E6,-1.043556E-1,2.1771045E-2,7.4358233E-3,5.2750118E-2,1.3602457E-2,5.167092E-2,-4.4085556E-3,-6.094235E-2,5.5310704E-2,5.620372E-4,5.5003017E-3,-5.8674213E-2,3.7256848E-2,-8.696771E-3],"split_indices":[17,19,9,18,9,16,13,0,0,0,19,11,20,11,21,0,15,11,0,0,0,3,13,15,9,0,0,0,0,0,0,0,0,0,0,0,0],"split_type":[0,0,0,0,0,0,0,0,0,0,0,0,0,0,0,0,0,0,0,0,0,0,0,0,0,0,0,0,0,0,0,0,0,0,0,0,0],"sum_hessian":[3.7135855E2,2.9962793E1,3.4139575E2,2.4392114E0,2.7523582E1,8.114013E1,2.6025565E2,1.2345746E0,1.2046367E0,2.2164633E0,2.530712E1,7.7663216E1,3.4769137E0,2.4059152E2,1.966412E1,1.0027328E1,1.5279792E1,7.473912E1,2.9240913E0,2.2437973E0,1.2331164E0,2.124132E2,2.8178324E1,1.7230274E1,2.4338455E0,9.138745E0,6.141046E0,5.99334E1,1.4805722E1,2.0592699E2,6.486214E0,1.4773636E1,1.3404688E1,1.7378068E0,1.5492468E1,1.207041E0,1.2268045E0],"tree_param":{"num_deleted":"0","num_feature":"22","num_nodes":"37","size_leaf_vector":"1"}},{"base_weights":[3.5196606E-3,2.4808632E-2,-1.0525377E0,-7.138978E-3,6.266812E-1,6.4951566E-4,-6.262204E-2,1.7170528E-1,-1.7268649E-1,7.8811604E-1,-3.7053656E-2,4.7093984E-1,6.381052E-2,8.3891827E-1,-2.0402625E-1,-2.0018075E-2,9.718907E-1,-6.8725795E-3,3.7254214E-2,-2.693948E-2,1.0748988E-2,9.519542E-3,5.7344057E-2,-4.60326E-2,-7.011287E-3,2.442983E-3,5.4288514E-2],"categories":[],"categories_nodes":[],"categories_segments":[],"categories_sizes":[],"default_left":[0,0,0,0,0,0,0,0,0,0,0,0,0,0,0,0,0,0,0,0,0,0,0,0,0,0,0],"id":19,"left_children":[1,3,5,7,9,-1,-1,11,13,15,-1,17,19,21,23,-1,25,-1,-1,-1,-1,-1,-1,-1,-1,-1,-1],"loss_changes":[8.43013E0,7.068891E0,1.5945358E0,1.0388192E1,4.6754813E0,0E0,0E0,5.415927E0,5.947064E0,4.1148252E0,0E0,7.532073E0,1.1514888E1,9.1410375E-1,7.9870853E0,0E0,1.530551E0,0E0,0E0,0E0,0E0,0E0,0E0,0E0,0E0,0E0,0E0],"parents":[2147483647,0,0,1,1,2,2,3,3,4,4,7,7,8,8,9,9,11,11,12,12,13,13,14,14,16,16],"right_children":[2,4,6,8,10,-1,-1,12,14,16,-1,18,20,22,24,-1,26,-1,-1,-1,-1,-1,-1,-1,-1,-1,-1],"split_conditions":[1.0210853E7,1.8290712E-1,-2.1356696E-2,-1.3797344E-3,4.0400493E-1,6.4951566E-4,-6.262204E-2,2.3287517E5,1.3996005E5,1.24585085E-1,-3.7053656E-2,4.7416987E3,1.6257869E4,3.6234256E-2,1.5469728E5,-2.0018075E-2,-2.4059765E-2,-6.8725795E-3,3.7254214E-2,-2.693948E-2,1.0748988E-2,9.519542E-3,5.7344057E-2,-4.60326E-2,-7.011287E-3,2.442983E-3,5.4288514E-2],"split_indices":[11,8,5,7,15,0,0,13,13,14,0,16,16,14,13,0,5,0,0,0,0,0,0,0,0,0,0],"split_type":[0,0,0,0,0,0,0,0,0,0,0,0,0,0,0,0,0,0,0,0,0,0,0,0,0,0,0],"sum_hessian":[3.7280475E2,3.663951E2,6.40962E0,3.4886536E2,1.7529758E1,1.1602492E0,5.2493706E0,1.6768007E2,1.811853E2,1.605821E1,1.4715481E0,4.3545757E1,1.24134315E2,4.6701674E0,1.7651514E2,1.9927126E0,1.4065497E1,1.3681621E1,2.9864138E1,2.4381023E1,9.975329E1,2.0246854E0,2.645482E0,1.33323345E1,1.631828E2,1.7017019E0,1.2363795E1],"tree_param":{"num_deleted":"0","num_feature":"22","num_nodes":"27","size_leaf_vector":"1"}},{"base_weights":[1.8092314E-2,1.6932772E-1,-1.4886148E-1,2.5505087E-1,-2.818827E-1,1.532069E-1,-3.0212525E-1,1.4273274E-1,6.550785E-1,-1.0352442E0,1.03744574E-1,-2.869199E-1,5.9759855E-1,-8.242869E-1,-9.788212E-2,1.7325926E-1,-5.180065E-2,7.6731426E-1,-6.425762E-1,-6.1134268E-2,-1.3143365E0,-2.7982026E-1,7.1266806E-1,9.3908924E-1,-6.011271E-1,7.37845E-1,-5.576516E-2,4.4382032E-2,-1.2357192E0,1.9565625E-1,-3.350759E-1,1.7528102E-2,-1.4501669E-3,2.1880245E-2,6.308922E-2,-5.5491414E-2,5.534817E-3,-3.3194166E-2,2.8580287E-2,3.8157476E-3,-7.795668E-2,2.3837855E-2,-3.4683008E-2,5.462263E-2,-2.5888262E-2,5.809311E-2,1.4671467E-2,-5.045284E-2,-1.0600249E-2,-9.49682E-3,4.3007866E-2,-5.853383E-2,2.9917357E-2,5.0914953E-3,-6.6719815E-2,-1.4756768E-2,4.3848585E-2,-6.284717E-2,2.54126E-4],"categories":[],"categories_nodes":[],"categories_segments":[],"categories_sizes":[],"default_left":[0,0,0,0,0,0,0,0,0,0,0,0,0,0,0,0,0,0,0,0,0,0,0,0,0,0,0,0,0,0,0,0,0,0,0,0,0,0,0,0,0,0,0,0,0,0,0,0,0,0,0,0,0,0,0,0,0,0,0],"id":20,"left_children":[1,3,5,7,9,11,13,15,17,19,21,23,25,27,29,31,-1,33,35,37,39,41,43,45,47,49,-1,51,53,55,57,-1,-1,-1,-1,-1,-1,-1,-1,-1,-1,-1,-1,-1,-1,-1,-1,-1,-1,-1,-1,-1,-1,-1,-1,-1,-1,-1,-1],"loss_changes":[9.449235E0,7.6648564E0,8.283882E0,7.3420343E0,9.350457E0,1.2015384E1,1.2544023E1,4.8749022E0,5.7363234E0,2.8729353E0,5.326779E0,1.2544588E1,8.139323E0,1.1902391E1,6.0692263E0,4.6023407E0,0E0,4.9241657E0,1.323105E0,1.7021203E0,2.9768677E0,4.772647E0,4.6619997E0,6.2774944E-1,3.812317E0,3.4262333E0,0E0,8.521726E0,3.1094666E0,1.3356041E1,1.5077028E1,0E0,0E0,0E0,0E0,0E0,0E0,0E0,0E0,0E0,0E0,0E0,0E0,0E0,0E0,0E0,0E0,0E0,0E0,0E0,0E0,0E0,0E0,0E0,0E0,0E0,0E0,0E0,0E0],"parents":[2147483647,0,0,1,1,2,2,3,3,4,4,5,5,6,6,7,7,8,8,9,9,10,10,11,11,12,12,13,13,14,14,15,15,17,17,18,18,19,19,20,20,21,21,22,22,23,23,24,24,25,25,27,27,28,28,29,29,30,30],"right_children":[2,4,6,8,10,12,14,16,18,20,22,24,26,28,30,32,-1,34,36,38,40,42,44,46,48,50,-1,52,54,56,58,-1,-1,-1,-1,-1,-1,-1,-1,-1,-1,-1,-1,-1,-1,-1,-1,-1,-1,-1,-1,-1,-1,-1,-1,-1,-1,-1,-1],"split_conditions":[3.968358E-3,4.866291E-1,2.4774028E5,3.2858053E-1,5.575219E-1,1.9391862E5,2.13122E6,3.206573E-1,9.701105E6,8.983273E11,2.5063052E-3,1.3996005E5,3.2782628E5,2.695771E5,5.2736185E6,4.5908455E1,-5.180065E-2,2.494294E6,4.38734E-7,6.62327E11,-1.088687E-1,4.0249713E-2,8.321668E-3,4.1959144E-2,3.7072757E-1,-1.0192137E-2,-5.576516E-2,2.4844954E-2,4.347091E-2,3.5613665E6,5.7830575E6,1.7528102E-2,-1.4501669E-3,2.1880245E-2,6.308922E-2,-5.5491414E-2,5.534817E-3,-3.3194166E-2,2.8580287E-2,3.8157476E-3,-7.795668E-2,2.3837855E-2,-3.4683008E-2,5.462263E-2,-2.5888262E-2,5.809311E-2,1.4671467E-2,-5.045284E-2,-1.0600249E-2,-9.49682E-3,4.3007866E-2,-5.853383E-2,2.9917357E-2,5.0914953E-3,-6.6719815E-2,-1.4756768E-2,4.3848585E-2,-6.284717E-2,2.54126E-4],"split_indices":[7,19,13,19,19,13,2,19,13,4,5,13,1,11,12,17,0,3,5,4,15,18,6,7,18,6,0,9,19,13,11,0,0,0,0,0,0,0,0,0,0,0,0,0,0,0,0,0,0,0,0,0,0,0,0,0,0,0,0],"split_type":[0,0,0,0,0,0,0,0,0,0,0,0,0,0,0,0,0,0,0,0,0,0,0,0,0,0,0,0,0,0,0,0,0,0,0,0,0,0,0,0,0,0,0,0,0,0,0,0,0,0,0,0,0,0,0,0,0,0,0],"sum_hessian":[3.7223883E2,1.9530617E2,1.7693266E2,1.6449025E2,3.0815916E1,5.9555252E1,1.1737741E2,1.2948952E2,3.5000732E1,9.862995E0,2.095292E1,3.0099236E1,2.9456017E1,3.214941E1,8.5228004E1,1.270522E2,2.4373138E0,3.2590622E1,2.4101129E0,2.4680076E0,7.3949876E0,1.3186884E1,7.7660365E0,5.7345934E0,2.4364641E1,2.7752945E1,1.703073E0,1.0619751E1,2.152966E1,3.8168198E1,4.7059803E1,6.73128E1,5.97394E1,2.06838E1,1.1906821E1,1.195319E0,1.2147937E0,1.2387514E0,1.2292562E0,1.2099143E0,6.185073E0,4.6089044E0,8.57798E0,6.0200367E0,1.746E0,3.6691322E0,2.0654612E0,1.1117077E1,1.3247565E1,3.168195E0,2.458475E1,2.97693E0,7.6428213E0,1.4770179E0,2.005264E1,2.251566E1,1.5652539E1,1.1957762E1,3.5102043E1],"tree_param":{"num_deleted":"0","num_feature":"22","num_nodes":"59","size_leaf_vector":"1"}},{"base_weights":[-2.197676E-2,-4.436795E-2,8.5025644E-1,-8.0404274E-2,5.057329E-1,-4.69934E-3,1.1055372E0,8.0554545E-2,-2.6832598E-1,1.031088E0,1.6512503E-1,6.7295186E-2,5.7598215E-1,1.0998011E-1,-5.2690793E-2,-3.1791443E-1,7.390692E-1,6.397808E-2,-1.4249141E-2,8.2949805E-1,-2.978965E-1,5.1744143E-3,3.6864147E-2,8.653096E-3,-1.5747473E-2,-1.3553013E-2,-6.063391E-2,5.827243E-2,-4.264038E-2,-1.2817881E-2,5.7348903E-2,-5.5356424E-2,5.1172874E-3],"categories":[],"categories_nodes":[],"categories_segments":[],"categories_sizes":[],"default_left":[0,0,0,0,0,0,0,0,0,0,0,0,0,0,0,0,0,0,0,0,0,0,0,0,0,0,0,0,0,0,0,0,0],"id":21,"left_children":[1,3,5,7,9,-1,11,13,15,17,19,-1,21,23,-1,25,27,-1,-1,29,31,-1,-1,-1,-1,-1,-1,-1,-1,-1,-1,-1,-1],"loss_changes":[7.2311473E0,7.1782017E0,2.337965E0,1.0268879E1,3.8153777E0,0E0,1.6340733E-1,6.2326765E0,8.0544E0,3.1671638E0,4.770159E0,0E0,2.323848E-1,4.866644E0,0E0,5.954973E0,6.1824555E0,0E0,0E0,2.466895E0,3.158023E0,0E0,0E0,0E0,0E0,0E0,0E0,0E0,0E0,0E0,0E0,0E0,0E0],"parents":[2147483647,0,0,1,1,2,2,3,3,4,4,6,6,7,7,8,8,9,9,10,10,12,12,13,13,15,15,16,16,19,19,20,20],"right_children":[2,4,6,8,10,-1,12,14,16,18,20,-1,22,24,-1,26,28,-1,-1,30,32,-1,-1,-1,-1,-1,-1,-1,-1,-1,-1,-1,-1],"split_conditions":[2.5981395E0,8.091946E1,4.347091E-2,3.6087302E-3,3.2364012E5,-4.69934E-3,1.1040616E-1,1.0171574E7,1.3427223E-1,2.623167E-1,8.3608795E1,6.7295186E-2,1.7465083E-1,1.6638082E-2,-5.2690793E-2,5.7056583E-2,2.0501508E-1,6.397808E-2,-1.4249141E-2,2.5240815E6,-3.1254524E-1,5.1744143E-3,3.6864147E-2,8.653096E-3,-1.5747473E-2,-1.3553013E-2,-6.063391E-2,5.827243E-2,-4.264038E-2,-1.2817881E-2,5.7348903E-2,-5.5356424E-2,5.1172874E-3],"split_indices":[21,17,19,7,3,0,15,0,7,14,17,0,8,5,0,5,14,0,0,0,21,0,0,0,0,0,0,0,0,0,0,0,0],"split_type":[0,0,0,0,0,0,0,0,0,0,0,0,0,0,0,0,0,0,0,0,0,0,0,0,0,0,0,0,0,0,0,0,0],"sum_hessian":[3.673205E2,3.5905234E2,8.268138E0,3.3777878E2,2.1273573E1,1.8940766E0,6.374061E0,1.8224959E2,1.5552919E2,7.570145E0,1.3703427E1,3.323803E0,3.0502582E0,1.7852177E2,3.727807E0,1.4888484E2,6.6443486E0,6.391226E0,1.1789192E0,5.3029394E0,8.400488E0,1.1940745E0,1.8561835E0,1.5596164E2,2.2560146E1,1.4271455E2,6.170286E0,5.4519405E0,1.1924081E0,1.2432517E0,4.059688E0,2.195453E0,6.2050347E0],"tree_param":{"num_deleted":"0","num_feature":"22","num_nodes":"33","size_leaf_vector":"1"}},{"base_weights":[-1.2370186E-3,9.617169E-1,-2.6770491E-2,6.5388285E-2,4.831826E-2,4.6095464E-1,-6.93499E-2,3.1224001E-2,-3.0536814E-2,-3.495936E-1,7.308946E-1,-9.4570726E-1,-4.6289355E-2,4.66364E-2,-7.7391535E-1,9.976242E-1,-1.1255365E-1,-7.081361E-2,-3.2704026E-1,6.378327E-2,-7.261785E-2,1.1206775E-2,-5.2643605E-2,5.9295107E-2,-2.1247035E-2,2.2928512E-2,-6.6663325E-2,-3.3416804E-2,9.484358E-3,-2.6963968E-3,-4.8136827E-2],"categories":[],"categories_nodes":[],"categories_segments":[],"categories_sizes":[],"default_left":[0,0,0,0,0,0,0,0,0,0,0,0,0,0,0,0,0,0,0,0,0,0,0,0,0,0,0,0,0,0,0],"id":22,"left_children":[1,3,5,-1,7,9,11,-1,-1,13,15,17,19,-1,21,23,25,-1,27,-1,29,-1,-1,-1,-1,-1,-1,-1,-1,-1,-1],"loss_changes":[8.938813E0,2.905075E0,7.3858356E0,0E0,1.7554609E0,6.5051484E0,6.555545E0,0E0,0E0,4.972743E0,5.0056295E0,1.9592757E0,1.1203394E1,0E0,2.0224452E0,4.9571095E0,4.881222E0,0E0,9.9005497E-1,0E0,5.1708713E0,0E0,0E0,0E0,0E0,0E0,0E0,0E0,0E0,0E0,0E0],"parents":[2147483647,0,0,1,1,2,2,4,4,5,5,6,6,9,9,10,10,11,11,12,12,14,14,15,15,16,16,18,18,20,20],"right_children":[2,4,6,-1,8,10,12,-1,-1,14,16,18,20,-1,22,24,26,-1,28,-1,30,-1,-1,-1,-1,-1,-1,-1,-1,-1,-1],"split_conditions":[1.3578848E5,4.7558334E1,3.001426E1,6.5388285E-2,5.142583E-1,1.8328402E-2,1.470373E5,3.1224001E-2,-3.0536814E-2,-2.759267E-2,3.3339366E-2,1.2511761E-2,1.5235897E5,4.66364E-2,1.4434011E5,2.9515577E-3,2.3133675E5,-7.081361E-2,1.0073412E-2,6.378327E-2,1.0210853E7,1.1206775E-2,-5.2643605E-2,5.9295107E-2,-2.1247035E-2,2.2928512E-2,-6.6663325E-2,-3.3416804E-2,9.484358E-3,-2.6963968E-3,-4.8136827E-2],"split_indices":[3,17,17,0,18,10,1,0,0,6,9,6,1,0,11,7,0,0,5,0,11,0,0,0,0,0,0,0,0,0,0],"split_type":[0,0,0,0,0,0,0,0,0,0,0,0,0,0,0,0,0,0,0,0,0,0,0,0,0,0,0,0,0,0,0],"sum_hessian":[3.615032E2,8.39085E0,3.5311237E2,5.7722335E0,2.6186163E0,2.7563297E1,3.2554907E2,1.4251637E0,1.1934526E0,6.8124595E0,2.0750837E1,7.321061E0,3.18228E2,1.3958795E0,5.41658E0,1.5626398E1,5.1244383E0,3.425986E0,3.8950748E0,5.28756E0,3.1294046E2,1.2261577E0,4.1904225E0,1.3946879E1,1.6795194E0,3.916434E0,1.2080042E0,2.1690361E0,1.7260388E0,3.0754352E2,5.3969393E0],"tree_param":{"num_deleted":"0","num_feature":"22","num_nodes":"31","size_leaf_vector":"1"}},{"base_weights":[1.051893E-2,3.114053E-2,-1.0129372E0,-2.8144738E-3,5.742169E-1,-1.7704522E-3,-5.9782553E-2,1.4813115E-1,-1.698013E-1,9.193605E-1,-2.8021624E-2,-7.9320323E-1,1.8980882E-1,-5.9508994E-2,-5.5731523E-1,-1.1230051E-2,1.1143173E0,6.5081567E-1,-6.028487E-1,9.778472E-3,-5.508561E-2,1.2913984E-2,-1.0118375E-2,-6.118323E-3,3.519798E-2,-5.160364E-2,-1.1035491E-3,1.6099012E-2,7.419602E-2,-4.877643E-3,5.2250456E-2,2.0335983E-2,-6.38118E-2],"categories":[],"categories_nodes":[],"categories_segments":[],"categories_sizes":[],"default_left":[0,0,0,0,0,0,0,0,0,0,0,0,0,0,0,0,0,0,0,0,0,0,0,0,0,0,0,0,0,0,0,0,0],"id":23,"left_children":[1,3,5,7,9,-1,-1,11,13,15,17,19,21,23,25,-1,27,29,31,-1,-1,-1,-1,-1,-1,-1,-1,-1,-1,-1,-1,-1,-1],"loss_changes":[7.8796167E0,6.741104E0,1.2747722E0,8.720382E0,4.4970584E0,0E0,0E0,7.2799287E0,6.9867225E0,3.3065815E0,3.8290515E0,2.6246052E0,4.7467246E0,6.275689E0,9.193965E0,0E0,3.0001888E0,1.4350996E0,4.1140795E0,0E0,0E0,0E0,0E0,0E0,0E0,0E0,0E0,0E0,0E0,0E0,0E0,0E0,0E0],"parents":[2147483647,0,0,1,1,2,2,3,3,4,4,7,7,8,8,9,9,10,10,11,11,12,12,13,13,14,14,16,16,17,17,18,18],"right_children":[2,4,6,8,10,-1,-1,12,14,16,18,20,22,24,26,-1,28,30,32,-1,-1,-1,-1,-1,-1,-1,-1,-1,-1,-1,-1,-1,-1],"split_conditions":[1.0210853E7,1.08480304E-1,9.908364E6,2.9515577E-3,1.6097392E-1,-1.7704522E-3,-5.9782553E-2,1.24347415E-2,3.3548497E-2,1.5903708E5,2.4934044E-2,9.24469E3,1.2511761E-2,6.243745E-1,3.979869E-2,-1.1230051E-2,2.4296897E-2,3.4222293E-1,2.1561627E-1,9.778472E-3,-5.508561E-2,1.2913984E-2,-1.0118375E-2,-6.118323E-3,3.519798E-2,-5.160364E-2,-1.1035491E-3,1.6099012E-2,7.419602E-2,-4.877643E-3,5.2250456E-2,2.0335983E-2,-6.38118E-2],"split_indices":[11,7,3,7,7,0,0,20,10,13,5,16,6,20,10,0,9,18,15,0,0,0,0,0,0,0,0,0,0,0,0,0,0],"split_type":[0,0,0,0,0,0,0,0,0,0,0,0,0,0,0,0,0,0,0,0,0,0,0,0,0,0,0,0,0,0,0,0,0],"sum_hessian":[3.7085312E2,3.6447882E2,6.374305E0,3.439676E2,2.051122E1,1.1918175E0,5.1824875E0,1.807205E2,1.632471E2,1.2703982E1,7.807238E0,6.8976607E0,1.7382285E2,1.2797659E2,3.52705E1,1.8276572E0,1.0876325E1,3.5191424E0,4.288096E0,1.7274042E0,5.1702566E0,1.4827638E2,2.5546461E1,1.1901744E2,8.959155E0,1.8199474E1,1.7071024E1,4.0548606E0,6.821464E0,1.4737612E0,2.0453813E0,1.8742125E0,2.4138832E0],"tree_param":{"num_deleted":"0","num_feature":"22","num_nodes":"33","size_leaf_vector":"1"}},{"base_weights":[-1.0256102E-2,1.1851326E-2,-1.0776687E0,-1.1285528E-2,8.7821794E-1,-2.2736447E-2,-5.9951823E-2,7.9907626E-1,-3.2488544E-2,-4.66172E-2,1.1712924E0,5.9486307E-2,1.4367098E-1,-1.0102081E0,-1.2587399E-2,-3.962346E-2,3.8459618E-2,6.8632565E-2,4.160187E-3,-5.0311845E-2,4.301104E-2,-3.3663907E-3,-6.481185E-2,3.3895683E-2,-2.1144815E-3],"categories":[],"categories_nodes":[],"categories_segments":[],"categories_sizes":[],"default_left":[0,0,0,0,0,0,0,0,0,0,0,0,0,0,0,0,0,0,0,0,0,0,0,0,0],"id":24,"left_children":[1,3,5,7,9,-1,-1,11,13,15,17,-1,19,21,23,-1,-1,-1,-1,-1,-1,-1,-1,-1,-1],"loss_changes":[8.831684E0,7.3689184E0,2.8905869E-2,6.186821E0,2.646327E0,0E0,0E0,2.179873E0,6.8049035E0,2.5948179E0,1.4850311E0,0E0,4.6279955E0,1.7943573E0,7.092193E0,0E0,0E0,0E0,0E0,0E0,0E0,0E0,0E0,0E0,0E0],"parents":[2147483647,0,0,1,1,2,2,3,3,4,4,7,7,8,8,9,9,10,10,12,12,13,13,14,14],"right_children":[2,4,6,8,10,-1,-1,12,14,16,18,-1,20,22,24,-1,-1,-1,-1,-1,-1,-1,-1,-1,-1],"split_conditions":[1.0193791E7,2.5981395E0,9.701105E6,1.3578848E5,1.8845636E5,-2.2736447E-2,-5.9951823E-2,1.8241918E-2,1.3795314E5,9.8550774E-2,4.3635145E-1,5.9486307E-2,1.472637E5,1.357807E5,1.5225045E5,-3.962346E-2,3.8459618E-2,6.8632565E-2,4.160187E-3,-5.0311845E-2,4.301104E-2,-3.3663907E-3,-6.481185E-2,3.3895683E-2,-2.1144815E-3],"split_indices":[11,21,13,3,2,0,0,9,11,19,19,0,13,0,13,0,0,0,0,0,0,0,0,0,0],"split_type":[0,0,0,0,0,0,0,0,0,0,0,0,0,0,0,0,0,0,0,0,0,0,0,0,0],"sum_hessian":[3.7271835E2,3.661244E2,6.593989E0,3.5756244E2,8.561951E0,1.8492281E0,4.7447605E0,8.181598E0,3.4938083E2,2.2626853E0,6.299265E0,4.6153793E0,3.566218E0,5.976992E0,3.4340384E2,1.1969692E0,1.0657163E0,5.0948925E0,1.2043726E0,1.2138962E0,2.3523219E0,1.6786823E0,4.29831E0,1.3262434E1,3.3014142E2],"tree_param":{"num_deleted":"0","num_feature":"22","num_nodes":"25","size_leaf_vector":"1"}},{"base_weights":[-2.5072953E-2,8.584303E-1,-4.6815667E-2,1.0403113E0,-2.573071E-4,-1.0755767E0,-2.6757533E-2,5.6328293E-2,1.3264156E-2,-7.032483E-2,1.1496856E-2,-5.8792565E-2,5.5719286E-1,-2.7888548E-2,-1.0662532E0,1.1766334E0,-3.4234422E-1,3.5156396E-3,-1.0958731E-2,1.7756771E-2,-6.420021E-2,6.4681664E-2,1.8375127E-2,1.1389247E-2,-6.516545E-2],"categories":[],"categories_nodes":[],"categories_segments":[],"categories_sizes":[],"default_left":[0,0,0,0,0,0,0,0,0,0,0,0,0,0,0,0,0,0,0,0,0,0,0,0,0],"id":25,"left_children":[1,3,5,7,-1,9,11,-1,-1,-1,-1,13,15,17,19,21,23,-1,-1,-1,-1,-1,-1,-1,-1],"loss_changes":[7.070089E0,1.3940601E0,7.3608956E0,1.8969011E-1,0E0,3.2711778E0,6.623002E0,0E0,0E0,0E0,0E0,1.0396403E1,1.0664774E1,6.137927E0,3.532422E0,5.784054E-1,4.8359914E0,0E0,0E0,0E0,0E0,0E0,0E0,0E0,0E0],"parents":[2147483647,0,0,1,1,2,2,3,3,5,5,6,6,11,11,12,12,13,13,14,14,15,15,16,16],"right_children":[2,4,6,8,-1,10,12,-1,-1,-1,-1,14,16,18,20,22,24,-1,-1,-1,-1,-1,-1,-1,-1],"split_conditions":[1.3578848E5,-1.4941983E-2,3.363322E3,-3.8156137E-2,-2.573071E-4,5.916036E-1,1.8290712E-1,5.6328293E-2,1.3264156E-2,-7.032483E-2,1.1496856E-2,1.5298934E-1,3.6669817E-2,2.9777186E-2,2.1295931E-2,2.2855729E-1,3.0832484E5,3.5156396E-3,-1.0958731E-2,1.7756771E-2,-6.420021E-2,6.4681664E-2,1.8375127E-2,1.1389247E-2,-6.516545E-2],"split_indices":[3,14,16,15,0,18,8,0,0,0,0,8,10,10,10,14,2,0,0,0,0,0,0,0,0],"split_type":[0,0,0,0,0,0,0,0,0,0,0,0,0,0,0,0,0,0,0,0,0,0,0,0,0],"sum_hessian":[3.6495468E2,7.841423E0,3.5711325E2,6.30818E0,1.5332433E0,5.8232217E0,3.5129E2,5.268282E0,1.0398978E0,4.5839396E0,1.2392823E0,3.3387332E2,1.7416693E1,3.2493362E2,8.93971E0,1.0131726E1,7.284966E0,2.1512593E2,1.09807686E2,1.1037776E0,7.835932E0,8.328619E0,1.8031077E0,5.0511436E0,2.2338223E0],"tree_param":{"num_deleted":"0","num_feature":"22","num_nodes":"25","size_leaf_vector":"1"}},{"base_weights":[1.0338684E-2,3.7979218E-1,-4.905099E-2,4.3811166E-1,-4.0201288E-2,-9.7855784E-2,4.4306913E-1,5.2124053E-1,-4.5810798E-1,8.868539E-1,-1.17237166E-1,1.0247937E0,1.7975654E-1,1.37895E-1,7.750926E-1,1.10542085E-2,-5.673173E-2,5.5335023E-2,1.3485604E-3,-1.3300027E-1,5.1822063E-2,5.9856176E-2,-3.0621234E-3,-4.7920084E-1,4.624488E-1,-5.74385E-3,5.432556E-2,1.4823458E-2,5.6371372E-2,-5.127651E-3,-4.3641448E-2,-4.144909E-2,1.9443339E-2,-1.2696648E-2,5.423033E-2],"categories":[],"categories_nodes":[],"categories_segments":[],"categories_sizes":[],"default_left":[0,0,0,0,0,0,0,0,0,0,0,0,0,0,0,0,0,0,0,0,0,0,0,0,0,0,0,0,0,0,0,0,0,0,0],"id":26,"left_children":[1,3,5,7,-1,9,11,13,15,17,19,21,23,25,27,-1,-1,-1,-1,29,-1,-1,-1,31,33,-1,-1,-1,-1,-1,-1,-1,-1,-1,-1],"loss_changes":[7.9559345E0,3.8188534E0,7.549722E0,3.852232E0,0E0,5.5461454E0,4.1627693E0,4.257844E0,2.3870857E0,1.032742E0,5.239494E0,1.688509E0,4.086763E0,4.7011056E0,4.17968E0,0E0,0E0,0E0,0E0,6.164494E0,0E0,0E0,0E0,2.3628216E0,6.973791E0,0E0,0E0,0E0,0E0,0E0,0E0,0E0,0E0,0E0,0E0],"parents":[2147483647,0,0,1,1,2,2,3,3,5,5,6,6,7,7,8,8,9,9,10,10,11,11,12,12,13,13,14,14,19,19,23,23,24,24],"right_children":[2,4,6,8,-1,10,12,14,16,18,20,22,24,26,28,-1,-1,-1,-1,30,-1,-1,-1,32,34,-1,-1,-1,-1,-1,-1,-1,-1,-1,-1],"split_conditions":[-4.0788874E-2,2.134597E-2,7.989867E1,8.4425205E-1,-4.0201288E-2,1.3485144E5,1.1497594E4,1.7523098E-1,-7.3924236E-2,1.3472097E5,2.7552419E0,7.942745E-1,2.521507E6,-4.445163E-2,1.24435335E-1,1.10542085E-2,-5.673173E-2,5.5335023E-2,1.3485604E-3,5.4778967E-2,5.1822063E-2,5.9856176E-2,-3.0621234E-3,8.88534E1,2.3227723E-2,-5.74385E-3,5.432556E-2,1.4823458E-2,5.6371372E-2,-5.127651E-3,-4.3641448E-2,-4.144909E-2,1.9443339E-2,-1.2696648E-2,5.423033E-2],"split_indices":[6,7,17,18,0,0,16,21,14,11,21,18,1,6,19,0,0,0,0,9,0,0,0,17,10,0,0,0,0,0,0,0,0,0,0],"split_type":[0,0,0,0,0,0,0,0,0,0,0,0,0,0,0,0,0,0,0,0,0,0,0,0,0,0,0,0,0,0,0,0,0,0,0],"sum_hessian":[3.6074487E2,4.921174E1,3.1153314E2,4.750154E1,1.7101943E0,2.8415402E2,2.7379116E1,4.3852413E1,3.6491299E0,4.62092E0,2.7953308E2,7.630178E0,1.974894E1,1.8085087E1,2.5767326E1,2.1569192E0,1.4922106E0,3.45145E0,1.16947E0,2.76638E2,2.8950822E0,6.4969673E0,1.1332109E0,5.7201357E0,1.4028803E1,1.4973966E1,3.1111217E0,1.17064E1,1.40609255E1,2.6679675E2,9.841258E0,4.1093373E0,1.6107985E0,6.7957296E0,7.233073E0],"tree_param":{"num_deleted":"0","num_feature":"22","num_nodes":"35","size_leaf_vector":"1"}},{"base_weights":[-1.51445605E-2,8.855378E-1,-3.487209E-2,1.9434113E-3,1.0186348E0,-5.5645287E-2,7.465776E-1,5.993023E-2,9.489325E-3,-2.1585703E-3,-4.256799E-1,-1.9426446E-2,1.0294483E0,-5.818748E-2,5.538276E-1,1.8679875E-1,-5.6113404E-1,6.0042292E-2,1.8381898E-3,4.940482E-3,-8.757974E-3,-3.6255967E-2,3.4513324E-2,3.378502E-2,-3.8147014E-2,-4.1609466E-2,-3.16167E-4],"categories":[],"categories_nodes":[],"categories_segments":[],"categories_sizes":[],"default_left":[0,0,0,0,0,0,0,0,0,0,0,0,0,0,0,0,0,0,0,0,0,0,0,0,0,0,0],"id":27,"left_children":[1,3,5,-1,7,9,11,-1,-1,13,15,-1,17,19,21,23,25,-1,-1,-1,-1,-1,-1,-1,-1,-1,-1],"loss_changes":[6.588585E0,8.5609484E-1,5.9199233E0,0E0,7.9116917E-1,6.9989805E0,3.4330716E0,0E0,0E0,9.689556E0,3.809987E0,0E0,1.2890778E0,5.2059E0,5.4695854E0,4.619487E0,5.5322094E0,0E0,0E0,0E0,0E0,0E0,0E0,0E0,0E0,0E0,0E0],"parents":[2147483647,0,0,1,1,2,2,4,4,5,5,6,6,9,9,10,10,12,12,13,13,14,14,15,15,16,16],"right_children":[2,4,6,-1,8,10,12,-1,-1,14,16,-1,18,20,22,24,26,-1,-1,-1,-1,-1,-1,-1,-1,-1,-1],"split_conditions":[1.3578848E5,-2.2045339E-2,2.5981395E0,1.9434113E-3,4.2402637E-1,2.7808452E-2,1.9534719E5,5.993023E-2,9.489325E-3,5.0951585E-2,4.284893E1,-1.9426446E-2,4.2841592E-1,-1.05070425E-2,-9.750235E-1,4.0053822E-2,8.139278E-2,6.0042292E-2,1.8381898E-3,4.940482E-3,-8.757974E-3,-3.6255967E-2,3.4513324E-2,3.378502E-2,-3.8147014E-2,-4.1609466E-2,-3.16167E-4],"split_indices":[3,5,21,0,20,5,0,0,0,6,17,0,19,8,21,9,7,0,0,0,0,0,0,0,0,0,0],"split_type":[0,0,0,0,0,0,0,0,0,0,0,0,0,0,0,0,0,0,0,0,0,0,0,0,0,0,0],"sum_hessian":[3.6806894E2,6.9482956E0,3.6112067E2,1.1194122E0,5.8288836E0,3.5267435E2,8.446314E0,4.422506E0,1.406378E0,3.0901373E2,4.366061E1,1.6104321E0,6.8358817E0,2.8153745E2,2.7476292E1,7.838493E0,3.5822117E1,5.6505575E0,1.1853241E0,1.202696E2,1.6126784E2,2.2327168E0,2.5243576E1,5.3651767E0,2.4733162E0,2.372917E1,1.2092946E1],"tree_param":{"num_deleted":"0","num_feature":"22","num_nodes":"27","size_leaf_vector":"1"}},{"base_weights":[-2.6972305E-2,1.8641853E-1,-1.3496755E-1,4.6282317E-2,8.5587364E-1,-5.7797676E-1,2.4236137E-2,2.3687881E-1,-3.405337E-1,-1.6946797E-1,1.0736878E0,3.949724E-1,-8.363161E-1,6.760057E-2,-3.3664478E-3,-2.0749417E-1,5.176978E-1,4.1412246E-1,-5.733068E-1,-7.190486E-1,3.6868718E-2,-2.7622854E-2,1.2675583E0,1.0975655E0,-6.655228E-1,5.989368E-1,-1.0007371E0,5.5483216E-1,-6.945145E-2,3.9387412E-2,-2.6783971E-2,3.7513074E-2,-2.6930137E-2,3.4143277E-2,-3.4308195E-2,-3.890058E-2,2.2005884E-2,6.7236985E-4,-5.4955125E-2,6.862602E-2,-4.531707E-3,-1.257361E-2,7.26299E-2,3.1810407E-2,-5.5304047E-2,5.410253E-2,-3.408646E-2,-5.1947035E-2,1.1309969E-2,3.979533E-2,-2.5823468E-2,-5.09027E-3,5.399139E-2],"categories":[],"categories_nodes":[],"categories_segments":[],"categories_sizes":[],"default_left":[0,0,0,0,0,0,0,0,0,0,0,0,0,0,0,0,0,0,0,0,0,0,0,0,0,0,0,0,0,0,0,0,0,0,0,0,0,0,0,0,0,0,0,0,0,0,0,0,0,0,0,0,0],"id":28,"left_children":[1,3,5,7,9,11,13,15,17,19,21,23,25,-1,27,29,31,33,35,37,-1,-1,39,41,43,45,47,49,51,-1,-1,-1,-1,-1,-1,-1,-1,-1,-1,-1,-1,-1,-1,-1,-1,-1,-1,-1,-1,-1,-1,-1,-1],"loss_changes":[8.551132E0,1.1662857E1,1.7380112E1,7.76328E0,4.9913836E0,1.670183E1,6.67828E0,8.892296E0,6.351755E0,2.8411045E0,6.3427944E0,1.1418966E1,1.2820812E1,0E0,6.6556983E0,9.559104E0,1.1071448E1,3.0664983E0,5.948036E0,9.594588E-1,0E0,0E0,2.447382E0,4.6787558E0,4.339083E0,4.418146E0,2.4305725E0,5.343948E0,6.107011E0,0E0,0E0,0E0,0E0,0E0,0E0,0E0,0E0,0E0,0E0,0E0,0E0,0E0,0E0,0E0,0E0,0E0,0E0,0E0,0E0,0E0,0E0,0E0,0E0],"parents":[2147483647,0,0,1,1,2,2,3,3,4,4,5,5,6,6,7,7,8,8,9,9,10,10,11,11,12,12,14,14,15,15,16,16,17,17,18,18,19,19,22,22,23,23,24,24,25,25,26,26,27,27,28,28],"right_children":[2,4,6,8,10,12,14,16,18,20,22,24,26,-1,28,30,32,34,36,38,-1,-1,40,42,44,46,48,50,52,-1,-1,-1,-1,-1,-1,-1,-1,-1,-1,-1,-1,-1,-1,-1,-1,-1,-1,-1,-1,-1,-1,-1,-1],"split_conditions":[2.695771E5,2.367019E5,4.1061785E4,2.9853038E-2,9.8964334E11,2.703359E5,2.1592758E6,4.5911016E3,-4.7709575E-1,1.6697047E-2,-1.2251486E-1,3.2782628E5,-8.996632E-2,6.760057E-2,-4.0788874E-2,1.3578848E5,2.1451608E5,5.9519656E-2,1.454438E0,2.267748E-2,3.6868718E-2,-2.7622854E-2,3.3820013E12,-5.728616E-2,6.5408364E-2,1.4353044E-2,1.1732714E-1,3.6942E5,2.393463E0,3.9387412E-2,-2.6783971E-2,3.7513074E-2,-2.6930137E-2,3.4143277E-2,-3.4308195E-2,-3.890058E-2,2.2005884E-2,6.7236985E-4,-5.4955125E-2,6.862602E-2,-4.531707E-3,-1.257361E-2,7.26299E-2,3.1810407E-2,-5.5304047E-2,5.410253E-2,-3.408646E-2,-5.1947035E-2,1.1309969E-2,3.979533E-2,-2.5823468E-2,-5.09027E-3,5.399139E-2],"split_indices":[11,11,16,9,4,13,11,16,21,7,7,1,7,0,6,3,2,9,21,9,0,0,4,6,8,5,7,16,21,0,0,0,0,0,0,0,0,0,0,0,0,0,0,0,0,0,0,0,0,0,0,0,0],"split_type":[0,0,0,0,0,0,0,0,0,0,0,0,0,0,0,0,0,0,0,0,0,0,0,0,0,0,0,0,0,0,0,0,0,0,0,0,0,0,0,0,0,0,0,0,0,0,0,0,0,0,0,0,0],"sum_hessian":[3.6896744E2,1.23739975E2,2.4522746E2,1.0320527E2,2.0534698E1,6.413403E1,1.8109343E2,6.93982E1,3.380707E1,3.6367886E0,1.6897911E1,1.3345133E1,5.07889E1,2.7108588E0,1.7838257E2,2.6974453E1,4.2423748E1,7.7859006E0,2.602117E1,2.3933897E0,1.243399E0,1.6029644E0,1.5294947E1,8.006053E0,5.339079E0,4.9486613E0,4.5840237E1,1.8100212E1,1.6028235E2,6.341906E0,2.0632547E1,3.500622E1,7.417527E0,6.5624166E0,1.223484E0,2.1841608E1,4.1795616E0,1.1471157E0,1.2462739E0,1.4187943E1,1.107003E0,1.7287841E0,6.2772694E0,1.2377535E0,4.1013255E0,3.70579E0,1.2428713E0,4.460459E1,1.2356472E0,1.4985172E1,3.1150398E0,1.5678017E2,3.5021815E0],"tree_param":{"num_deleted":"0","num_feature":"22","num_nodes":"53","size_leaf_vector":"1"}},{"base_weights":[8.522688E-3,-1.7470157E-2,6.808554E-1,1.5945456E-3,-9.0538967E-1,-4.072523E-1,9.423903E-1,-1.7506888E-2,9.436768E-1,1.8510979E-3,-1.0805205E0,9.32071E-3,-4.0711712E-2,-3.749959E-3,1.1198668E0,6.024075E-3,-7.2749346E-1,3.6567566E-3,1.1161306E0,-5.8788706E-2,-1.558949E-2,6.531777E-2,1.6387327E-2,-4.2629424E-3,8.160881E-3,3.5164613E-2,-5.437717E-2,6.824744E-2,1.4288524E-2],"categories":[],"categories_nodes":[],"categories_segments":[],"categories_sizes":[],"default_left":[0,0,0,0,0,0,0,0,0,0,0,0,0,0,0,0,0,0,0,0,0,0,0,0,0,0,0,0,0],"id":29,"left_children":[1,3,5,7,9,11,13,15,17,-1,19,-1,-1,-1,21,23,25,-1,27,-1,-1,-1,-1,-1,-1,-1,-1,-1,-1],"loss_changes":[6.4527783E0,6.0246673E0,4.2948656E0,6.3028455E0,1.2747021E0,9.6395266E-1,2.139145E0,5.7410254E0,9.6333647E-1,0E0,9.777546E-2,0E0,0E0,0E0,1.0127401E0,4.7971964E0,6.4436817E0,0E0,7.957649E-1,0E0,0E0,0E0,0E0,0E0,0E0,0E0,0E0,0E0,0E0],"parents":[2147483647,0,0,1,1,2,2,3,3,4,4,5,5,6,6,7,7,8,8,10,10,14,14,15,15,16,16,18,18],"right_children":[2,4,6,8,10,12,14,16,18,-1,20,-1,-1,-1,22,24,26,-1,28,-1,-1,-1,-1,-1,-1,-1,-1,-1,-1],"split_conditions":[7.1152294E-1,1.0193791E7,1.9057412E-2,9.972403E6,-1.054783E-2,1.5075347E-2,-8.625352E-2,3.6942E5,2.6612625E-1,1.8510979E-3,4.9643683E-1,9.32071E-3,-4.0711712E-2,-3.749959E-3,8.23994E-1,2.5963575E6,-1.5410383E-1,3.6567566E-3,1.0178169E7,-5.8788706E-2,-1.558949E-2,6.531777E-2,1.6387327E-2,-4.2629424E-3,8.160881E-3,3.5164613E-2,-5.437717E-2,6.824744E-2,1.4288524E-2],"split_indices":[20,11,10,12,15,9,8,16,18,0,20,0,0,0,20,1,15,0,12,0,0,0,0,0,0,0,0,0,0],"split_type":[0,0,0,0,0,0,0,0,0,0,0,0,0,0,0,0,0,0,0,0,0,0,0,0,0,0,0,0,0],"sum_hessian":[3.675593E2,3.548159E2,1.2743411E1,3.4833493E2,6.4809666E0,2.3614616E0,1.0381949E1,3.4237445E2,5.9604855E0,1.1392194E0,5.3417473E0,1.1808742E0,1.1805874E0,1.6278228E0,8.754127E0,3.323509E2,1.0023534E1,1.2209996E0,4.7394857E0,4.2817006E0,1.0600467E0,6.5604205E0,2.1937058E0,2.105445E2,1.2180641E2,1.823579E0,8.199955E0,3.151371E0,1.5881147E0],"tree_param":{"num_deleted":"0","num_feature":"22","num_nodes":"29","size_leaf_vector":"1"}},{"base_weights":[1.8227819E-3,-1.0330528E-1,1.5002288E-1,9.100409E-2,-3.6278382E-1,6.23798E-1,1.1759835E-2,-1.6054276E-2,6.1028326E-1,5.0691057E-2,-4.2458153E-1,2.8961673E-1,1.3782382E0,6.744272E-1,-1.063705E-1,1.1987482E-1,-7.3153305E-1,1.2545453E0,1.5053779E-1,-1.2430838E0,-3.2465017E-1,9.937709E-1,-3.6424997E-1,7.64663E-2,7.6428154E-3,8.551055E-1,-3.8142756E-2,-5.2198565E-1,8.8571854E-2,-4.852855E-3,3.0082632E-2,-4.995581E-2,1.1270138E-2,7.18769E-2,3.2902432E-3,-2.1607874E-2,4.736289E-2,2.0284986E-3,-7.1723685E-2,1.2065928E-2,-2.4704186E-2,6.478545E-2,1.1490267E-3,8.205738E-3,-6.285976E-2,-1.6778598E-2,4.93228E-2,-1.3243903E-2,-8.4427856E-2,5.3093202E-2,-8.147661E-3],"categories":[],"categories_nodes":[],"categories_segments":[],"categories_sizes":[],"default_left":[0,0,0,0,0,0,0,0,0,0,0,0,0,0,0,0,0,0,0,0,0,0,0,0,0,0,0,0,0,0,0,0,0,0,0,0,0,0,0,0,0,0,0,0,0,0,0,0,0,0,0],"id":30,"left_children":[1,3,5,7,9,11,13,15,17,-1,19,21,23,25,27,29,31,33,35,37,39,41,43,-1,-1,45,-1,47,49,-1,-1,-1,-1,-1,-1,-1,-1,-1,-1,-1,-1,-1,-1,-1,-1,-1,-1,-1,-1,-1,-1],"loss_changes":[5.735675E0,1.0892226E1,9.999959E0,6.900814E0,8.293103E0,8.297071E0,9.408925E0,1.0177009E1,6.094315E0,0E0,6.8890724E0,1.1950881E1,1.677309E0,5.3739996E0,8.3181E0,9.259525E0,4.502261E0,1.7973509E0,6.6838517E0,2.354683E0,7.868531E0,3.60116E0,6.7090893E0,0E0,0E0,2.930851E0,0E0,9.37339E0,1.7395893E1,0E0,0E0,0E0,0E0,0E0,0E0,0E0,0E0,0E0,0E0,0E0,0E0,0E0,0E0,0E0,0E0,0E0,0E0,0E0,0E0,0E0,0E0],"parents":[2147483647,0,0,1,1,2,2,3,3,4,4,5,5,6,6,7,7,8,8,10,10,11,11,12,12,13,13,14,14,15,15,16,16,17,17,18,18,19,19,20,20,21,21,22,22,25,25,27,27,28,28],"right_children":[2,4,6,8,10,12,14,16,18,-1,20,22,24,26,28,30,32,34,36,38,40,42,44,-1,-1,46,-1,48,50,-1,-1,-1,-1,-1,-1,-1,-1,-1,-1,-1,-1,-1,-1,-1,-1,-1,-1,-1,-1,-1,-1],"split_conditions":[2.5963575E6,2.7603044E5,5.0301095E6,2.367019E5,-1.0095033E-1,4.291883E6,-3.684273E-2,2.176842E5,2.7212016E5,5.0691057E-2,-9.2992075E-2,3.5651408E6,3.6669817E-2,1.0044812E7,5.838618E6,1.9391862E5,4.9757306E-2,4.0984065E12,2.9088828E5,-1.2251486E-1,-2.7732093E-2,1.9815989E12,2.538899E-2,7.64663E-2,7.6428154E-3,-1.114437E0,-3.8142756E-2,5.685287E6,7.499906E6,-4.852855E-3,3.0082632E-2,-4.995581E-2,1.1270138E-2,7.18769E-2,3.2902432E-3,-2.1607874E-2,4.736289E-2,2.0284986E-3,-7.1723685E-2,1.2065928E-2,-2.4704186E-2,6.478545E-2,1.1490267E-3,8.205738E-3,-6.285976E-2,-1.6778598E-2,4.93228E-2,-1.3243903E-2,-8.4427856E-2,5.3093202E-2,-8.147661E-3],"split_indices":[1,11,12,11,6,11,6,12,13,0,15,1,10,13,11,13,10,4,13,7,7,4,10,0,0,21,0,12,13,0,0,0,0,0,0,0,0,0,0,0,0,0,0,0,0,0,0,0,0,0,0],"split_type":[0,0,0,0,0,0,0,0,0,0,0,0,0,0,0,0,0,0,0,0,0,0,0,0,0,0,0,0,0,0,0,0,0,0,0,0,0,0,0,0,0,0,0,0,0,0,0,0,0,0,0],"sum_hessian":[3.66149E2,2.1437889E2,1.5177008E2,1.22954346E2,9.1424545E1,3.3492455E1,1.1827763E2,1.0274149E2,2.0212849E1,3.2659872E0,8.8158554E1,2.4170118E1,9.322334E0,1.7182274E1,1.0109536E2,8.703815E1,1.5703349E1,7.6973805E0,1.2515468E1,8.347531E0,7.981103E1,1.1387256E1,1.2782863E1,8.078258E0,1.2440776E0,1.56233425E1,1.5589303E0,3.1742668E1,6.935269E1,6.056559E1,2.6472555E1,1.223739E1,3.465959E0,6.4891567E0,1.2082242E0,7.4929476E0,5.0225205E0,1.1853567E0,7.162174E0,1.8290373E1,6.1520653E1,8.430486E0,2.9567697E0,8.543686E0,4.2391763E0,1.3977853E0,1.4225557E1,2.7015596E1,4.727071E0,1.3580476E1,5.5772213E1],"tree_param":{"num_deleted":"0","num_feature":"22","num_nodes":"51","size_leaf_vector":"1"}},{"base_weights":[7.2479416E-3,2.4396762E-2,-9.1098267E-1,-8.049616E-3,5.82883E-1,2.1803132E-3,-5.565188E-2,3.0528318E-2,-5.837635E-1,9.9629587E-1,-5.7224214E-1,-1.8856617E-2,5.086696E-1,4.5862176E-2,-7.5988966E-1,1.1995484E0,-2.5017431E-2,4.6846792E-2,-6.2363055E-2,8.200666E-4,-6.004704E-2,5.113385E-2,1.3764297E-3,7.129032E-3,-5.7712015E-2,-1.4299492E-2,6.8676345E-2],"categories":[],"categories_nodes":[],"categories_segments":[],"categories_sizes":[],"default_left":[0,0,0,0,0,0,0,0,0,0,0,0,0,0,0,0,0,0,0,0,0,0,0,0,0,0,0],"id":31,"left_children":[1,3,5,7,9,-1,-1,11,13,15,17,19,21,-1,23,25,-1,-1,-1,-1,-1,-1,-1,-1,-1,-1,-1],"loss_changes":[5.7675385E0,6.512723E0,1.3437743E0,7.5783353E0,9.99362E0,0E0,0E0,7.5653853E0,6.3618083E0,5.131838E0,7.1140676E0,1.2147677E1,7.3890367E0,0E0,7.184312E0,3.8587074E0,0E0,0E0,0E0,0E0,0E0,0E0,0E0,0E0,0E0,0E0,0E0],"parents":[2147483647,0,0,1,1,2,2,3,3,4,4,7,7,8,8,9,9,10,10,11,11,12,12,14,14,15,15],"right_children":[2,4,6,8,10,-1,-1,12,14,16,18,20,22,-1,24,26,-1,-1,-1,-1,-1,-1,-1,-1,-1,-1,-1],"split_conditions":[1.0210853E7,9.218135E6,-1.054783E-2,8.33875E6,2.784628E5,2.1803132E-3,-5.565188E-2,5.838618E6,2.5886723E1,7.989867E1,-6.3944325E-2,5.6299575E6,7.499906E6,4.5862176E-2,1.778803E-2,1.1895846E-2,-2.5017431E-2,4.6846792E-2,-6.2363055E-2,8.200666E-4,-6.004704E-2,5.113385E-2,1.3764297E-3,7.129032E-3,-5.7712015E-2,-1.4299492E-2,6.8676345E-2],"split_indices":[11,11,15,13,16,0,0,11,17,17,14,2,13,0,9,10,0,0,0,0,0,0,0,0,0,0,0],"split_type":[0,0,0,0,0,0,0,0,0,0,0,0,0,0,0,0,0,0,0,0,0,0,0,0,0,0,0],"sum_hessian":[3.6386118E2,3.581459E2,5.715281E0,3.3941263E2,1.873327E1,1.1353967E0,4.5798845E0,3.189848E2,2.0427835E1,1.3897082E1,4.8361883E0,2.8999335E2,2.8991465E1,1.703359E0,1.8724478E1,1.2410214E1,1.4868673E0,1.3746936E0,3.4614947E0,2.8255182E2,7.441529E0,1.3472813E1,1.5518652E1,5.888075E0,1.2836403E1,1.233551E0,1.1176663E1],"tree_param":{"num_deleted":"0","num_feature":"22","num_nodes":"27","size_leaf_vector":"1"}},{"base_weights":[1.2265631E-2,2.3741978E-1,-6.615052E-2,1.1407454E-1,8.993889E-1,8.661667E-1,-9.336721E-2,2.8005186E-1,-4.177892E-1,2.9573393E-1,1.2480404E0,2.9618535E-3,1.1618341E0,1.2972494E-2,-2.9876524E-1,-3.5444245E-1,4.7253042E-1,-1.1124227E0,-1.8614051E-1,6.1162984E-1,-3.16696E-2,7.298675E-2,1.5562392E-2,6.7821644E-2,1.1051383E-2,-1.1642234E-1,5.984655E-1,-9.392871E-1,-1.2564403E-1,3.0746398E-2,-2.9303288E-2,3.2121565E-3,3.6312416E-2,1.4264627E-3,-7.269934E-2,1.0043967E-2,-4.762089E-2,5.813116E-2,-3.5071585E-3,-9.486712E-3,2.089189E-2,4.6044078E-2,-2.7662039E-2,-2.057865E-2,-6.684454E-2,-1.5326234E-2,2.3455609E-2],"categories":[],"categories_nodes":[],"categories_segments":[],"categories_sizes":[],"default_left":[0,0,0,0,0,0,0,0,0,0,0,0,0,0,0,0,0,0,0,0,0,0,0,0,0,0,0,0,0,0,0,0,0,0,0,0,0,0,0,0,0,0,0,0,0,0,0],"id":32,"left_children":[1,3,5,7,9,11,13,15,17,19,21,-1,23,25,27,29,31,33,35,37,-1,-1,-1,-1,-1,39,41,43,45,-1,-1,-1,-1,-1,-1,-1,-1,-1,-1,-1,-1,-1,-1,-1,-1,-1,-1],"loss_changes":[6.6380796E0,7.8262534E0,7.159796E0,7.4440274E0,2.8103733E0,1.8423061E0,5.9441595E0,7.966207E0,3.0340636E0,2.395384E0,1.3831329E0,0E0,7.636275E-1,1.3717941E1,1.0174002E1,3.8258393E0,5.073101E0,1.9262433E0,5.027115E0,2.1905558E0,0E0,0E0,0E0,0E0,0E0,5.89103E0,1.2678049E1,3.5610085E0,8.128436E0,0E0,0E0,0E0,0E0,0E0,0E0,0E0,0E0,0E0,0E0,0E0,0E0,0E0,0E0,0E0,0E0,0E0,0E0],"parents":[2147483647,0,0,1,1,2,2,3,3,4,4,5,5,6,6,7,7,8,8,9,9,10,10,12,12,13,13,14,14,15,15,16,16,17,17,18,18,19,19,25,25,26,26,27,27,28,28],"right_children":[2,4,6,8,10,12,14,16,18,20,22,-1,24,26,28,30,32,34,36,38,-1,-1,-1,-1,-1,40,42,44,46,-1,-1,-1,-1,-1,-1,-1,-1,-1,-1,-1,-1,-1,-1,-1,-1,-1,-1],"split_conditions":[4.072186E1,-5.599208E-3,-7.269218E-2,3.184862E-3,3.656943E1,4.5511067E-1,2.8943904E-2,7.213416E-2,7.743121E-3,3.568005E1,1.0737647E-2,2.9618535E-3,1.330758E0,2.617684E-2,2.6183404E-2,1.798868E-2,2.3417583E-2,7.1511294E3,3.3606257E-2,2.0939636E5,-3.16696E-2,7.298675E-2,1.5562392E-2,6.7821644E-2,1.1051383E-2,7.989867E1,2.0250908E5,1.5875544E-2,5.50364E6,3.0746398E-2,-2.9303288E-2,3.2121565E-3,3.6312416E-2,1.4264627E-3,-7.269934E-2,1.0043967E-2,-4.762089E-2,5.813116E-2,-3.5071585E-3,-9.486712E-3,2.089189E-2,4.6044078E-2,-2.7662039E-2,-2.057865E-2,-6.684454E-2,-1.5326234E-2,2.3455609E-2],"split_indices":[17,8,6,7,17,21,10,19,7,17,5,0,21,10,9,9,10,16,6,1,0,0,0,0,0,17,16,7,1,0,0,0,0,0,0,0,0,0,0,0,0,0,0,0,0,0,0],"split_type":[0,0,0,0,0,0,0,0,0,0,0,0,0,0,0,0,0,0,0,0,0,0,0,0,0,0,0,0,0,0,0,0,0,0,0,0,0,0,0,0,0,0,0,0,0,0,0],"sum_hessian":[3.7408374E2,9.610691E1,2.7797684E2,8.200009E1,1.4106818E1,7.010342E0,2.709665E2,6.2857708E1,1.9142385E1,5.8413434E0,8.265474E0,2.2017422E0,4.8086E0,1.791519E2,9.181459E1,1.4434328E1,4.8423378E1,3.8363411E0,1.5306046E1,4.6142483E0,1.2270952E0,6.2866116E0,1.9788629E0,3.6183872E0,1.1902126E0,1.4738153E2,3.1770382E1,1.859401E1,7.322058E1,2.4646447E0,1.1969684E1,1.9038881E1,2.9384497E1,1.0950243E0,2.7413166E0,1.0659935E1,4.6461105E0,2.1618207E0,2.4524274E0,1.3016498E2,1.7216549E1,2.4978235E1,6.792148E0,8.864221E0,9.729788E0,5.651695E1,1.6703634E1],"tree_param":{"num_deleted":"0","num_feature":"22","num_nodes":"47","size_leaf_vector":"1"}},{"base_weights":[-8.817042E-3,2.7246058E-1,-6.926371E-2,7.9806495E-1,-5.322072E-3,-1.0811038E-1,5.1592463E-1,-1.4648675E-2,9.0135735E-1,-6.61713E-1,1.1036267E-1,7.216996E-2,-2.577154E-1,8.263567E-1,-5.524261E-2,3.0755475E-1,1.1972078E0,-1.0459315E0,2.8963735E-2,6.850733E-1,-8.630926E-2,1.0189555E0,2.554692E-2,-4.211246E-2,-3.6987537E-1,1.9029883E-1,6.207915E-2,-5.9747215E-2,4.8324403E-1,-3.7909787E-2,2.9838571E-2,6.826361E-2,9.955745E-4,4.2680195E-3,-6.938197E-2,4.3820694E-2,-1.8730631E-2,4.923771E-3,-4.4876788E-2,6.2156826E-2,3.20511E-3,-5.3247023E-2,3.9303354E-3,-1.1933829E-2,3.1451784E-2,-5.4901373E-2,-1.2049845E-2,4.790042E-2,-2.1494824E-2,-1.9437434E-3,4.2526435E-2],"categories":[],"categories_nodes":[],"categories_segments":[],"categories_sizes":[],"default_left":[0,0,0,0,0,0,0,0,0,0,0,0,0,0,0,0,0,0,0,0,0,0,0,0,0,0,0,0,0,0,0,0,0,0,0,0,0,0,0,0,0,0,0,0,0,0,0,0,0,0,0],"id":33,"left_children":[1,3,5,7,9,11,13,-1,15,17,19,21,23,25,27,29,31,33,-1,35,37,39,41,43,45,47,-1,-1,49,-1,-1,-1,-1,-1,-1,-1,-1,-1,-1,-1,-1,-1,-1,-1,-1,-1,-1,-1,-1,-1,-1],"loss_changes":[6.1848474E0,9.399857E0,6.8597317E0,2.7723703E0,3.3453937E0,7.610853E0,3.379962E0,0E0,3.2467918E0,3.7528636E0,4.297117E0,5.643681E0,3.7098083E0,2.9980097E0,5.216559E0,2.976492E0,2.6219635E0,2.204453E0,0E0,2.289321E0,4.4090242E0,1.2051854E0,7.2260833E0,7.253722E0,9.233222E0,3.277121E0,0E0,0E0,1.1540548E0,0E0,0E0,0E0,0E0,0E0,0E0,0E0,0E0,0E0,0E0,0E0,0E0,0E0,0E0,0E0,0E0,0E0,0E0,0E0,0E0,0E0,0E0],"parents":[2147483647,0,0,1,1,2,2,3,3,4,4,5,5,6,6,8,8,9,9,10,10,11,11,12,12,13,13,14,14,15,15,16,16,17,17,19,19,20,20,21,21,22,22,23,23,24,24,25,25,28,28],"right_children":[2,4,6,8,10,12,14,-1,16,18,20,22,24,26,28,30,32,34,-1,36,38,40,42,44,46,48,-1,-1,50,-1,-1,-1,-1,-1,-1,-1,-1,-1,-1,-1,-1,-1,-1,-1,-1,-1,-1,-1,-1,-1,-1],"split_conditions":[1.581513E-1,1.891742E-2,1.0215033E-1,-1.4294882E0,2.0842848E-2,-4.52912E-3,3.7713E-2,-1.4648675E-2,1.6059846E-2,6.5408364E-2,2.4954299E-2,-1.5383041E-1,2.7672047E5,2.4296897E-2,4.0053822E-2,-2.739305E-2,5.4480016E-2,-5.9510298E-2,2.8963735E-2,8.465486E6,6.9914716E-1,-7.178935E-2,-1.8440333E-1,2.471572E5,3.7679184E5,2.2121713E-2,6.207915E-2,-5.9747215E-2,1.0488677E0,-3.7909787E-2,2.9838571E-2,6.826361E-2,9.955745E-4,4.2680195E-3,-6.938197E-2,4.3820694E-2,-1.8730631E-2,4.923771E-3,-4.4876788E-2,6.2156826E-2,3.20511E-3,-5.3247023E-2,3.9303354E-3,-1.1933829E-2,3.1451784E-2,-5.4901373E-2,-1.2049845E-2,4.790042E-2,-2.1494824E-2,-1.9437434E-3,4.2526435E-2],"split_indices":[18,9,7,21,10,7,9,0,10,8,10,8,12,9,9,8,7,7,0,12,19,7,15,1,12,10,0,0,21,0,0,0,0,0,0,0,0,0,0,0,0,0,0,0,0,0,0,0,0,0,0],"split_type":[0,0,0,0,0,0,0,0,0,0,0,0,0,0,0,0,0,0,0,0,0,0,0,0,0,0,0,0,0,0,0,0,0,0,0,0,0,0,0,0,0,0,0,0,0,0,0,0,0,0,0],"sum_hessian":[3.616555E2,6.3351826E1,2.9830365E2,2.1257195E1,4.2094627E1,2.8049854E2,1.780513E1,1.679623E0,1.9577572E1,5.6000705E0,3.649456E1,1.2744253E2,1.53056E2,1.1246058E1,6.5590725E0,7.1886897E0,1.2388883E1,4.396165E0,1.2039052E0,8.671513E0,2.7823046E1,5.002399E0,1.2244013E2,5.2846203E1,1.0020979E2,5.0178475E0,6.2282104E0,1.7134639E0,4.8456087E0,1.1883017E0,6.000388E0,1.0701524E1,1.6873591E0,1.1938572E0,3.202308E0,7.4917293E0,1.1797832E0,2.337679E1,4.4462566E0,3.8067374E0,1.1956614E0,4.7962747E0,1.1764386E2,4.137328E1,1.1472923E1,1.3938516E1,8.627128E1,1.9988636E0,3.0189838E0,2.3702712E0,2.4753375E0],"tree_param":{"num_deleted":"0","num_feature":"22","num_nodes":"51","size_leaf_vector":"1"}},{"base_weights":[-3.73693E-2,-1.9370459E-2,-8.042362E-1,2.370254E-1,-9.846043E-2,-1.1271956E0,-2.7538064E-1,-1.8392742E-2,6.000569E-1,-3.804555E-2,-7.4416226E-1,-1.6845731E-2,-6.316354E-2,2.663746E-2,-3.682561E-2,-1.0595677E0,9.610927E-2,8.552978E-2,9.093332E-1,-1.561115E-1,2.8037181E-1,-8.76064E-1,3.337852E-2,-2.2310042E-3,-6.771007E-2,1.0314832E-2,-5.7371747E-2,-4.756398E-2,2.6465619E-2,5.6123375E-3,5.6174245E-2,-6.1093117E-3,-5.3801775E-2,4.875227E-2,5.424897E-3,-2.1125315E-2,-5.8368254E-2],"categories":[],"categories_nodes":[],"categories_segments":[],"categories_sizes":[],"default_left":[0,0,0,0,0,0,0,0,0,0,0,0,0,0,0,0,0,0,0,0,0,0,0,0,0,0,0,0,0,0,0,0,0,0,0,0,0],"id":34,"left_children":[1,3,5,7,9,11,13,15,17,19,21,-1,-1,-1,-1,23,25,27,29,31,33,35,-1,-1,-1,-1,-1,-1,-1,-1,-1,-1,-1,-1,-1,-1,-1],"loss_changes":[5.0605745E0,7.330755E0,1.1258478E0,7.915503E0,1.0742711E1,1.0105419E-1,2.0736105E0,6.183095E0,5.529421E0,9.575395E0,4.973774E0,0E0,0E0,0E0,0E0,1.4757748E0,6.6593895E0,7.0981283E0,3.612833E0,5.660883E0,8.125203E0,2.4119186E0,0E0,0E0,0E0,0E0,0E0,0E0,0E0,0E0,0E0,0E0,0E0,0E0,0E0,0E0,0E0],"parents":[2147483647,0,0,1,1,2,2,3,3,4,4,5,5,6,6,7,7,8,8,9,9,10,10,15,15,16,16,17,17,18,18,19,19,20,20,21,21],"right_children":[2,4,6,8,10,12,14,16,18,20,22,-1,-1,-1,-1,24,26,28,30,32,34,36,-1,-1,-1,-1,-1,-1,-1,-1,-1,-1,-1,-1,-1,-1,-1],"split_conditions":[1.0292828E7,1.8241918E-2,1.4907924E-2,3.1911293E-1,8.318392E6,7.760774E-3,1.026851E7,1.1028935E-2,-5.663183E-1,3.5613665E6,4.0640406E5,-1.6845731E-2,-6.316354E-2,2.663746E-2,-3.682561E-2,-1.0454668E0,2.714873E5,1.4601564E-2,9.397291E-2,3.5790718E6,-3.8469188E-2,8.942105E6,3.337852E-2,-2.2310042E-3,-6.771007E-2,1.0314832E-2,-5.7371747E-2,-4.756398E-2,2.6465619E-2,5.6123375E-3,5.6174245E-2,-6.1093117E-3,-5.3801775E-2,4.875227E-2,5.424897E-3,-2.1125315E-2,-5.8368254E-2],"split_indices":[1,9,9,20,3,8,0,10,21,13,16,0,0,0,0,21,16,10,19,3,6,3,0,0,0,0,0,0,0,0,0,0,0,0,0,0,0],"split_type":[0,0,0,0,0,0,0,0,0,0,0,0,0,0,0,0,0,0,0,0,0,0,0,0,0,0,0,0,0,0,0,0,0,0,0,0,0],"sum_hessian":[3.6676486E2,3.593558E2,7.409044E0,8.42465E1,2.751093E2,3.8975298E0,3.511514E0,5.001017E1,3.4236332E1,2.5253947E2,2.256985E1,1.0831118E0,2.814418E0,1.2193327E0,2.2921813E0,4.1371417E0,4.5873028E1,1.3332419E1,2.090391E1,1.8460101E2,6.793846E1,2.0988302E1,1.581549E0,1.1898422E0,2.9472995E0,4.290539E1,2.9676347E0,3.6534026E0,9.679017E0,4.749629E0,1.6154282E1,1.791279E2,5.473115E0,1.2548274E1,5.5390186E1,9.166466E0,1.18218355E1],"tree_param":{"num_deleted":"0","num_feature":"22","num_nodes":"37","size_leaf_vector":"1"}},{"base_weights":[-4.3876268E-2,-6.75891E-2,5.904912E-1,-1.0078587E-1,4.2786235E-1,7.6696956E-1,-2.470467E-2,4.828748E-2,-2.3409764E-1,8.3698857E-1,-2.6190156E-1,1.4400486E-2,1.2225573E0,5.1997323E-2,1.5935056E-2,-7.332301E-1,-1.6779426E-1,3.071506E-1,6.656481E-2,-7.0591325E-1,4.1979775E-1,-3.3149313E-2,5.8410203E-1,7.064694E-2,1.1862583E-2,-4.434993E-2,3.2619555E-3,6.0722297E-3,-5.8015626E-2,4.1241426E-2,-1.0527081E-2,5.218212E-2,-1.4720443E-2,5.46983E-3,-4.712469E-2,5.3041406E-2,-2.0700257E-2,-2.2367404E-3,4.544723E-2],"categories":[],"categories_nodes":[],"categories_segments":[],"categories_sizes":[],"default_left":[0,0,0,0,0,0,0,0,0,0,0,0,0,0,0,0,0,0,0,0,0,0,0,0,0,0,0,0,0,0,0,0,0,0,0,0,0,0,0],"id":35,"left_children":[1,3,5,7,9,11,-1,13,15,17,19,21,23,-1,25,27,29,31,-1,33,35,-1,37,-1,-1,-1,-1,-1,-1,-1,-1,-1,-1,-1,-1,-1,-1,-1,-1],"loss_changes":[5.4993696E0,5.81207E0,2.9017515E0,6.560237E0,6.488659E0,4.0033526E0,0E0,5.001144E0,5.6398315E0,3.3057432E0,3.0304666E0,2.4844077E0,1.0328875E0,0E0,6.8457637E0,7.4859514E0,6.7511644E0,3.9160852E0,0E0,1.2301497E0,2.678683E0,0E0,7.522304E-1,0E0,0E0,0E0,0E0,0E0,0E0,0E0,0E0,0E0,0E0,0E0,0E0,0E0,0E0,0E0,0E0],"parents":[2147483647,0,0,1,1,2,2,3,3,4,4,5,5,7,7,8,8,9,9,10,10,11,11,12,12,14,14,15,15,16,16,17,17,19,19,20,20,22,22],"right_children":[2,4,6,8,10,12,-1,14,16,18,20,22,24,-1,26,28,30,32,-1,34,36,-1,38,-1,-1,-1,-1,-1,-1,-1,-1,-1,-1,-1,-1,-1,-1,-1,-1],"split_conditions":[7.1152294E-1,1.0215033E-1,1.9124378E-1,-2.1175956E-3,3.7713E-2,-3.9157525E-2,-2.470467E-2,-1.7826037E-1,-1.8057767E-2,2.8190834E-2,2.8967038E5,1.5626193E12,1.05674155E-2,5.1997323E-2,-1.8440333E-1,8.291087E-2,-1.43841235E-2,3.0074838E5,6.656481E-2,2.0946416E5,3.8061712E5,-3.3149313E-2,6.655396E-2,7.064694E-2,1.1862583E-2,-4.434993E-2,3.2619555E-3,6.0722297E-3,-5.8015626E-2,4.1241426E-2,-1.0527081E-2,5.218212E-2,-1.4720443E-2,5.46983E-3,-4.712469E-2,5.3041406E-2,-2.0700257E-2,-2.2367404E-3,4.544723E-2],"split_indices":[20,7,15,7,9,15,0,8,5,9,0,4,7,0,15,19,5,0,0,3,1,0,19,0,0,0,0,0,0,0,0,0,0,0,0,0,0,0,0],"split_type":[0,0,0,0,0,0,0,0,0,0,0,0,0,0,0,0,0,0,0,0,0,0,0,0,0,0,0,0,0,0,0,0,0,0,0,0,0,0,0],"sum_hessian":[3.6193204E2,3.4975168E2,1.2180361E1,3.2853537E2,2.1216297E1,1.07276535E1,1.452707E0,1.5540004E2,1.7313533E2,1.3183312E1,8.032985E0,4.4343386E0,6.2933154E0,3.9257123E0,1.5147432E2,1.9122473E1,1.5401286E2,7.145537E0,6.037775E0,4.843043E0,3.1899421E0,1.9509163E0,2.4834223E0,4.9104953E0,1.3828201E0,6.963182E0,1.4451114E2,6.6100745E0,1.2512398E1,5.603368E0,1.4840948E2,2.8820887E0,4.263448E0,1.2101583E0,3.6328845E0,1.6495137E0,1.5404284E0,1.1396167E0,1.3438054E0],"tree_param":{"num_deleted":"0","num_feature":"22","num_nodes":"39","size_leaf_vector":"1"}},{"base_weights":[-1.6882066E-2,1.8641873E-3,-9.019672E-1,-1.7727502E-2,8.88602E-1,3.5810426E-5,-1.0589725E0,2.9960712E-2,-3.4515834E-1,-1.4490719E-2,5.8467973E-2,-5.7440788E-2,-1.4360279E-2,-1.1344876E-3,8.030184E-1,-5.0307244E-1,7.686993E-2,-3.0501029E-3,2.1827167E-2,4.9298823E-2,-2.587439E-2,-1.2408986E-2,-4.9935922E-2,5.59357E-2,-9.95577E-3],"categories":[],"categories_nodes":[],"categories_segments":[],"categories_sizes":[],"default_left":[0,0,0,0,0,0,0,0,0,0,0,0,0,0,0,0,0,0,0,0,0,0,0,0,0],"id":36,"left_children":[1,3,5,7,9,-1,11,13,15,-1,-1,-1,-1,17,19,21,23,-1,-1,-1,-1,-1,-1,-1,-1],"loss_changes":[6.0485773E0,6.2331758E0,1.0723467E0,5.4930778E0,2.904891E0,0E0,1.1668873E-1,7.3905683E0,3.0188847E0,0E0,0E0,0E0,0E0,7.796317E0,3.3824487E0,3.880105E0,3.9733183E0,0E0,0E0,0E0,0E0,0E0,0E0,0E0,0E0],"parents":[2147483647,0,0,1,1,2,2,3,3,4,4,6,6,7,7,8,8,13,13,14,14,15,15,16,16],"right_children":[2,4,6,8,10,-1,12,14,16,-1,-1,-1,-1,18,20,22,24,-1,-1,-1,-1,-1,-1,-1,-1],"split_conditions":[1.0193791E7,2.7552419E0,-2.4465026E-2,2.859124E-2,1.9534719E5,3.5810426E-5,4.6585742E-1,1.4076768E-1,8.819858E-2,-1.4490719E-2,5.8467973E-2,-5.7440788E-2,-1.4360279E-2,3.9474275E-2,2.1147425E0,4.862741E-2,4.347091E-2,-3.0501029E-3,2.1827167E-2,4.9298823E-2,-2.587439E-2,-1.2408986E-2,-4.9935922E-2,5.59357E-2,-9.95577E-3],"split_indices":[11,21,5,5,0,0,20,14,7,0,0,0,0,10,21,8,19,0,0,0,0,0,0,0,0],"split_type":[0,0,0,0,0,0,0,0,0,0,0,0,0,0,0,0,0,0,0,0,0,0,0,0,0],"sum_hessian":[3.634458E2,3.5688483E2,6.560987E0,3.5012903E2,6.7557836E0,1.1195725E0,5.4414144E0,3.0641077E2,4.3718277E1,1.2936633E0,5.4621205E0,4.4364085E0,1.0050058E0,2.955223E2,1.0888453E1,3.1674362E1,1.2043916E1,2.607204E2,3.4801903E1,9.785932E0,1.1025211E0,2.1908392E1,9.76597E0,1.8828049E0,1.0161111E1],"tree_param":{"num_deleted":"0","num_feature":"22","num_nodes":"25","size_leaf_vector":"1"}},{"base_weights":[7.4476064E-3,1.4806227E-1,-1.04983255E-1,8.98341E-2,6.9886774E-1,-4.3216923E-1,-2.41705E-2,4.5902306E-1,5.2549425E-3,9.1806495E-1,-1.1164314E-1,-6.313758E-1,2.4879542E-1,-5.8948714E-1,2.0396715E-2,1.8962948E-1,1.0632993E0,6.564655E-1,-5.1543914E-2,-1.3266269E-2,1.1559547E0,-3.6585882E-2,2.4503205E-2,-7.2968446E-2,-9.4024247E-1,6.049706E-1,-3.3992235E-2,5.1572067E-1,-1.0017784E0,2.9304788E-1,-1.0220849E-1,-1.4409448E-2,2.5940686E-2,1.1431151E-2,6.512878E-2,-2.7490614E-2,5.343019E-2,-3.470696E-2,5.825853E-4,3.5552595E-2,-3.6493782E-2,7.3227286E-3,7.338707E-2,-3.0198995E-2,4.5899667E-2,-2.4521535E-3,-5.4271724E-2,4.2187795E-2,-1.2004659E-2,5.3788144E-2,-6.7000026E-3,-6.263495E-2,1.8247379E-2,-6.7740134E-3,3.943005E-2,-3.0209685E-2,7.27955E-3],"categories":[],"categories_nodes":[],"categories_segments":[],"categories_sizes":[],"default_left":[0,0,0,0,0,0,0,0,0,0,0,0,0,0,0,0,0,0,0,0,0,0,0,0,0,0,0,0,0,0,0,0,0,0,0,0,0,0,0,0,0,0,0,0,0,0,0,0,0,0,0,0,0,0,0,0,0],"id":37,"left_children":[1,3,5,7,9,11,13,15,17,19,21,23,25,27,29,31,33,35,37,39,41,-1,-1,43,45,47,-1,49,51,53,55,-1,-1,-1,-1,-1,-1,-1,-1,-1,-1,-1,-1,-1,-1,-1,-1,-1,-1,-1,-1,-1,-1,-1,-1,-1,-1],"loss_changes":[5.7773485E0,5.1440287E0,5.3598957E0,4.6181045E0,2.833859E0,5.6063313E0,4.142361E0,4.2863197E0,4.5242686E0,2.720439E0,1.9122951E0,5.3404293E0,3.655706E0,5.990647E0,5.1419754E0,3.340217E0,1.3566389E0,5.465648E0,4.580289E0,2.3215652E0,2.849699E0,0E0,0E0,7.002173E0,2.548706E0,1.7399931E0,0E0,1.5719901E0,3.5741968E0,1.0235155E1,1.3302082E1,0E0,0E0,0E0,0E0,0E0,0E0,0E0,0E0,0E0,0E0,0E0,0E0,0E0,0E0,0E0,0E0,0E0,0E0,0E0,0E0,0E0,0E0,0E0,0E0,0E0,0E0],"parents":[2147483647,0,0,1,1,2,2,3,3,4,4,5,5,6,6,7,7,8,8,9,9,10,10,11,11,12,12,13,13,14,14,15,15,16,16,17,17,18,18,19,19,20,20,23,23,24,24,25,25,27,27,28,28,29,29,30,30],"right_children":[2,4,6,8,10,12,14,16,18,20,22,24,26,28,30,32,34,36,38,40,42,-1,-1,44,46,48,-1,50,52,54,56,-1,-1,-1,-1,-1,-1,-1,-1,-1,-1,-1,-1,-1,-1,-1,-1,-1,-1,-1,-1,-1,-1,-1,-1,-1,-1],"split_conditions":[-2.70185E-3,-7.1569863E-3,-3.9157525E-2,-6.0249023E-2,5.9467442E-3,4.1959144E-2,-1.316996E0,5.123839E6,1.5114427E5,-2.295971E-2,-7.459568E-3,-1.043556E-1,7.590535E-2,2.102144E-1,2.706555E5,3.456341E1,-4.9317647E-2,1.3720586E5,1.584867E5,1.6987218E-1,4.3640095E1,-3.6585882E-2,2.4503205E-2,2.471572E5,3.3212833E1,2.6723169E-2,-3.3992235E-2,-6.267131E-3,5.904916E6,1.9391862E5,2.5963575E6,-1.4409448E-2,2.5940686E-2,1.1431151E-2,6.512878E-2,-2.7490614E-2,5.343019E-2,-3.470696E-2,5.825853E-4,3.5552595E-2,-3.6493782E-2,7.3227286E-3,7.338707E-2,-3.0198995E-2,4.5899667E-2,-2.4521535E-3,-5.4271724E-2,4.2187795E-2,-1.2004659E-2,5.3788144E-2,-6.7000026E-3,-6.263495E-2,1.8247379E-2,-6.7740134E-3,3.943005E-2,-3.0209685E-2,7.27955E-3],"split_indices":[7,7,15,6,5,7,21,12,12,5,8,15,7,20,12,17,5,13,2,20,17,0,0,1,17,5,0,6,0,13,1,0,0,0,0,0,0,0,0,0,0,0,0,0,0,0,0,0,0,0,0,0,0,0,0,0,0],"split_type":[0,0,0,0,0,0,0,0,0,0,0,0,0,0,0,0,0,0,0,0,0,0,0,0,0,0,0,0,0,0,0,0,0,0,0,0,0,0,0,0,0,0,0,0,0,0,0,0,0,0,0,0,0,0,0,0,0],"sum_hessian":[3.6345367E2,1.6134558E2,2.0210811E2,1.4697163E2,1.4373951E1,3.91706E1,1.629375E2,2.6569283E1,1.2040235E2,1.1209672E1,3.1642795E0,3.0361574E1,8.809029E0,1.1013164E1,1.5192433E2,1.9285423E1,7.28386E0,8.812099E0,1.11590256E2,2.4728348E0,8.736837E0,1.4519446E0,1.7123349E0,1.1253091E1,1.9108484E1,6.618918E0,2.1901107E0,2.924022E0,8.089141E0,4.6694435E1,1.05229904E2,7.917511E0,1.1367911E1,2.0585213E0,5.225339E0,2.158981E0,6.6531186E0,9.097696E0,1.0249255E2,1.2336595E0,1.2391752E0,2.4084625E0,6.3283744E0,