{"learner":{"attributes":{},"feature_names":["open","high","low","close","volume","ret_1","ret_3","ret_5","ret_10","vol_10","vol_20","ma_10","ma_20","ma_50","close_over_ma20","close_over_ma50","atr_14","rsi_14","body_to_range","upper_wick","lower_wick","vol_zscore_20"],"feature_types":["float","float","float","float","int","float","float","float","float","float","float","float","float","float","float","float","float","float","float","float","float","float"],"gradient_booster":{"model":{"cats":{"enc":[],"feature_segments":[],"sorted_idx":[]},"gbtree_model_param":{"num_parallel_tree":"1","num_trees":"150"},"iteration_indptr":[0,1,2,3,4,5,6,7,8,9,10,11,12,13,14,15,16,17,18,19,20,21,22,23,24,25,26,27,28,29,30,31,32,33,34,35,36,37,38,39,40,41,42,43,44,45,46,47,48,49,50,51,52,53,54,55,56,57,58,59,60,61,62,63,64,65,66,67,68,69,70,71,72,73,74,75,76,77,78,79,80,81,82,83,84,85,86,87,88,89,90,91,92,93,94,95,96,97,98,99,100,101,102,103,104,105,106,107,108,109,110,111,112,113,114,115,116,117,118,119,120,121,122,123,124,125,126,127,128,129,130,131,132,133,134,135,136,137,138,139,140,141,142,143,144,145,146,147,148,149,150],"tree_info":[0,0,0,0,0,0,0,0,0,0,0,0,0,0,0,0,0,0,0,0,0,0,0,0,0,0,0,0,0,0,0,0,0,0,0,0,0,0,0,0,0,0,0,0,0,0,0,0,0,0,0,0,0,0,0,0,0,0,0,0,0,0,0,0,0,0,0,0,0,0,0,0,0,0,0,0,0,0,0,0,0,0,0,0,0,0,0,0,0,0,0,0,0,0,0,0,0,0,0,0,0,0,0,0,0,0,0,0,0,0,0,0,0,0,0,0,0,0,0,0,0,0,0,0,0,0,0,0,0,0,0,0,0,0,0,0,0,0,0,0,0,0,0,0,0,0,0,0,0,0],"trees":[{"base_weights":[-6.2992126E-2,1.25E0,-2.4778761E-1,1.4285715E0,-0E0,3.030303E-1,-6.5648854E-1,8.260869E-2,1.1111111E-2,7.826087E-1,-7.058824E-1,7.2E-1,-9.4545454E-1,1.032258E0,-4.5454547E-2,1.3333334E-1,-1.1304348E0,-2.5E-2,1.0476191E0,4.6153846E-1,-1.089109E0,-1.764706E-2,7.1428575E-2,5.555556E-2,-4.0000003E-2,1.1111111E-2,-7.777778E-2,9.09091E-3,7.1428575E-2,-2.5E-2,5.555556E-2,-0E0,-6.4705886E-2],"categories":[],"categories_nodes":[],"categories_segments":[],"categories_sizes":[],"default_left":[0,0,0,0,0,0,0,0,0,0,0,0,0,0,0,0,0,0,0,0,0,0,0,0,0,0,0,0,0,0,0,0,0],"id":0,"left_children":[1,3,5,7,-1,9,11,-1,-1,13,15,17,19,21,-1,23,25,-1,27,29,31,-1,-1,-1,-1,-1,-1,-1,-1,-1,-1,-1,-1],"loss_changes":[1.5717058E1,1.7857141E0,1.2918205E1,1.5210485E0,0E0,1.2527784E1,1.3707314E1,0E0,0E0,8.2236395E0,3.1791983E0,3.0219047E0,6.0609856E0,9.013283E0,0E0,4.311111E0,3.652174E0,0E0,1.4718614E0,2.58547E0,5.637739E0,0E0,0E0,0E0,0E0,0E0,0E0,0E0,0E0,0E0,0E0,0E0,0E0],"parents":[2147483647,0,0,1,1,2,2,3,3,5,5,6,6,9,9,10,10,11,11,12,12,13,13,15,15,16,16,18,18,19,19,20,20],"right_children":[2,4,6,8,-1,10,12,-1,-1,14,16,18,20,22,-1,24,26,-1,28,30,32,-1,-1,-1,-1,-1,-1,-1,-1,-1,-1,-1,-1],"split_conditions":[7.5428555E6,3.6942E5,1.6808761E-2,1.0345739E-1,-0E0,2.6619285E-2,-6.337525E-2,8.260869E-2,1.1111111E-2,1.0152103E7,2.1181592E5,5.6107763E-2,-1.0111123E-1,8.909158E6,-4.5454547E-2,1.0278039E7,3.9349464E-3,-2.5E-2,-8.4828E-2,9.934329E-2,2.3669258E5,-1.764706E-2,7.1428575E-2,5.555556E-2,-4.0000003E-2,1.1111111E-2,-7.777778E-2,9.09091E-3,7.1428575E-2,-2.5E-2,5.555556E-2,-0E0,-6.4705886E-2],"split_indices":[13,16,9,8,0,8,14,0,0,2,16,19,15,1,0,1,6,0,14,19,16,0,0,0,0,0,0,0,0,0,0,0,0],"split_type":[0,0,0,0,0,0,0,0,0,0,0,0,0,0,0,0,0,0,0,0,0,0,0,0,0,0,0,0,0,0,0,0,0],"sum_hessian":[6.25E1,7E0,5.55E1,6E0,1E0,2.375E1,3.175E1,4.75E0,1.25E0,1.625E1,7.5E0,5.25E0,2.65E1,1.45E1,1.75E0,2.75E0,4.75E0,1E0,4.25E0,2.25E0,2.425E1,3.25E0,1.125E1,1.25E0,1.5E0,1.25E0,3.5E0,1.75E0,2.5E0,1E0,1.25E0,4E0,2.025E1],"tree_param":{"num_deleted":"0","num_feature":"22","num_nodes":"33","size_leaf_vector":"1"}},{"base_weights":[4.32835E-2,6.5027064E-1,-2.8722128E-1,1.2862366E0,-2.738736E-2,9.929401E-1,-5.029674E-1,1.567205E0,-8.894936E-3,-1.1025106E0,8.596674E-1,5.752659E-2,1.0074187E-2,-7.449579E-2,-1.3719217E0,1.0918943E-2,8.699017E-2,-8.083087E-3,-7.3678E-2,-3.2424472E-2,1.3004743E0,3.013284E-1,-1.1904635E0,3.2163255E-2,-8.366058E-2,7.741502E-2,1.133644E-2,-7.425766E-2,3.5816412E-2,-7.588491E-2,-1.5136984E-2],"categories":[],"categories_nodes":[],"categories_segments":[],"categories_sizes":[],"default_left":[0,0,0,0,0,0,0,0,0,0,0,0,0,0,0,0,0,0,0,0,0,0,0,0,0,0,0,0,0,0,0],"id":1,"left_children":[1,3,5,7,9,11,13,15,-1,17,19,-1,-1,21,23,-1,-1,-1,-1,-1,25,27,29,-1,-1,-1,-1,-1,-1,-1,-1],"loss_changes":[1.2663881E1,9.616822E0,1.1812826E1,5.0055275E0,1.214674E1,5.469823E-1,1.3196566E1,1.8880615E0,0E0,1.7679715E0,5.494319E0,0E0,0E0,1.0835493E1,8.203409E0,0E0,0E0,0E0,0E0,0E0,1.1780872E0,1.5509676E1,1.4273281E0,0E0,0E0,0E0,0E0,0E0,0E0,0E0,0E0],"parents":[2147483647,0,0,1,1,2,2,3,3,4,4,5,5,6,6,7,7,9,9,10,10,13,13,14,14,20,20,21,21,22,22],"right_children":[2,4,6,8,10,12,14,16,-1,18,20,-1,-1,22,24,-1,-1,-1,-1,-1,26,28,30,-1,-1,-1,-1,-1,-1,-1,-1],"split_conditions":[4.3202488E1,3.3578075E5,7.4722335E6,1.0103889E7,2.323673E-2,7.508217E-2,2.7126916E5,1.1490554E-1,-8.894936E-3,8.811282E6,1.03340715E-1,5.752659E-2,1.0074187E-2,1.0132707E7,-1.0111123E-1,1.0918943E-2,8.699017E-2,-8.083087E-3,-7.3678E-2,-3.2424472E-2,4.5888516E-1,8.3821585E6,1.4865336E-2,3.2163255E-2,-8.366058E-2,7.741502E-2,1.133644E-2,-7.425766E-2,3.5816412E-2,-7.588491E-2,-1.5136984E-2],"split_indices":[17,16,13,12,10,7,16,20,0,12,19,0,0,2,15,0,0,0,0,0,21,2,9,0,0,0,0,0,0,0,0],"split_type":[0,0,0,0,0,0,0,0,0,0,0,0,0,0,0,0,0,0,0,0,0,0,0,0,0,0,0,0,0,0,0],"sum_hessian":[6.1195187E1,2.1232756E1,3.9962433E1,1.0490039E1,1.0742716E1,5.2440047E0,3.4718426E1,8.742041E0,1.7479982E0,4.746726E0,5.9959893E0,3.9948723E0,1.2491325E0,2.3979925E1,1.07385025E1,1.2487247E0,7.493316E0,1.7485965E0,2.9981294E0,1.2495823E0,4.746407E0,1.848479E1,5.4951334E0,1.249064E0,9.489439E0,3.4972591E0,1.2491481E0,2.9984503E0,1.54863405E1,3.4965699E0,1.9985635E0],"tree_param":{"num_deleted":"0","num_feature":"22","num_nodes":"31","size_leaf_vector":"1"}},{"base_weights":[4.735896E-2,2.379789E-1,-7.557376E-2,1.2408017E0,-1.5193079E-2,8.125027E-2,-2.8579155E-2,7.3097214E-2,-1.6004167E-1,9.069428E-1,-3.4769645E-1,6.752213E-2,-1.936473E-2,4.5115065E-2,-2.9532278E-2],"categories":[],"categories_nodes":[],"categories_segments":[],"categories_sizes":[],"default_left":[0,0,0,0,0,0,0,0,0,0,0,0,0,0,0],"id":2,"left_children":[1,3,-1,5,7,-1,-1,-1,9,11,13,-1,-1,-1,-1],"loss_changes":[1.9033224E1,1.4454786E1,0E0,8.91802E0,1.0158863E1,0E0,0E0,0E0,8.954091E0,4.3861775E0,1.1895333E1,0E0,0E0,0E0,0E0],"parents":[2147483647,0,0,1,1,3,3,4,4,8,8,9,9,10,10],"right_children":[2,4,-1,6,8,-1,-1,-1,10,12,14,-1,-1,-1,-1],"split_conditions":[1.020589E7,2.1924811E5,-7.557376E-2,1.0084795E7,2.6128096E1,8.125027E-2,-2.8579155E-2,7.3097214E-2,1.399944E-2,1.572887E-2,7.2732295E6,6.752213E-2,-1.936473E-2,4.5115065E-2,-2.9532278E-2],"split_indices":[11,16,0,11,17,0,0,0,9,6,3,0,0,0,0],"split_type":[0,0,0,0,0,0,0,0,0,0,0,0,0,0,0],"sum_hessian":[6.1843166E1,5.5859764E1,5.9834023E0,1.0473371E1,4.5386395E1,8.726786E0,1.7465847E0,3.2411256E0,4.214527E1,5.7303114E0,3.641496E1,4.2354956E0,1.4948161E0,5.484207E0,3.0930752E1],"tree_param":{"num_deleted":"0","num_feature":"22","num_nodes":"15","size_leaf_vector":"1"}},{"base_weights":[-4.1686647E-2,1.5127933E-1,-7.468706E-2,4.872208E-1,-2.5340402E-1,1.3540361E0,2.3686858E-1,7.178546E-2,-7.065633E-1,1.0648767E-2,7.782363E-2,-2.2418131E-1,7.7001023E-1,2.4260293E-1,-1.4378352E0,-4.6910923E-2,2.269019E-2,5.9344977E-2,-1.7074786E-2,6.625347E-2,-1.2259844E-2,-1.0324098E-2,-7.7562645E-2],"categories":[],"categories_nodes":[],"categories_segments":[],"categories_sizes":[],"default_left":[0,0,0,0,0,0,0,0,0,0,0,0,0,0,0,0,0,0,0,0,0,0,0],"id":3,"left_children":[1,3,-1,5,7,9,11,-1,13,-1,-1,15,17,19,21,-1,-1,-1,-1,-1,-1,-1,-1],"loss_changes":[1.8983742E1,8.280474E0,0E0,6.8680644E0,2.234977E1,1.3343134E0,6.788503E0,0E0,1.6068401E1,0E0,0E0,7.7880325E0,6.293533E0,5.9806376E0,1.4863567E0,0E0,0E0,0E0,0E0,0E0,0E0,0E0,0E0],"parents":[2147483647,0,0,1,1,3,3,4,4,5,5,6,6,8,8,11,11,12,12,13,13,14,14],"right_children":[2,4,-1,6,8,10,12,-1,14,-1,-1,16,18,20,22,-1,-1,-1,-1,-1,-1,-1,-1],"split_conditions":[1.020589E7,2.7592472E5,-7.468706E-2,4.3202488E1,7.3076695E6,1.4205742E-1,9.116034E6,7.178546E-2,-3.689231E-2,1.0648767E-2,7.782363E-2,3.8346812E-2,4.4409603E-2,2.7140127E1,-9.216234E-2,-4.6910923E-2,2.269019E-2,5.9344977E-2,-1.7074786E-2,6.625347E-2,-1.2259844E-2,-1.0324098E-2,-7.7562645E-2],"split_indices":[11,16,0,17,3,20,12,0,14,0,0,15,8,17,15,0,0,0,0,0,0,0,0],"split_type":[0,0,0,0,0,0,0,0,0,0,0,0,0,0,0,0,0,0,0,0,0,0,0],"sum_hessian":[6.594491E1,5.90001E1,6.9448056E0,3.2126686E1,2.6873413E1,6.2115154E0,2.591517E1,5.2259398E0,2.1647474E1,1.2451447E0,4.9663706E0,1.4207944E1,1.1707227E1,9.711074E0,1.19364E1,6.73304E0,7.4749045E0,8.464602E0,3.2426243E0,2.483522E0,7.227552E0,1.2445972E0,1.0691803E1],"tree_param":{"num_deleted":"0","num_feature":"22","num_nodes":"23","size_leaf_vector":"1"}},{"base_weights":[-1.4634585E-2,1.616601E-1,-7.0309386E-2,5.130266E-1,-3.3543485E-1,9.8976433E-1,-1.4699368E-1,7.2438496E-1,-7.639065E-1,-3.412457E-2,1.1401075E0,-5.1809275E-1,6.753886E-2,6.59377E-2,-2.3045208E-2,2.815523E-1,-1.39674E0,4.411433E-3,7.011393E-2,1.4625351E-2,-6.692528E-2,-3.148624E-2,6.1806004E-2,1.8596466E-3,-8.111972E-2],"categories":[],"categories_nodes":[],"categories_segments":[],"categories_sizes":[],"default_left":[0,0,0,0,0,0,0,0,0,0,0,0,0,0,0,0,0,0,0,0,0,0,0,0,0],"id":4,"left_children":[1,3,-1,5,7,9,11,13,15,-1,17,19,-1,-1,-1,21,23,-1,-1,-1,-1,-1,-1,-1,-1],"loss_changes":[1.5621253E1,1.0056349E1,0E0,1.0702393E1,1.1470026E1,5.7081337E0,9.004491E0,5.845272E0,1.2041263E1,0E0,4.9411716E0,8.835467E0,0E0,0E0,0E0,7.2771254E0,3.663311E0,0E0,0E0,0E0,0E0,0E0,0E0,0E0,0E0],"parents":[2147483647,0,0,1,1,3,3,4,4,5,5,6,6,7,7,8,8,10,10,11,11,15,15,16,16],"right_children":[2,4,-1,6,8,10,12,14,16,-1,18,20,-1,-1,-1,22,24,-1,-1,-1,-1,-1,-1,-1,-1],"split_conditions":[1.020589E7,2.7592472E5,-7.0309386E-2,1.7685076E-2,7.7536065E6,1.8267736E5,9.541886E6,7.83913E-3,-4.1705485E-2,-3.412457E-2,1.419966E-1,8.945013E6,6.753886E-2,6.59377E-2,-2.3045208E-2,-8.576775E-2,7.8892505E6,4.411433E-3,7.011393E-2,1.4625351E-2,-6.692528E-2,-3.148624E-2,6.1806004E-2,1.8596466E-3,-8.111972E-2],"split_indices":[11,16,0,9,1,16,0,5,14,0,20,1,0,0,0,15,11,0,0,0,0,0,0,0,0],"split_type":[0,0,0,0,0,0,0,0,0,0,0,0,0,0,0,0,0,0,0,0,0,0,0,0,0],"sum_hessian":[6.174953E1,5.5590626E1,6.1589026E0,3.2550552E1,2.3040073E1,1.8609308E1,1.3941245E1,6.4342937E0,1.660578E1,1.2430791E0,1.7366228E1,1.1697159E1,2.244086E0,4.210378E0,2.2239158E0,6.470848E0,1.0134932E1,3.7314575E0,1.3634771E1,6.207435E0,5.489724E0,3.4845908E0,2.986257E0,1.4916085E0,8.643323E0],"tree_param":{"num_deleted":"0","num_feature":"22","num_nodes":"25","size_leaf_vector":"1"}},{"base_weights":[4.4603873E-2,1.0505418E0,-1.679137E-1,-3.274977E-2,7.464818E-2,3.3499268E-1,-5.3742296E-1,8.127906E-1,-2.227557E-1,5.3453933E-2,-7.3045313E-1,1.2924176E0,1.9476596E-1,-1.0285734E0,5.5470234E-1,-2.8636307E-1,-7.821276E-2,1.7910814E-2,7.414953E-2,4.695271E-2,-3.2587357E-2,-1.1222024E-2,-6.861462E-2,-3.1355646E-2,6.1053623E-2,1.8372055E-2,-4.3262225E-2],"categories":[],"categories_nodes":[],"categories_segments":[],"categories_sizes":[],"default_left":[0,0,0,0,0,0,0,0,0,0,0,0,0,0,0,0,0,0,0,0,0,0,0,0,0,0,0],"id":5,"left_children":[1,3,5,-1,-1,7,9,11,13,-1,15,17,19,21,23,25,-1,-1,-1,-1,-1,-1,-1,-1,-1,-1,-1],"loss_changes":[1.3635077E1,9.367379E0,9.998767E0,0E0,0E0,6.3090773E0,1.0345231E1,3.4833117E0,7.709287E0,0E0,9.967412E0,7.002506E-1,4.8228264E0,1.3353705E0,5.8445964E0,7.727395E0,0E0,0E0,0E0,0E0,0E0,0E0,0E0,0E0,0E0,0E0,0E0],"parents":[2147483647,0,0,1,1,2,2,5,5,6,6,7,7,8,8,10,10,11,11,12,12,13,13,14,14,15,15],"right_children":[2,4,6,-1,-1,8,10,12,14,-1,16,18,20,22,24,26,-1,-1,-1,-1,-1,-1,-1,-1,-1,-1,-1],"split_conditions":[2.1924811E5,1.141876E-2,4.5273464E1,-3.274977E-2,7.464818E-2,3.3578075E5,7.25017E6,4.0951046E-1,2.323673E-2,5.3453933E-2,2.7126916E5,8.1883675E6,-3.5284895E-2,8.811282E6,9.934329E-2,1.6780185E-2,-7.821276E-2,1.7910814E-2,7.414953E-2,4.695271E-2,-3.2587357E-2,-1.1222024E-2,-6.861462E-2,-3.1355646E-2,6.1053623E-2,1.8372055E-2,-4.3262225E-2],"split_indices":[16,10,17,0,0,16,12,18,10,0,16,12,7,12,19,9,0,0,0,0,0,0,0,0,0,0,0],"split_type":[0,0,0,0,0,0,0,0,0,0,0,0,0,0,0,0,0,0,0,0,0,0,0,0,0,0,0],"sum_hessian":[6.195589E1,1.0118296E1,5.1837593E1,1.9851316E0,8.133164E0,2.1995235E1,2.984236E1,1.1600413E1,1.0394821E1,2.7142773E0,2.7128082E1,5.91713E0,5.6832833E0,4.9457097E0,5.4491115E0,1.8577168E1,8.550916E0,1.4904623E0,4.4266677E0,2.9660728E0,2.7172103E0,1.9759462E0,2.9697635E0,1.9859385E0,3.4631732E0,8.895551E0,9.681617E0],"tree_param":{"num_deleted":"0","num_feature":"22","num_nodes":"27","size_leaf_vector":"1"}},{"base_weights":[-1.1099021E-1,6.2811054E-2,-1.2813568E0,8.1608397E-1,-1.17449E-1,-4.2270073E-3,-7.3823996E-2,-3.6758676E-1,1.199399E0,2.957353E-1,-6.589601E-1,2.5801588E-2,-5.392015E-2,6.7728974E-2,1.3545885E-2,-3.0394766E-1,6.7033374E-1,-8.854144E-1,5.9659255E-1,3.3888E-2,-4.699507E-2,4.8605155E-2,-1.9743523E-2,2.2053907E-2,-5.2824657E-2,5.35213E-2,-9.686891E-3],"categories":[],"categories_nodes":[],"categories_segments":[],"categories_sizes":[],"default_left":[0,0,0,0,0,0,0,0,0,0,0,0,0,0,0,0,0,0,0,0,0,0,0,0,0,0,0],"id":6,"left_children":[1,3,5,7,9,-1,-1,11,13,15,17,-1,-1,-1,-1,19,21,23,25,-1,-1,-1,-1,-1,-1,-1,-1],"loss_changes":[1.3062138E1,7.77057E0,1.8131304E0,5.449813E0,1.0594803E1,0E0,0E0,2.733419E0,8.683491E-1,6.2813587E0,6.336012E0,0E0,0E0,0E0,0E0,7.5609107E0,5.837054E0,4.4845266E0,1.5999666E0,0E0,0E0,0E0,0E0,0E0,0E0,0E0,0E0],"parents":[2147483647,0,0,1,1,2,2,3,3,4,4,7,7,8,8,9,9,10,10,15,15,16,16,17,17,18,18],"right_children":[2,4,6,8,10,-1,-1,12,14,16,18,-1,-1,-1,-1,20,22,24,26,-1,-1,-1,-1,-1,-1,-1,-1],"split_conditions":[1.020589E7,2.1924811E5,-2.1300744E-2,9.240067E-3,3.1316257E-3,-4.2270073E-3,-7.3823996E-2,9.948184E6,2.1356964E5,-1.3829483E-2,1.0041818E7,2.5801588E-2,-5.392015E-2,6.7728974E-2,1.3545885E-2,-3.5284895E-2,2.391228E-2,7.206364E6,4.954966E12,3.3888E-2,-4.699507E-2,4.8605155E-2,-1.9743523E-2,2.2053907E-2,-5.2824657E-2,5.35213E-2,-9.686891E-3],"split_indices":[11,16,5,9,5,0,0,11,16,5,12,0,0,0,0,7,7,12,4,0,0,0,0,0,0,0,0],"split_type":[0,0,0,0,0,0,0,0,0,0,0,0,0,0,0,0,0,0,0,0,0,0,0,0,0,0,0],"sum_hessian":[6.281976E1,5.552112E1,7.2986407E0,1.0039726E1,4.548139E1,1.2240447E0,6.074596E0,2.465948E0,7.573778E0,2.605486E1,1.9426533E1,1.2215116E0,1.2444365E0,6.09601E0,1.4777681E0,1.0090269E1,1.596459E1,1.6707865E1,2.7186675E0,3.9409595E0,6.1493096E0,1.2508398E1,3.4561918E0,1.7283732E0,1.4979491E1,1.4780916E0,1.2405758E0],"tree_param":{"num_deleted":"0","num_feature":"22","num_nodes":"27","size_leaf_vector":"1"}},{"base_weights":[7.898752E-2,2.7620453E-1,-1.2638077E0,1.1352743E0,9.7137645E-2,-2.2318998E-2,-7.049849E-2,1.3779294E0,-1.3536704E-2,7.9634184E-1,-2.001498E-1,2.2703093E-2,7.352831E-2,-2.1267673E-2,1.0574961E0,2.8624764E-1,-7.7060086E-1,7.2380155E-2,6.8149692E-3,-3.256699E-2,3.9533526E-2,-5.405248E-2,5.637585E-2],"categories":[],"categories_nodes":[],"categories_segments":[],"categories_sizes":[],"default_left":[0,0,0,0,0,0,0,0,0,0,0,0,0,0,0,0,0,0,0,0,0,0,0],"id":7,"left_children":[1,3,5,7,9,-1,-1,11,-1,13,15,-1,-1,-1,17,19,21,-1,-1,-1,-1,-1,-1],"loss_changes":[1.697089E1,8.434832E0,3.523941E-1,3.6101103E0,9.941652E0,0E0,0E0,3.8827896E-2,0E0,4.993314E0,9.604501E0,0E0,0E0,0E0,4.1220884E0,9.493336E0,1.0550547E1,0E0,0E0,0E0,0E0,0E0,0E0],"parents":[2147483647,0,0,1,1,2,2,3,3,4,4,7,7,9,9,10,10,14,14,15,15,16,16],"right_children":[2,4,6,8,10,-1,-1,12,-1,14,16,-1,-1,-1,18,20,22,-1,-1,-1,-1,-1,-1],"split_conditions":[1.0175553E7,2.1356964E5,1.0219538E7,1.0236839E7,8.2177665E6,-2.2318998E-2,-7.049849E-2,2.2499804E12,-1.3536704E-2,2.3917122E5,2.7592472E5,2.2703093E-2,7.352831E-2,-2.1267673E-2,1.0920319E-2,2.3263686E5,4.16791E5,7.2380155E-2,6.8149692E-3,-3.256699E-2,3.9533526E-2,-5.405248E-2,5.637585E-2],"split_indices":[11,16,11,3,1,0,0,4,0,16,16,0,0,0,5,16,16,0,0,0,0,0,0],"split_type":[0,0,0,0,0,0,0,0,0,0,0,0,0,0,0,0,0,0,0,0,0,0,0],"sum_hessian":[6.1766003E1,5.454871E1,7.217291E0,8.487959E0,4.6060753E1,1.709687E0,5.507604E0,7.255707E0,1.2322519E0,1.3240683E1,3.282007E1,1.1990538E0,6.0566535E0,2.2211704E0,1.1019512E1,1.7984077E1,1.4835991E1,7.3398185E0,3.6796935E0,6.1890426E0,1.1795036E1,1.3120514E1,1.7154769E0],"tree_param":{"num_deleted":"0","num_feature":"22","num_nodes":"23","size_leaf_vector":"1"}},{"base_weights":[1.8709997E-2,1.221252E0,-1.3251296E-1,7.14667E-2,5.2654278E-3,6.1850585E-2,-2.2037806E-1,1.4062493E-1,-7.430716E-1,4.3018013E-1,-9.7239405E-1,-1.0025835E0,2.7139997E-1,-5.302629E-2,3.448233E-2,-5.3036055E-3,-6.643206E-2,-5.8429367E-3,-5.99073E-2,5.900085E-2,-2.891686E-2],"categories":[],"categories_nodes":[],"categories_segments":[],"categories_sizes":[],"default_left":[0,0,0,0,0,0,0,0,0,0,0,0,0,0,0,0,0,0,0,0,0],"id":8,"left_children":[1,3,5,-1,-1,-1,7,9,11,13,15,17,19,-1,-1,-1,-1,-1,-1,-1,-1],"loss_changes":[1.1874817E1,1.5429173E0,7.2659903E0,0E0,0E0,0E0,1.0569773E1,1.1261631E1,6.278818E0,1.1326647E1,2.0974302E0,3.0439148E0,4.878439E0,0E0,0E0,0E0,0E0,0E0,0E0,0E0,0E0],"parents":[2147483647,0,0,1,1,2,2,6,6,7,7,8,8,9,9,10,10,11,11,12,12],"right_children":[2,4,6,-1,-1,-1,8,10,12,14,16,18,20,-1,-1,-1,-1,-1,-1,-1,-1],"split_conditions":[7.5428555E6,1.0345739E-1,2.6128096E1,7.14667E-2,5.2654278E-3,6.1850585E-2,2.7592472E5,1.0132707E7,4.2671634E5,8.2618935E6,2.2676825E5,-2.3509355E-2,3.564747E1,-5.302629E-2,3.448233E-2,-5.3036055E-3,-6.643206E-2,-5.8429367E-3,-5.99073E-2,5.900085E-2,-2.891686E-2],"split_indices":[13,8,17,0,0,0,16,2,16,2,16,5,17,0,0,0,0,0,0,0,0],"split_type":[0,0,0,0,0,0,0,0,0,0,0,0,0,0,0,0,0,0,0,0,0],"sum_hessian":[6.3409462E1,6.292774E0,5.7116688E1,5.067116E0,1.2256587E0,2.655032E0,5.4461655E1,3.2645622E1,2.181603E1,2.6392927E1,6.252697E0,1.7381413E1,4.434619E0,3.4550998E0,2.2937828E1,2.200141E0,4.052556E0,3.4325511E0,1.394886E1,1.9552263E0,2.4793925E0],"tree_param":{"num_deleted":"0","num_feature":"22","num_nodes":"21","size_leaf_vector":"1"}},{"base_weights":[-1.2798646E-2,1.4106378E-1,-6.1728504E-2,9.8210835E-1,-2.6056262E-2,1.2008331E0,-1.2810269E-2,2.7079335E-1,-6.02102E-1,2.1651465E-2,6.842315E-2,5.0386435E-1,-8.740669E-1,-1.1681176E0,3.0544E-1,4.311948E-2,7.1641605E-4,6.286183E-3,-5.8312353E-2,-6.811523E-2,8.454514E-4,6.481558E-2,-2.0140544E-2],"categories":[],"categories_nodes":[],"categories_segments":[],"categories_sizes":[],"default_left":[0,0,0,0,0,0,0,0,0,0,0,0,0,0,0,0,0,0,0,0,0,0,0],"id":9,"left_children":[1,3,-1,5,7,9,-1,11,13,-1,-1,15,17,19,21,-1,-1,-1,-1,-1,-1,-1,-1],"loss_changes":[1.1895407E1,7.9354353E0,0E0,2.8413153E0,8.357515E0,4.532938E-1,0E0,9.062922E0,8.887523E0,0E0,0E0,4.8111615E0,1.8501072E0,2.424365E0,5.5551777E0,0E0,0E0,0E0,0E0,0E0,0E0,0E0,0E0],"parents":[2147483647,0,0,1,1,3,3,4,4,5,5,7,7,8,8,11,11,12,12,13,13,14,14],"right_children":[2,4,-1,6,8,10,-1,12,14,-1,-1,16,18,20,22,-1,-1,-1,-1,-1,-1,-1,-1],"split_conditions":[1.020589E7,2.1356964E5,-6.1728504E-2,1.0236839E7,5.2937183E1,-6.2730047E-3,-1.2810269E-2,7.121549E-1,6.49162E1,2.1651465E-2,6.842315E-2,3.3806875E5,-5.3057358E-2,9.601649E6,8.864476E6,4.311948E-2,7.1641605E-4,6.286183E-3,-5.8312353E-2,-6.811523E-2,8.454514E-4,6.481558E-2,-2.0140544E-2],"split_indices":[11,16,0,3,17,6,0,18,17,0,0,16,14,0,3,0,0,0,0,0,0,0,0],"split_type":[0,0,0,0,0,0,0,0,0,0,0,0,0,0,0,0,0,0,0,0,0,0,0],"sum_hessian":[6.1352173E1,5.527564E1,6.076535E0,8.354467E0,4.692117E1,7.126053E0,1.2284149E0,3.1314169E1,1.5607001E1,1.9191092E0,5.2069435E0,2.6482702E1,4.831467E0,9.435283E0,6.1717186E0,1.4847257E1,1.1635445E1,1.2214792E0,3.609988E0,7.9783034E0,1.4569789E0,2.2264812E0,3.9452374E0],"tree_param":{"num_deleted":"0","num_feature":"22","num_nodes":"23","size_leaf_vector":"1"}},{"base_weights":[3.103261E-3,1.7617717E-1,-1.0460519E0,6.7530847E-1,-1.2261691E-1,-8.9855416E-4,-1.1982306E0,9.4435644E-1,-4.0048844E-1,6.2416013E-2,-2.9163674E-1,-7.2188783E-3,-6.807756E-2,2.8369462E-1,1.2530289E0,-4.5601174E-2,1.21382605E-2,7.958998E-1,-5.5806655E-1,4.379594E-2,-2.6959453E-2,1.1324888E-2,6.758296E-2,-2.2100769E-2,6.076255E-2,-4.609748E-2,3.4527905E-2],"categories":[],"categories_nodes":[],"categories_segments":[],"categories_sizes":[],"default_left":[0,0,0,0,0,0,0,0,0,0,0,0,0,0,0,0,0,0,0,0,0,0,0,0,0,0,0],"id":10,"left_children":[1,3,5,7,9,-1,11,13,15,-1,17,-1,-1,19,21,-1,-1,23,25,-1,-1,-1,-1,-1,-1,-1,-1],"loss_changes":[1.1744627E1,8.360734E0,1.4114733E0,6.4386415E0,8.605473E0,0E0,1.1740141E0,3.120944E0,1.830814E0,0E0,9.853542E0,0E0,0E0,3.7477236E0,8.405876E-1,0E0,0E0,4.0683737E0,1.2754984E1,0E0,0E0,0E0,0E0,0E0,0E0,0E0,0E0],"parents":[2147483647,0,0,1,1,2,2,3,3,4,4,6,6,7,7,8,8,10,10,13,13,14,14,17,17,18,18],"right_children":[2,4,6,8,10,-1,12,14,16,-1,18,-1,-1,20,22,-1,-1,24,26,-1,-1,-1,-1,-1,-1,-1,-1],"split_conditions":[1.0175553E7,1.6780185E-2,-2.1300744E-2,4.4409603E-2,2.7702929E1,-8.9855416E-4,9.566415E6,-7.5975936E-3,5.880242E-2,6.2416013E-2,7.2732295E6,-7.2188783E-3,-6.807756E-2,4.3202488E1,-1.7210463E-2,-4.5601174E-2,1.21382605E-2,2.4181008E-2,3.9748397E-2,4.379594E-2,-2.6959453E-2,1.1324888E-2,6.758296E-2,-2.2100769E-2,6.076255E-2,-4.609748E-2,3.4527905E-2],"split_indices":[11,9,5,8,17,0,13,15,8,0,3,0,0,17,5,0,0,9,14,0,0,0,0,0,0,0,0],"split_type":[0,0,0,0,0,0,0,0,0,0,0,0,0,0,0,0,0,0,0,0,0,0,0,0,0,0,0],"sum_hessian":[6.2664764E1,5.4505363E1,8.159402E0,1.9938414E1,3.456695E1,1.1962092E0,6.963193E0,1.6047295E1,3.891118E0,3.0930731E0,3.1473877E1,1.1871194E0,5.7760735E0,5.7211685E0,1.0326127E1,1.9347314E0,1.9563866E0,5.802293E0,2.5671585E1,3.2893755E0,2.431793E0,1.1941367E0,9.13199E0,1.4545242E0,4.347769E0,2.008105E1,5.5905337E0],"tree_param":{"num_deleted":"0","num_feature":"22","num_nodes":"27","size_leaf_vector":"1"}},{"base_weights":[6.212323E-2,2.0859182E-1,-1.0775039E0,5.8590347E-1,-6.790776E-2,-2.3061848E-4,-6.4118505E-2,9.182559E-1,-5.5468905E-1,7.0743227E-1,-3.438833E-1,1.5680666E-1,6.919527E-2,-5.0209012E-2,1.5064356E-2,-2.3135656E-2,1.0352504E0,-6.590092E-1,5.440536E-1,3.5816215E-2,-2.9565474E-2,2.6207367E-2,-2.2529786E-2,1.7943587E-2,6.6730075E-2,2.9540448E-2,-4.713769E-2,4.1119E-2,-2.4109893E-2],"categories":[],"categories_nodes":[],"categories_segments":[],"categories_sizes":[],"default_left":[0,0,0,0,0,0,0,0,0,0,0,0,0,0,0,0,0,0,0,0,0,0,0,0,0,0,0,0,0],"id":11,"left_children":[1,3,5,7,9,-1,-1,11,13,15,17,19,-1,-1,21,-1,23,25,27,-1,-1,-1,-1,-1,-1,-1,-1,-1,-1],"loss_changes":[1.0792168E1,5.9797463E0,1.6144762E0,9.676393E0,7.465739E0,0E0,0E0,6.556158E0,1.5721831E0,4.0033536E0,7.512252E0,3.9299097E0,0E0,0E0,1.1053528E0,0E0,1.0367517E0,7.4090137E0,2.4658127E0,0E0,0E0,0E0,0E0,0E0,0E0,0E0,0E0,0E0,0E0],"parents":[2147483647,0,0,1,1,2,2,3,3,4,4,7,7,8,8,9,9,10,10,11,11,14,14,16,16,17,17,18,18],"right_children":[2,4,6,8,10,-1,-1,12,14,16,18,20,-1,-1,22,-1,24,26,28,-1,-1,-1,-1,-1,-1,-1,-1,-1,-1],"split_conditions":[1.020589E7,1.8000532E-2,9.839119E6,4.4409603E-2,3.5663864E1,-2.3061848E-4,-6.4118505E-2,-7.5975936E-3,5.880242E-2,6.217677E-2,5.6040864E-2,-2.4408313E-2,6.919527E-2,-5.0209012E-2,3.6721653E-1,-2.3135656E-2,2.3099793E-2,-1.8620575E-2,2.6545217E-2,3.5816215E-2,-2.9565474E-2,2.6207367E-2,-2.2529786E-2,1.7943587E-2,6.6730075E-2,2.9540448E-2,-4.713769E-2,4.1119E-2,-2.4109893E-2],"split_indices":[11,9,3,8,17,0,0,15,8,19,8,15,0,0,21,0,10,5,5,0,0,0,0,0,0,0,0,0,0],"split_type":[0,0,0,0,0,0,0,0,0,0,0,0,0,0,0,0,0,0,0,0,0,0,0,0,0,0,0,0,0],"sum_hessian":[6.230838E1,5.593624E1,6.3721423E0,2.3182444E1,3.2753796E1,1.1856043E0,5.186538E0,1.810255E1,5.079894E0,8.187636E0,2.4566158E1,7.376668E0,1.0725882E1,2.413415E0,2.6664793E0,1.7017506E0,6.4858856E0,1.8321676E1,6.244483E0,4.244611E0,3.1320572E0,1.2138437E0,1.4526356E0,2.6644464E0,3.8214393E0,3.1897035E0,1.5131972E1,5.068522E0,1.1759611E0],"tree_param":{"num_deleted":"0","num_feature":"22","num_nodes":"29","size_leaf_vector":"1"}},{"base_weights":[-1.7979749E-2,1.01952195E-1,-1.0287473E0,3.842165E-1,-2.6689893E-1,-2.033914E-4,-6.2130462E-2,-3.4644833E-1,6.202802E-1,9.2852545E-1,-5.4003346E-1,2.931133E-2,-7.3841375E-1,9.551024E-1,3.0744666E-1,5.8969665E-2,1.965286E-3,6.230852E-1,-7.52194E-1,-5.9098005E-2,7.51857E-4,5.7321765E-2,-6.3238703E-3,2.9181004E-2,-2.6684938E-2,-1.0149366E-3,5.0409522E-2,1.9038044E-2,-4.439325E-2],"categories":[],"categories_nodes":[],"categories_segments":[],"categories_sizes":[],"default_left":[0,0,0,0,0,0,0,0,0,0,0,0,0,0,0,0,0,0,0,0,0,0,0,0,0,0,0,0,0],"id":12,"left_children":[1,3,5,7,9,-1,-1,11,13,15,17,-1,19,21,23,-1,-1,25,27,-1,-1,-1,-1,-1,-1,-1,-1,-1,-1],"loss_changes":[7.8394685E0,6.135571E0,1.4977694E0,5.947581E0,8.896198E0,0E0,0E0,3.6344132E0,2.375083E0,1.1023922E0,5.7892156E0,0E0,2.2263327E0,2.5935535E0,3.7138987E0,0E0,0E0,9.800992E-1,3.2105494E0,0E0,0E0,0E0,0E0,0E0,0E0,0E0,0E0,0E0,0E0],"parents":[2147483647,0,0,1,1,2,2,3,3,4,4,7,7,8,8,9,9,10,10,12,12,13,13,14,14,17,17,18,18],"right_children":[2,4,6,8,10,-1,-1,12,14,16,18,-1,20,22,24,-1,-1,26,28,-1,-1,-1,-1,-1,-1,-1,-1,-1,-1],"split_conditions":[1.020589E7,3.1316257E-3,-2.1300744E-2,7.331216E-2,2.1356964E5,-2.033914E-4,-6.2130462E-2,8.213518E6,1.6780185E-2,7.658691E1,3.5125435E1,2.931133E-2,9.45324E6,4.4409603E-2,9.227523E6,5.8969665E-2,1.965286E-3,-1.14226334E-1,7.206364E6,-5.9098005E-2,7.51857E-4,5.7321765E-2,-6.3238703E-3,2.9181004E-2,-2.6684938E-2,-1.0149366E-3,5.0409522E-2,1.9038044E-2,-4.439325E-2],"split_indices":[11,5,5,19,16,0,0,0,9,17,17,0,1,8,1,0,0,15,12,0,0,0,0,0,0,0,0,0,0],"split_type":[0,0,0,0,0,0,0,0,0,0,0,0,0,0,0,0,0,0,0,0,0,0,0,0,0,0,0,0,0],"sum_hessian":[6.2804432E1,5.6946606E1,5.857827E0,3.223615E1,2.4710455E1,1.1874422E0,4.670385E0,7.7575035E0,2.4478645E1,4.1495695E0,2.0560884E1,2.1488185E0,5.608685E0,1.0832101E1,1.3646545E1,2.9819684E0,1.167601E0,2.873078E0,1.7687807E1,3.1724043E0,2.4362807E0,9.152966E0,1.6791357E0,1.0503944E1,3.1426013E0,1.4304904E0,1.4425877E0,1.698398E0,1.5989409E1],"tree_param":{"num_deleted":"0","num_feature":"22","num_nodes":"29","size_leaf_vector":"1"}},{"base_weights":[-6.420018E-2,3.7315595E-1,-3.307186E-1,7.0956814E-1,-7.9659903E-1,6.827901E-1,-5.337421E-1,-1.3043576E-1,1.0024109E0,1.52994E-3,-6.0720872E-2,-2.4964247E-2,5.905491E-2,4.6088014E-2,-6.30288E-1,-4.718147E-2,4.1400217E-2,-2.057246E-2,1.2029772E0,-7.840148E-1,4.8101306E-1,3.322197E-2,6.989119E-2,-5.1304836E-2,-1.3492063E-2,-7.1321027E-3,5.101149E-2],"categories":[],"categories_nodes":[],"categories_segments":[],"categories_sizes":[],"default_left":[0,0,0,0,0,0,0,0,0,0,0,0,0,0,0,0,0,0,0,0,0,0,0,0,0,0,0],"id":13,"left_children":[1,3,5,7,9,11,13,15,17,-1,-1,-1,-1,-1,19,-1,-1,-1,21,23,25,-1,-1,-1,-1,-1,-1],"loss_changes":[7.082313E0,9.645773E0,8.1064625E0,4.669263E0,1.981297E0,4.5468197E0,5.0647E0,5.188223E0,4.4070845E0,0E0,0E0,0E0,0E0,0E0,5.5904703E0,0E0,0E0,0E0,3.65757E-1,3.1073112E0,1.6010199E0,0E0,0E0,0E0,0E0,0E0,0E0],"parents":[2147483647,0,0,1,1,2,2,3,3,4,4,5,5,6,6,7,7,8,8,14,14,18,18,19,19,20,20],"right_children":[2,4,6,8,10,12,14,16,18,-1,-1,-1,-1,-1,20,-1,-1,-1,22,24,26,-1,-1,-1,-1,-1,-1],"split_conditions":[1.6808761E-2,1.0187904E7,7.3076695E6,1.7429371E-1,2.6460785E-1,2.4181008E-2,2.5710142E1,2.3373302E-2,-1.54942665E-2,1.52994E-3,-6.0720872E-2,-2.4964247E-2,5.905491E-2,4.6088014E-2,6.9633644E1,-4.718147E-2,4.1400217E-2,-2.057246E-2,-9.221792E-3,3.8904423E-1,5.014709E-1,3.322197E-2,6.989119E-2,-5.1304836E-2,-1.3492063E-2,-7.1321027E-3,5.101149E-2],"split_indices":[9,3,3,20,18,9,17,15,5,0,0,0,0,0,17,0,0,0,15,21,20,0,0,0,0,0,0],"split_type":[0,0,0,0,0,0,0,0,0,0,0,0,0,0,0,0,0,0,0,0,0,0,0,0,0,0,0],"sum_hessian":[5.870055E1,2.2075157E1,3.6625393E1,1.7450062E1,4.625094E0,5.7179317E0,3.0907461E1,4.654232E0,1.2795831E1,1.8631638E0,2.76193E0,1.695039E0,4.0228925E0,1.3909197E0,2.9516542E1,2.5262632E0,2.1279688E0,1.4590505E0,1.1336781E1,2.6188395E1,3.3281472E0,4.1836457E0,7.1531343E0,1.7128416E1,9.0599785E0,1.8842726E0,1.4438747E0],"tree_param":{"num_deleted":"0","num_feature":"22","num_nodes":"27","size_leaf_vector":"1"}},{"base_weights":[3.152516E-2,9.5417994E-1,-8.660497E-2,1.1265935E0,2.5495356E-3,2.9033536E-1,-3.7834847E-1,1.5068762E-2,6.2488765E-2,8.2901025E-1,-2.2839652E-1,-5.827433E-2,-1.2438753E0,1.0301379E0,-1.0448376E-2,-9.344404E-1,3.22257E-1,-5.9023496E-2,1.03970535E-1,-1.7779952E-2,-6.646522E-2,1.8755028E-2,6.5711364E-2,-1.1835371E-2,-6.2063225E-2,5.137495E-2,-2.8282074E-2,1.5634349E-2,-5.347407E-2],"categories":[],"categories_nodes":[],"categories_segments":[],"categories_sizes":[],"default_left":[0,0,0,0,0,0,0,0,0,0,0,0,0,0,0,0,0,0,0,0,0,0,0,0,0,0,0,0,0],"id":14,"left_children":[1,3,5,7,-1,9,11,-1,-1,13,15,17,19,21,-1,23,25,-1,27,-1,-1,-1,-1,-1,-1,-1,-1,-1,-1],"loss_changes":[6.8836927E0,1.0583868E0,6.293816E0,2.301631E-1,0E0,7.2030153E0,8.829453E0,0E0,0E0,2.8309708E0,5.577246E0,4.5848074E0,1.8186378E-1,1.4915371E0,0E0,1.0340867E0,5.8210726E0,0E0,5.8036385E0,0E0,0E0,0E0,0E0,0E0,0E0,0E0,0E0,0E0,0E0],"parents":[2147483647,0,0,1,1,2,2,3,3,5,5,6,6,9,9,10,10,11,11,12,12,13,13,15,15,16,16,18,18],"right_children":[2,4,6,8,-1,10,12,-1,-1,14,16,18,20,22,-1,24,26,-1,28,-1,-1,-1,-1,-1,-1,-1,-1,-1,-1],"split_conditions":[7.4772245E6,4.1172452E-2,4.603425E1,2.0209136E5,2.5495356E-3,3.3806875E5,2.7126916E5,1.5068762E-2,6.2488765E-2,1.0157435E7,2.323673E-2,8.3821585E6,-4.095256E-2,8.407167E6,-1.0448376E-2,8.811282E6,3.6771965E1,-5.9023496E-2,1.0165667E7,-1.7779952E-2,-6.646522E-2,1.8755028E-2,6.5711364E-2,-1.1835371E-2,-6.2063225E-2,5.137495E-2,-2.8282074E-2,1.5634349E-2,-5.347407E-2],"split_indices":[13,9,17,16,0,16,16,0,0,12,10,2,6,1,0,12,17,0,12,0,0,0,0,0,0,0,0,0,0],"split_type":[0,0,0,0,0,0,0,0,0,0,0,0,0,0,0,0,0,0,0,0,0,0,0,0,0,0,0,0,0],"sum_hessian":[6.139883E1,6.165541E0,5.5233288E1,4.969536E0,1.1960053E0,2.4100122E1,3.1133167E1,1.0931187E0,3.876417E0,1.152936E1,1.2570762E1,2.3507397E1,7.625771E0,9.664277E0,1.865082E0,5.2028017E0,7.3679605E0,2.1766129E0,2.1330784E1,1.1219937E0,6.5037775E0,3.6253974E0,6.03888E0,2.1301692E0,3.0726328E0,4.018729E0,3.3492312E0,1.873246E1,2.598323E0],"tree_param":{"num_deleted":"0","num_feature":"22","num_nodes":"29","size_leaf_vector":"1"}},{"base_weights":[2.0078233E-2,1.5951219E-1,-1.1142709E0,7.673953E-1,-2.5237123E-2,-6.0143024E-2,-1.6777234E-2,-2.3708407E-2,9.669528E-1,5.523662E-1,-2.2240567E-1,-6.0074363E-2,6.5865256E-2,9.7070706E-1,-2.8552878E-1,7.698614E-1,-3.8803673E-1,2.8902888E-2,-3.354435E-2,-9.616313E-3,6.6656224E-2,2.6185239E-2,-3.660537E-2,5.4532673E-2,-1.6390554E-3,-2.7280573E-2,1.9356659E-2],"categories":[],"categories_nodes":[],"categories_segments":[],"categories_sizes":[],"default_left":[0,0,0,0,0,0,0,0,0,0,0,0,0,0,0,0,0,0,0,0,0,0,0,0,0,0,0],"id":15,"left_children":[1,3,5,7,9,-1,-1,-1,11,13,15,17,-1,19,21,23,25,-1,-1,-1,-1,-1,-1,-1,-1,-1,-1],"loss_changes":[9.806291E0,6.205961E0,6.473827E-2,3.6476288E0,5.0444293E0,0E0,0E0,0E0,4.1876917E0,4.2327557E0,5.7108755E0,1.8926575E0,0E0,3.5247688E0,2.0207262E0,1.3349149E0,3.73943E0,0E0,0E0,0E0,0E0,0E0,0E0,0E0,0E0,0E0,0E0],"parents":[2147483647,0,0,1,1,2,2,3,3,4,4,8,8,9,9,10,10,11,11,13,13,14,14,15,15,16,16],"right_children":[2,4,6,8,10,-1,-1,-1,12,14,16,18,-1,20,22,24,26,-1,-1,-1,-1,-1,-1,-1,-1,-1,-1],"split_conditions":[1.0204124E7,1.6697716E-2,2.4761833E-2,1.141876E-2,7.3589705E6,-6.0143024E-2,-1.6777234E-2,-2.3708407E-2,1.419966E-1,1.0027119E-2,1.399944E-2,2.1737647E5,6.5865256E-2,2.4563775E5,7.0523415E6,7.5489836E-4,3.9748397E-2,2.8902888E-2,-3.354435E-2,-9.616313E-3,6.6656224E-2,2.6185239E-2,-3.660537E-2,5.4532673E-2,-1.6390554E-3,-2.7280573E-2,1.9356659E-2],"split_indices":[11,10,10,10,2,0,0,0,20,5,9,16,0,16,0,5,14,0,0,0,0,0,0,0,0,0,0],"split_type":[0,0,0,0,0,0,0,0,0,0,0,0,0,0,0,0,0,0,0,0,0,0,0,0,0,0,0],"sum_hessian":[5.987593E1,5.4086952E1,5.788977E0,1.1871684E1,4.221527E1,4.708659E0,1.0803179E0,1.4533635E0,1.0418321E1,1.0284739E1,3.193053E1,2.860766E0,7.5575547E0,6.7540812E0,3.5306575E0,4.0456557E0,2.7884874E1,1.4253206E0,1.4354453E0,1.716141E0,5.03794E0,1.1941197E0,2.3365378E0,2.6340694E0,1.4115864E0,2.342021E1,4.464666E0],"tree_param":{"num_deleted":"0","num_feature":"22","num_nodes":"27","size_leaf_vector":"1"}},{"base_weights":[-2.536881E-3,6.7045665E-1,-1.5178372E-1,-4.6772996E-1,1.0195088E0,-8.291249E-4,-9.9450934E-1,-4.597264E-2,9.8872E-3,3.706879E-1,5.916947E-2,-2.7878386E-1,5.3543115E-1,3.356704E-4,-6.1972048E-2,4.14751E-2,-1.2884027E-2,5.6672066E-1,-4.1933215E-1,5.8618695E-2,1.6281584E-1,-6.8093124E-3,5.3878285E-2,-4.921516E-2,2.2803526E-3,-1.955736E-2,2.7565567E-2],"categories":[],"categories_nodes":[],"categories_segments":[],"categories_sizes":[],"default_left":[0,0,0,0,0,0,0,0,0,0,0,0,0,0,0,0,0,0,0,0,0,0,0,0,0,0,0],"id":16,"left_children":[1,3,5,7,9,11,13,-1,-1,15,-1,17,19,-1,-1,-1,-1,21,23,-1,25,-1,-1,-1,-1,-1,-1],"loss_changes":[6.350169E0,5.0362344E0,6.5802617E0,1.1975679E0,5.286436E-1,6.8380966E0,1.9353757E0,0E0,0E0,1.1624372E0,0E0,3.827983E0,3.5261507E0,0E0,0E0,0E0,0E0,1.845796E0,7.0009217E0,0E0,2.5920916E0,0E0,0E0,0E0,0E0,0E0,0E0],"parents":[2147483647,0,0,1,1,2,2,3,3,4,4,5,5,6,6,9,9,11,11,12,12,17,17,18,18,20,20],"right_children":[2,4,6,8,10,12,14,-1,-1,16,-1,18,20,-1,-1,-1,-1,22,24,-1,26,-1,-1,-1,-1,-1,-1],"split_conditions":[3.5663864E1,6.217677E-2,1.0173594E7,-6.0034126E-2,-8.4828E-2,4.1802052E-2,-3.7222803E-2,-4.597264E-2,9.8872E-3,-1.15806416E-1,5.916947E-2,7.3621535E6,2.4030074E-1,3.356704E-4,-6.1972048E-2,4.14751E-2,-1.2884027E-2,7.179782E6,8.892643E6,5.8618695E-2,4.203896E12,-6.8093124E-3,5.3878285E-2,-4.921516E-2,2.2803526E-3,-1.955736E-2,2.7565567E-2],"split_indices":[17,19,12,8,14,15,6,0,0,8,0,1,18,0,0,0,0,0,13,0,4,0,0,0,0,0,0],"split_type":[0,0,0,0,0,0,0,0,0,0,0,0,0,0,0,0,0,0,0,0,0,0,0,0,0,0,0],"sum_hessian":[6.120899E1,1.0476301E1,5.0732685E1,2.3789709E0,8.09733E0,4.387457E1,6.858119E0,1.1897316E0,1.1892393E0,2.2905874E0,5.8067427E0,2.9213001E1,1.4661567E1,1.5391253E0,5.3189936E0,1.1389065E0,1.1516811E0,3.731712E0,2.5481289E1,4.6192145E0,1.0042352E1,1.8792844E0,1.8524277E0,1.0998907E1,1.4482383E1,4.136794E0,5.905558E0],"tree_param":{"num_deleted":"0","num_feature":"22","num_nodes":"27","size_leaf_vector":"1"}},{"base_weights":[-1.3427454E-2,1.0103029E-1,-9.40901E-1,5.87029E-1,-8.4755756E-2,2.5768832E-3,-5.7550486E-2,7.706874E-1,-2.8851284E-2,2.1477108E-1,-6.605821E-1,6.64145E-2,3.710736E-1,-5.3910434E-1,5.069275E-1,5.3052265E-2,-1.0396473E0,-5.0952304E-2,3.9956678E-2,3.150898E-2,-5.0057013E-2,6.5015405E-2,1.32789435E-2,1.6200334E-2,-6.0988404E-2],"categories":[],"categories_nodes":[],"categories_segments":[],"categories_sizes":[],"default_left":[0,0,0,0,0,0,0,0,0,0,0,0,0,0,0,0,0,0,0,0,0,0,0,0,0],"id":17,"left_children":[1,3,5,7,9,-1,-1,11,-1,13,15,-1,17,19,21,-1,23,-1,-1,-1,-1,-1,-1,-1,-1],"loss_changes":[6.5753026E0,5.037603E0,1.4778328E0,3.7378001E0,7.1854157E0,0E0,0E0,2.5670748E0,0E0,6.356299E0,1.0382697E1,0E0,6.400263E0,5.0601587E0,3.5647545E0,0E0,3.381606E0,0E0,0E0,0E0,0E0,0E0,0E0,0E0,0E0],"parents":[2147483647,0,0,1,1,2,2,3,3,4,4,7,7,9,9,10,10,12,12,13,13,14,14,16,16],"right_children":[2,4,6,8,10,-1,-1,12,-1,14,16,-1,18,20,22,-1,24,-1,-1,-1,-1,-1,-1,-1,-1],"split_conditions":[1.020589E7,-2.9228458E-2,9.839119E6,4.703284E-2,2.7126916E5,2.5768832E-3,-5.7550486E-2,7.871122E6,-2.8851284E-2,8.422318E6,7.2732295E6,6.64145E-2,8.545605E6,2.1356964E5,9.062011E6,5.3052265E-2,-9.216234E-2,-5.0952304E-2,3.9956678E-2,3.150898E-2,-5.0057013E-2,6.5015405E-2,1.32789435E-2,1.6200334E-2,-6.0988404E-2],"split_indices":[11,14,3,9,16,0,0,3,0,11,3,0,1,16,0,0,15,0,0,0,0,0,0,0,0],"split_type":[0,0,0,0,0,0,0,0,0,0,0,0,0,0,0,0,0,0,0,0,0,0,0,0,0],"sum_hessian":[6.0044216E1,5.424145E1,5.802765E0,1.4403516E1,3.9837936E1,1.1457199E0,4.657045E0,1.2732567E1,1.6709489E0,2.6618729E1,1.3219208E1,4.3453436E0,8.387224E0,7.1985226E0,1.9420206E1,2.0607307E0,1.1158477E1,1.6495886E0,6.737635E0,1.9357531E0,5.2627697E0,3.5063086E0,1.59138975E1,1.2087166E0,9.94976E0],"tree_param":{"num_deleted":"0","num_feature":"22","num_nodes":"25","size_leaf_vector":"1"}},{"base_weights":[-2.7434086E-2,6.865629E-2,-9.6678126E-1,3.4841973E-1,-2.6942623E-1,-5.3710323E-2,-1.308223E-2,6.88327E-1,-1.6485794E-1,5.729847E-2,-5.2420115E-1,9.556011E-1,-3.7342927E-1,-7.152805E-1,6.825299E-1,2.896935E-1,-9.9791825E-1,5.9067475E-4,5.8366627E-2,1.3637694E-2,-4.306426E-2,2.1829107E-3,-6.574067E-2,2.8780277E-3,5.6735106E-2,-1.717663E-2,6.40861E-2,-8.104819E-3,-6.1856765E-2],"categories":[],"categories_nodes":[],"categories_segments":[],"categories_sizes":[],"default_left":[0,0,0,0,0,0,0,0,0,0,0,0,0,0,0,0,0,0,0,0,0,0,0,0,0,0,0,0,0],"id":18,"left_children":[1,3,5,7,9,-1,-1,11,13,-1,15,17,19,21,23,25,27,-1,-1,-1,-1,-1,-1,-1,-1,-1,-1,-1,-1],"loss_changes":[5.295271E0,5.15291E0,1.3119173E-1,5.2958946E0,9.537799E0,0E0,0E0,5.4828796E0,6.384196E0,0E0,8.651405E0,2.9260511E0,1.6067526E0,3.766418E0,1.4859531E0,5.9396834E0,2.5855722E0,0E0,0E0,0E0,0E0,0E0,0E0,0E0,0E0,0E0,0E0,0E0,0E0],"parents":[2147483647,0,0,1,1,2,2,3,3,4,4,7,7,8,8,10,10,11,11,12,12,13,13,14,14,15,15,16,16],"right_children":[2,4,6,8,10,-1,-1,12,14,-1,16,18,20,22,24,26,28,-1,-1,-1,-1,-1,-1,-1,-1,-1,-1,-1,-1],"split_conditions":[1.0219538E7,2.7027928E5,6.710699E-1,1.7840233E-2,7.2157495E6,-5.3710323E-2,-1.308223E-2,4.4409603E-2,3.7818767E-2,5.729847E-2,-4.1705485E-2,8.405424E6,1.019791E7,1.8438289E-3,3.578947E-1,-7.632248E-2,2.463454E-1,5.9067475E-4,5.8366627E-2,1.3637694E-2,-4.306426E-2,2.1829107E-3,-6.574067E-2,2.8780277E-3,5.6735106E-2,-1.717663E-2,6.40861E-2,-8.104819E-3,-6.1856765E-2],"split_indices":[11,16,18,9,3,0,0,8,14,0,14,11,3,8,20,15,18,0,0,0,0,0,0,0,0,0,0,0,0],"split_type":[0,0,0,0,0,0,0,0,0,0,0,0,0,0,0,0,0,0,0,0,0,0,0,0,0,0,0,0,0],"sum_hessian":[5.693005E1,5.2487736E1,4.442314E0,2.870432E1,2.3783413E1,3.4008102E0,1.0415037E0,1.70634E1,1.1640921E1,3.0944288E0,2.0688986E1,1.3711747E1,3.3516538E0,7.1515293E0,4.489391E0,7.754472E0,1.2934513E1,2.7059288E0,1.1005818E1,1.6315365E0,1.7201173E0,3.5653684E0,3.586161E0,2.3578238E0,2.131567E0,5.132213E0,2.6222587E0,3.2514813E0,9.683032E0],"tree_param":{"num_deleted":"0","num_feature":"22","num_nodes":"29","size_leaf_vector":"1"}},{"base_weights":[6.8413295E-2,2.215594E-1,-8.423163E-1,5.422665E-1,-1.7507231E-1,1.8175075E-2,-1.0866373E0,9.089328E-1,2.170746E-2,6.535048E-1,-6.9718885E-1,-6.1262216E-2,-7.1977377E-3,1.1432396E0,-1.3315666E-1,-4.1446358E-1,8.717592E-1,9.9923265E-1,-2.0412807E-1,2.2498326E-2,-8.7920845E-1,2.5387218E-3,6.231765E-2,2.5734572E-2,-3.536609E-2,-4.4222698E-2,5.1565766E-2,5.735579E-2,2.1215158E-3,6.189055E-2,1.0746993E-2,-3.165346E-2,1.8369144E-2,-5.1160898E-2,2.6375677E-3],"categories":[],"categories_nodes":[],"categories_segments":[],"categories_sizes":[],"default_left":[0,0,0,0,0,0,0,0,0,0,0,0,0,0,0,0,0,0,0,0,0,0,0,0,0,0,0,0,0,0,0,0,0,0,0],"id":19,"left_children":[1,3,5,7,9,-1,11,13,15,17,19,-1,-1,21,23,25,27,29,31,-1,33,-1,-1,-1,-1,-1,-1,-1,-1,-1,-1,-1,-1,-1,-1],"loss_changes":[8.020779E0,6.311983E0,2.838416E0,5.1849813E0,1.0235716E1,0E0,7.5748444E-1,4.052703E0,4.9194083E0,2.9481502E0,3.3923779E0,0E0,0E0,1.4176311E0,1.7879978E0,6.893486E0,9.769287E-1,9.999032E-1,1.0879736E0,0E0,1.7618303E0,0E0,0E0,0E0,0E0,0E0,0E0,0E0,0E0,0E0,0E0,0E0,0E0,0E0,0E0],"parents":[2147483647,0,0,1,1,2,2,3,3,4,4,6,6,7,7,8,8,9,9,10,10,13,13,14,14,15,15,16,16,17,17,18,18,20,20],"right_children":[2,4,6,8,10,-1,12,14,16,18,20,-1,-1,22,24,26,28,30,32,-1,34,-1,-1,-1,-1,-1,-1,-1,-1,-1,-1,-1,-1,-1,-1],"split_conditions":[1.0165027E7,2.7592472E5,-3.0826325E-2,1.7685076E-2,7.648008E6,1.8175075E-2,7.376053E1,4.4409603E-2,3.7818767E-2,1.6998762E-2,-8.028484E-2,-6.1262216E-2,-7.1977377E-3,1.6364334E12,1.0088603E7,5.2060745E12,6.140656E-1,1.0027119E-2,3.6115345E-2,2.2498326E-2,5.401625E-1,2.5387218E-3,6.231765E-2,2.5734572E-2,-3.536609E-2,-4.4222698E-2,5.1565766E-2,5.735579E-2,2.1215158E-3,6.189055E-2,1.0746993E-2,-3.165346E-2,1.8369144E-2,-5.1160898E-2,2.6375677E-3],"split_indices":[11,16,14,9,2,0,17,8,14,7,8,0,0,4,2,4,18,5,5,0,19,0,0,0,0,0,0,0,0,0,0,0,0,0,0],"split_type":[0,0,0,0,0,0,0,0,0,0,0,0,0,0,0,0,0,0,0,0,0,0,0,0,0,0,0,0,0,0,0,0,0,0,0],"sum_hessian":[5.5169006E1,4.787516E1,7.2938485E0,2.6268162E1,2.1606998E1,1.1466895E0,6.1471586E0,1.49745E1,1.1293662E1,8.255005E0,1.3351993E1,5.097855E0,1.0493039E0,1.2146399E1,2.828101E0,7.802525E0,3.4911373E0,5.765656E0,2.489349E0,1.6268566E0,1.1725137E1,1.1762881E0,1.0970111E1,1.377457E0,1.4506439E0,6.1813555E0,1.6211696E0,2.3332558E0,1.1578814E0,3.9774747E0,1.7881815E0,1.3605169E0,1.128832E0,1.0071011E1,1.654126E0],"tree_param":{"num_deleted":"0","num_feature":"22","num_nodes":"35","size_leaf_vector":"1"}},{"base_weights":[1.2183681E-3,1.2149327E-1,-8.4054035E-1,8.542006E-1,8.262635E-3,2.0185488E-3,-9.973731E-1,5.2432884E-2,-2.6319148E-3,-2.3208395E-1,5.578461E-1,-4.3263217E-3,-5.857798E-2,1.01729535E-1,-6.5934384E-1,1.0804441E0,1.6853327E-1,3.8173303E-2,-1.3110945E-2,1.8781146E-2,-4.3514844E-2,6.5713406E-2,2.8499512E-3,4.4273593E-2,-1.7785823E-2],"categories":[],"categories_nodes":[],"categories_segments":[],"categories_sizes":[],"default_left":[0,0,0,0,0,0,0,0,0,0,0,0,0,0,0,0,0,0,0,0,0,0,0,0,0],"id":20,"left_children":[1,3,5,7,9,-1,11,-1,-1,13,15,-1,-1,17,19,21,23,-1,-1,-1,-1,-1,-1,-1,-1],"loss_changes":[5.9183993E0,4.235798E0,1.0499969E0,1.2605767E0,6.113812E0,0E0,8.891268E-1,0E0,0E0,4.663379E0,2.68222E0,0E0,0E0,4.7660003E0,3.442133E0,1.3191733E0,3.7927122E0,0E0,0E0,0E0,0E0,0E0,0E0,0E0,0E0],"parents":[2147483647,0,0,1,1,2,2,3,3,4,4,6,6,9,9,10,10,13,13,14,14,15,15,16,16],"right_children":[2,4,6,8,10,-1,12,-1,-1,14,16,-1,-1,18,20,22,24,-1,-1,-1,-1,-1,-1,-1,-1],"split_conditions":[1.0165027E7,7.499906E6,4.879687E1,1.0122145E-1,9.615424E6,2.0185488E-3,9.529398E6,5.2432884E-2,-2.6319148E-3,2.603809E-3,1.0028607E7,-4.3263217E-3,-5.857798E-2,8.3751525E6,-1.0111123E-1,1.0165667E7,9.72305E6,3.8173303E-2,-1.3110945E-2,1.8781146E-2,-4.3514844E-2,6.5713406E-2,2.8499512E-3,4.4273593E-2,-1.7785823E-2],"split_indices":[11,13,17,8,12,0,13,0,0,5,13,0,0,13,15,12,3,0,0,0,0,0,0,0,0],"split_type":[0,0,0,0,0,0,0,0,0,0,0,0,0,0,0,0,0,0,0,0,0,0,0,0,0],"sum_hessian":[5.6449013E1,5.0140366E1,6.308651E0,5.8354816E0,4.4304882E1,1.0656431E0,5.2430077E0,4.6763296E0,1.1591518E0,3.1226475E1,1.3078407E1,1.0819705E0,4.1610374E0,1.7957994E1,1.3268481E1,4.8255386E0,8.252868E0,5.982603E0,1.1975391E1,2.1143873E0,1.1154094E1,3.696783E0,1.1287558E0,3.1947947E0,5.0580735E0],"tree_param":{"num_deleted":"0","num_feature":"22","num_nodes":"25","size_leaf_vector":"1"}},{"base_weights":[9.95345E-2,2.3880057E-1,-7.0902026E-1,1.1029878E0,9.6198335E-2,1.4907004E-2,-9.901016E-1,1.4701377E-2,5.9725072E-2,3.7986788E-1,-3.8379836E-1,-5.7835527E-2,-1.0714996E-2,7.91168E-1,1.1333264E-1,5.1223814E-1,-8.26186E-1,-1.1016988E-2,5.7291534E-2,3.6027804E-2,-1.4812608E-2,-2.1561662E-2,4.4272106E-2,-5.2174892E-2,1.0278231E-2],"categories":[],"categories_nodes":[],"categories_segments":[],"categories_sizes":[],"default_left":[0,0,0,0,0,0,0,0,0,0,0,0,0,0,0,0,0,0,0,0,0,0,0,0,0],"id":21,"left_children":[1,3,5,7,9,-1,11,-1,-1,13,15,-1,-1,17,19,21,23,-1,-1,-1,-1,-1,-1,-1,-1],"loss_changes":[6.5463166E0,5.9396725E0,2.722167E0,1.5613174E-1,6.028706E0,0E0,6.483655E-1,0E0,0E0,2.9425035E0,6.982172E0,0E0,0E0,4.094202E0,4.677899E0,2.5248919E0,2.7840023E0,0E0,0E0,0E0,0E0,0E0,0E0,0E0,0E0],"parents":[2147483647,0,0,1,1,2,2,3,3,4,4,6,6,9,9,10,10,13,13,14,14,15,15,16,16],"right_children":[2,4,6,8,10,-1,12,-1,-1,14,16,-1,-1,18,20,22,24,-1,-1,-1,-1,-1,-1,-1,-1],"split_conditions":[1.0171574E7,2.1242792E5,1.0084795E7,-1.310214E-2,5.157161E1,1.4907004E-2,9.777704E-1,1.4701377E-2,5.9725072E-2,2.7592472E5,7.781212E6,-5.7835527E-2,-1.0714996E-2,8.405424E6,8.2177665E6,2.2682508E5,7.29449E1,-1.1016988E-2,5.7291534E-2,3.6027804E-2,-1.4812608E-2,-2.1561662E-2,4.4272106E-2,-5.2174892E-2,1.0278231E-2],"split_indices":[0,16,11,8,17,0,21,0,0,16,13,0,0,11,1,16,17,0,0,0,0,0,0,0,0],"split_type":[0,0,0,0,0,0,0,0,0,0,0,0,0,0,0,0,0,0,0,0,0,0,0,0,0],"sum_hessian":[5.563198E1,4.8058933E1,7.573049E0,5.8531857E0,4.2205746E1,1.639121E0,5.933928E0,1.023003E0,4.8301826E0,2.6659222E1,1.5546524E1,4.480682E0,1.453246E0,9.708832E0,1.695039E1,5.086385E0,1.046014E1,2.6187675E0,7.090064E0,6.522027E0,1.0428364E1,1.3976334E0,3.6887512E0,8.630881E0,1.829259E0],"tree_param":{"num_deleted":"0","num_feature":"22","num_nodes":"25","size_leaf_vector":"1"}},{"base_weights":[4.89255E-2,1.6816393E-1,-8.5929686E-1,-1.6993389E-2,5.84992E-1,3.4019188E-3,-5.362032E-2,3.9974242E-1,-4.6395916E-1,8.930204E-1,-2.421014E-1,7.9940134E-1,-4.3693244E-2,1.2316559E-1,-7.781317E-1,1.0184592E0,1.1574656E-3,3.657324E-1,-4.9275212E-2,4.9809687E-2,5.21463E-3,-4.9767617E-2,2.1884361E-2,3.024874E-2,-3.7634697E-2,3.5515193E-2,-4.981004E-2,6.2751785E-2,1.8675968E-2,4.4615887E-2,-1.620127E-2],"categories":[],"categories_nodes":[],"categories_segments":[],"categories_sizes":[],"default_left":[0,0,0,0,0,0,0,0,0,0,0,0,0,0,0,0,0,0,0,0,0,0,0,0,0,0,0,0,0,0,0],"id":22,"left_children":[1,3,5,7,9,-1,-1,11,13,15,17,19,21,23,25,27,-1,29,-1,-1,-1,-1,-1,-1,-1,-1,-1,-1,-1,-1,-1],"loss_changes":[5.884581E0,3.6905355E0,1.3209362E0,6.5171967E0,3.9603696E0,0E0,0E0,3.2477129E0,3.2066152E0,1.1681423E0,2.5179737E0,1.2074909E0,4.806832E0,3.3004217E0,4.317755E0,9.8405075E-1,0E0,1.5081723E0,0E0,0E0,0E0,0E0,0E0,0E0,0E0,0E0,0E0,0E0,0E0,0E0,0E0],"parents":[2147483647,0,0,1,1,2,2,3,3,4,4,7,7,8,8,9,9,10,10,11,11,12,12,13,13,14,14,15,15,17,17],"right_children":[2,4,6,8,10,-1,-1,12,14,16,18,20,22,24,26,28,-1,30,-1,-1,-1,-1,-1,-1,-1,-1,-1,-1,-1,-1,-1],"split_conditions":[1.020589E7,4.1802052E-2,-2.1300744E-2,4.5003048E1,1.1483536E-1,3.4019188E-3,-5.362032E-2,4.306206E-1,1.6651578E-2,1.0273981E7,9.136613E6,2.4295494E-2,5.693305E-1,2.0136936E-2,7.287702E6,1.7906586E-2,1.1574656E-3,7.157463E1,-4.9275212E-2,4.9809687E-2,5.21463E-3,-4.9767617E-2,2.1884361E-2,3.024874E-2,-3.7634697E-2,3.5515193E-2,-4.981004E-2,6.2751785E-2,1.8675968E-2,4.4615887E-2,-1.620127E-2],"split_indices":[11,15,5,17,15,0,0,18,10,3,3,9,18,15,13,9,0,17,0,0,0,0,0,0,0,0,0,0,0,0,0],"split_type":[0,0,0,0,0,0,0,0,0,0,0,0,0,0,0,0,0,0,0,0,0,0,0,0,0,0,0,0,0,0,0],"sum_hessian":[5.2004093E1,4.6689213E1,5.314877E0,3.2992844E1,1.369637E1,1.1203719E0,4.1945047E0,1.712848E1,1.5864364E1,9.921623E0,3.7747474E0,8.586715E0,8.541765E0,5.7418957E0,1.0122468E1,8.521914E0,1.3997092E0,2.356233E0,1.4185145E0,6.354534E0,2.2321808E0,2.5106542E0,6.031111E0,3.903735E0,1.8381609E0,1.0050733E0,9.117394E0,5.542752E0,2.979162E0,1.169629E0,1.186604E0],"tree_param":{"num_deleted":"0","num_feature":"22","num_nodes":"31","size_leaf_vector":"1"}},{"base_weights":[-5.2870955E-2,6.9763196E-1,-1.7962177E-1,1.0165579E0,-9.486684E-3,5.2526277E-2,-2.7555752E-1,1.0734649E-2,5.6574192E-2,5.7732016E-1,-3.8622326E-1,-1.3230792E-2,4.6287835E-2,-3.4975138E-2,-7.9838955E-1,1.4567703E-2,-3.677935E-2,1.0376253E-2,-4.4460304E-2],"categories":[],"categories_nodes":[],"categories_segments":[],"categories_sizes":[],"default_left":[0,0,0,0,0,0,0,0,0,0,0,0,0,0,0,0,0,0,0],"id":23,"left_children":[1,3,5,7,-1,-1,9,-1,-1,11,13,-1,-1,15,17,-1,-1,-1,-1],"loss_changes":[5.420301E0,2.5268621E0,6.003209E0,3.3065557E-1,0E0,0E0,4.5367937E0,0E0,0E0,1.9025102E0,5.915667E0,0E0,0E0,5.521086E0,1.9059553E0,0E0,0E0,0E0,0E0],"parents":[2147483647,0,0,1,1,2,2,3,3,6,6,9,9,10,10,13,13,14,14],"right_children":[2,4,6,8,-1,-1,10,-1,-1,12,14,-1,-1,16,18,-1,-1,-1,-1],"split_conditions":[2.1356964E5,1.0158092E7,2.7140127E1,-3.6501123E-3,-9.486684E-3,5.2526277E-2,7.3076695E6,1.0734649E-2,5.6574192E-2,2.4563775E5,2.7592472E5,-1.3230792E-2,4.6287835E-2,8.384637E-3,-6.246836E-2,1.4567703E-2,-3.677935E-2,1.0376253E-2,-4.4460304E-2],"split_indices":[16,0,17,5,0,0,3,0,0,16,16,0,0,5,6,0,0,0,0],"split_type":[0,0,0,0,0,0,0,0,0,0,0,0,0,0,0,0,0,0,0],"sum_hessian":[5.466242E1,7.24719E0,4.7415226E1,5.2240396E0,2.0231504E0,2.710408E0,4.470482E1,1.0144036E0,4.2096357E0,4.6501665E0,4.0054653E1,1.431576E0,3.2185907E0,2.2211159E1,1.7843494E1,1.555168E1,6.6594787E0,1.3711431E0,1.6472351E1],"tree_param":{"num_deleted":"0","num_feature":"22","num_nodes":"19","size_leaf_vector":"1"}},{"base_weights":[3.7602182E-3,1.0867082E-1,-8.540478E-1,8.151685E-1,1.5643978E-2,2.7856228E-3,-5.30061E-2,6.1215486E-2,4.2570308E-2,3.5020533E-1,-2.1707392E-1,-3.1301685E-2,3.573526E-2,6.332498E-1,-5.743321E-1,3.5403317E-1,-4.9157405E-1,-1.8870598E-3,5.0427463E-2,-5.058536E-2,3.612255E-3,-3.620007E-2,3.0697867E-2,2.0931792E-2,-4.0554095E-2],"categories":[],"categories_nodes":[],"categories_segments":[],"categories_sizes":[],"default_left":[0,0,0,0,0,0,0,0,0,0,0,0,0,0,0,0,0,0,0,0,0,0,0,0,0],"id":24,"left_children":[1,3,5,7,9,-1,-1,-1,11,13,15,-1,-1,17,19,21,23,-1,-1,-1,-1,-1,-1,-1,-1],"loss_changes":[5.266301E0,3.4120936E0,1.254703E0,1.8582692E0,3.7405457E0,0E0,0E0,0E0,1.8533217E0,5.51654E0,4.6224356E0,0E0,0E0,3.9542189E0,1.5265976E0,3.1884522E0,6.0346503E0,0E0,0E0,0E0,0E0,0E0,0E0,0E0,0E0],"parents":[2147483647,0,0,1,1,2,2,3,3,4,4,8,8,9,9,10,10,13,13,14,14,15,15,16,16],"right_children":[2,4,6,8,10,-1,-1,-1,12,14,16,-1,-1,18,20,22,24,-1,-1,-1,-1,-1,-1,-1,-1],"split_conditions":[1.020589E7,-4.8355512E-2,1.0158092E7,2.3427418E-2,1.6780185E-2,2.7856228E-3,-5.30061E-2,6.1215486E-2,2.3784263E-2,4.4409603E-2,8.0580005E6,-3.1301685E-2,3.573526E-2,-7.5975936E-3,3.613826E-1,2.1410743E-2,3.5663864E1,-1.8870598E-3,5.0427463E-2,-5.058536E-2,3.612255E-3,-3.620007E-2,3.0697867E-2,2.0931792E-2,-4.0554095E-2],"split_indices":[11,6,0,9,9,0,0,0,10,8,13,0,0,15,19,9,17,0,0,0,0,0,0,0,0],"split_type":[0,0,0,0,0,0,0,0,0,0,0,0,0,0,0,0,0,0,0,0,0,0,0,0,0],"sum_hessian":[5.648761E1,5.1110115E1,5.3774924E0,5.0435867E0,4.606653E1,1.1278775E0,4.2496147E0,2.9151561E0,2.1284308E0,1.8691004E1,2.7375526E1,1.1014031E0,1.0270277E0,1.4551246E1,4.1397586E0,8.79256E0,1.8582966E1,5.542087E0,9.009158E0,2.1325145E0,2.0072443E0,1.3612689E0,7.431291E0,4.7476544E0,1.3835311E1],"tree_param":{"num_deleted":"0","num_feature":"22","num_nodes":"25","size_leaf_vector":"1"}},{"base_weights":[3.7789177E-2,1.2026565E-1,-8.477535E-1,3.573289E-1,-1.841923E-1,-1.2582766E-2,-4.7212858E-2,6.4419675E-1,-2.797208E-2,8.791288E-1,-4.0806225E-1,7.598862E-1,-2.5399432E-2,7.661463E-1,-3.2192093E-1,1.29971355E-2,4.9624488E-2,3.9117396E-1,-9.039563E-1,1.32026365E-2,5.4240018E-2,5.2841496E-2,7.7608554E-4,-4.5349717E-2,1.4781246E-2,3.696044E-2,-2.5829012E-2,1.8241681E-2,-5.369658E-2],"categories":[],"categories_nodes":[],"categories_segments":[],"categories_sizes":[],"default_left":[0,0,0,0,0,0,0,0,0,0,0,0,0,0,0,0,0,0,0,0,0,0,0,0,0,0,0,0,0],"id":25,"left_children":[1,3,5,7,9,-1,-1,11,13,15,17,19,-1,21,23,-1,-1,25,27,-1,-1,-1,-1,-1,-1,-1,-1,-1,-1],"loss_changes":[4.0618095E0,3.708808E0,3.5253286E-2,3.1922252E0,5.7756934E0,0E0,0E0,2.5858335E0,3.3313262E0,4.2061567E-2,8.074707E0,2.1942406E0,0E0,8.271091E-1,4.007223E0,0E0,0E0,2.958947E0,3.0496473E0,0E0,0E0,0E0,0E0,0E0,0E0,0E0,0E0,0E0,0E0],"parents":[2147483647,0,0,1,1,2,2,3,3,4,4,7,7,8,8,9,9,10,10,11,11,13,13,14,14,17,17,18,18],"right_children":[2,4,6,8,10,-1,-1,12,14,16,18,20,-1,22,24,-1,-1,26,28,-1,-1,-1,-1,-1,-1,-1,-1,-1,-1],"split_conditions":[1.0219538E7,2.7592472E5,-4.095256E-2,2.0675494E-1,7.2732295E6,-1.2582766E-2,-4.7212858E-2,1.0249188E7,-1.2365795E-2,7.1768095E6,-4.1705485E-2,8.856863E6,-2.5399432E-2,8.459811E-1,3.3977505E-2,1.29971355E-2,4.9624488E-2,8.2675624E-1,-9.504438E-2,1.32026365E-2,5.4240018E-2,5.2841496E-2,7.7608554E-4,-4.5349717E-2,1.4781246E-2,3.696044E-2,-2.5829012E-2,1.8241681E-2,-5.369658E-2],"split_indices":[11,16,6,21,3,0,0,3,14,0,14,13,0,21,14,0,0,21,15,0,0,0,0,0,0,0,0,0,0],"split_type":[0,0,0,0,0,0,0,0,0,0,0,0,0,0,0,0,0,0,0,0,0,0,0,0,0,0,0,0,0],"sum_hessian":[5.3217506E1,4.9473866E1,3.74364E0,2.7717918E1,2.1755947E1,1.0243025E0,2.7193375E0,1.5503315E1,1.2214603E1,3.2747617E0,1.8481184E1,1.4398103E1,1.105212E0,2.865881E0,9.348722E0,1.0163631E0,2.2583985E0,7.1571407E0,1.1324044E1,6.4174585E0,7.980644E0,1.7718054E0,1.0940756E0,4.559894E0,4.7888284E0,5.307794E0,1.8493465E0,1.2023852E0,1.0121659E1],"tree_param":{"num_deleted":"0","num_feature":"22","num_nodes":"29","size_leaf_vector":"1"}},{"base_weights":[7.918801E-2,1.9968516E-1,-8.451306E-1,5.542654E-1,-1.1937773E-1,2.939739E-3,-5.2242637E-2,6.594294E-1,-2.5957644E-2,3.1673405E-1,-4.6549731E-1,8.8060266E-1,2.8480724E-1,8.329405E-1,-9.015628E-2,-6.583455E-1,4.4121742E-2,5.475981E-2,-1.2484397E-2,-4.5380704E-2,4.1449398E-2,9.807684E-4,5.1720943E-2,1.4172803E-2,-4.335154E-2,-1.2166744E-2,-6.1185867E-2],"categories":[],"categories_nodes":[],"categories_segments":[],"categories_sizes":[],"default_left":[0,0,0,0,0,0,0,0,0,0,0,0,0,0,0,0,0,0,0,0,0,0,0,0,0,0,0],"id":26,"left_children":[1,3,5,7,9,-1,-1,11,-1,13,15,17,19,21,23,25,-1,-1,-1,-1,-1,-1,-1,-1,-1,-1,-1],"loss_changes":[6.2545743E0,5.6264906E0,1.233604E0,2.9901433E0,4.1766076E0,0E0,0E0,1.5557413E0,0E0,2.680838E0,4.554658E0,3.482767E0,6.963554E0,8.9180756E-1,2.5212944E0,2.9744658E0,0E0,0E0,0E0,0E0,0E0,0E0,0E0,0E0,0E0,0E0,0E0],"parents":[2147483647,0,0,1,1,2,2,3,3,4,4,7,7,9,9,10,10,11,11,12,12,13,13,14,14,15,15],"right_children":[2,4,6,8,10,-1,-1,12,-1,14,16,18,20,22,24,26,-1,-1,-1,-1,-1,-1,-1,-1,-1,-1,-1],"split_conditions":[1.020589E7,2.0528125E-2,-3.689231E-2,1.0173594E7,8.0580005E6,2.939739E-3,-5.2242637E-2,4.3528713E-3,-2.5957644E-2,5.5109145E-4,1.0041818E7,7.121549E-1,9.116034E6,2.2751408E5,3.202453E-1,8.868162E6,4.4121742E-2,5.475981E-2,-1.2484397E-2,-4.5380704E-2,4.1449398E-2,9.807684E-4,5.1720943E-2,1.4172803E-2,-4.335154E-2,-1.2166744E-2,-6.1185867E-2],"split_indices":[11,10,14,12,13,0,0,7,0,6,12,18,12,16,19,12,0,0,0,0,0,0,0,0,0,0,0],"split_type":[0,0,0,0,0,0,0,0,0,0,0,0,0,0,0,0,0,0,0,0,0,0,0,0,0,0,0],"sum_hessian":[5.3641193E1,4.814838E1,5.492813E0,2.2455746E1,2.5692635E1,1.1217018E0,4.3711114E0,2.0803299E1,1.6524482E0,1.14059725E1,1.4286662E1,1.2231372E1,8.571926E0,4.5660753E0,6.839897E0,1.2946062E1,1.3406003E0,1.0305794E1,1.925578E0,2.476816E0,6.0951104E0,1.1244137E0,3.4416616E0,5.0475674E0,1.7923295E0,8.290688E0,4.655374E0],"tree_param":{"num_deleted":"0","num_feature":"22","num_nodes":"27","size_leaf_vector":"1"}},{"base_weights":[-2.8516632E-2,5.0539833E-2,-9.867321E-2,8.024522E-2,-5.337365E-1,-3.3396736E-1,2.8509873E-1,-1.6300486E-1,-6.0890175E-2,4.009174E-1,-5.873552E-1,3.795289E-1,-4.2065516E-2,-4.2773813E-1,5.020718E-2,-6.653152E-3,4.291955E-2,1.9045785E-2,-4.3334633E-2,1.0811112E-2,4.5821752E-2,2.7175188E-2,-3.371492E-2],"categories":[],"categories_nodes":[],"categories_segments":[],"categories_sizes":[],"default_left":[0,0,0,0,0,0,0,0,0,0,0,0,0,0,0,0,0,0,0,0,0,0,0],"id":27,"left_children":[1,-1,3,5,7,9,11,13,-1,15,17,19,-1,21,-1,-1,-1,-1,-1,-1,-1,-1,-1],"loss_changes":[4.156649E0,0E0,4.1708784E0,3.357583E0,3.7538166E0,2.6903067E0,3.112959E0,3.9091425E0,0E0,1.085091E0,3.091316E0,1.9870102E0,0E0,2.7326221E0,0E0,0E0,0E0,0E0,0E0,0E0,0E0,0E0,0E0],"parents":[2147483647,0,0,2,2,3,3,4,4,5,5,6,6,7,7,9,9,10,10,11,11,13,13],"right_children":[2,-1,4,6,8,10,12,14,-1,16,18,20,-1,22,-1,-1,-1,-1,-1,-1,-1,-1,-1],"split_conditions":[2.6128096E1,5.0539833E-2,5.6900295E12,1.727597E-1,2.3261841E-2,4.1479126E1,1.0236839E7,7.6693213E-1,-6.0890175E-2,6.6833794E-2,1.4201353E-2,6.857085E1,-4.2065516E-2,-4.1482203E-2,5.020718E-2,-6.653152E-3,4.291955E-2,1.9045785E-2,-4.3334633E-2,1.0811112E-2,4.5821752E-2,2.7175188E-2,-3.371492E-2],"split_indices":[17,0,4,19,9,17,3,18,0,19,9,17,0,7,0,0,0,0,0,0,0,0,0],"split_type":[0,0,0,0,0,0,0,0,0,0,0,0,0,0,0,0,0,0,0,0,0,0,0],"sum_hessian":[5.463915E1,2.6072414E0,5.203191E1,3.7447357E1,1.4584553E1,1.2183043E1,2.5264313E1,1.0261563E1,4.3229904E0,2.9743867E0,9.208655E0,2.392193E1,1.3423831E0,8.880746E0,1.3808172E0,1.6996388E0,1.2747478E0,1.9803845E0,7.228271E0,1.9418324E1,4.503606E0,1.5541896E0,7.326556E0],"tree_param":{"num_deleted":"0","num_feature":"22","num_nodes":"23","size_leaf_vector":"1"}},{"base_weights":[9.366631E-2,2.2691712E-1,-5.167899E-1,6.840223E-1,2.5648963E-2,-1.4181882E-1,-5.0363433E-2,8.882188E-1,-3.0491564E-1,7.81358E-1,-1.4127974E-1,-5.6752186E-2,3.6681148E-1,-5.9332777E-2,1.1506107E0,1.3522774E-2,-3.7307125E-2,-2.8029272E-2,5.9143152E-2,-3.4951803E-1,6.2747586E-1,-3.7284315E-2,8.040366E-1,4.1239396E-2,-4.8613604E-2,1.19023435E-2,6.1980166E-2,-2.2826693E-3,-5.8723062E-2,5.360466E-2,-3.0144122E-3,5.303194E-2,2.316394E-3],"categories":[],"categories_nodes":[],"categories_segments":[],"categories_sizes":[],"default_left":[0,0,0,0,0,0,0,0,0,0,0,0,0,0,0,0,0,0,0,0,0,0,0,0,0,0,0,0,0,0,0,0,0],"id":28,"left_children":[1,3,5,7,9,11,-1,13,15,17,19,-1,21,23,25,-1,-1,-1,-1,27,29,-1,31,-1,-1,-1,-1,-1,-1,-1,-1,-1,-1],"loss_changes":[4.657125E0,4.261036E0,1.7523592E0,3.133936E0,4.314676E0,3.9546216E0,0E0,3.0536213E0,1.0068003E0,3.9944642E0,4.72486E0,0E0,3.2201924E0,3.6712365E0,4.7255516E-1,0E0,0E0,0E0,0E0,5.6587334E0,2.0084271E0,0E0,7.9640365E-1,0E0,0E0,0E0,0E0,0E0,0E0,0E0,0E0,0E0,0E0],"parents":[2147483647,0,0,1,1,2,2,3,3,4,4,5,5,7,7,8,8,9,9,10,10,12,12,13,13,14,14,19,19,20,20,22,22],"right_children":[2,4,6,8,10,12,-1,14,16,18,20,-1,22,24,26,-1,-1,-1,-1,28,30,-1,32,-1,-1,-1,-1,-1,-1,-1,-1,-1,-1],"split_conditions":[1.0201522E7,1.6808761E-2,1.0165667E7,2.7301416E5,7.3076695E6,9.946479E6,-5.0363433E-2,8.405424E6,-6.9479956E-3,2.95188E-2,9.477923E6,-5.6752186E-2,1.8267736E5,8.288751E6,1.8372442E5,1.3522774E-2,-3.7307125E-2,-2.8029272E-2,5.9143152E-2,9.089622E6,9.850356E6,-3.7284315E-2,1.0152354E7,4.1239396E-2,-4.8613604E-2,1.19023435E-2,6.1980166E-2,-2.2826693E-3,-5.8723062E-2,5.360466E-2,-3.0144122E-3,5.303194E-2,2.316394E-3],"split_indices":[1,9,12,16,3,11,0,11,6,10,11,0,16,1,16,0,0,0,0,12,1,0,11,0,0,0,0,0,0,0,0,0,0],"split_type":[0,0,0,0,0,0,0,0,0,0,0,0,0,0,0,0,0,0,0,0,0,0,0,0,0,0,0,0,0,0,0,0,0],"sum_hessian":[5.4810738E1,4.5505947E1,9.304788E0,1.3178153E1,3.2327797E1,6.0039277E0,3.3008602E0,1.100722E1,2.1709323E0,5.182974E0,2.7144821E1,1.616245E0,4.3876824E0,2.554883E0,8.452337E0,1.1102177E0,1.0607146E0,1.102361E0,4.080613E0,2.1788233E1,5.3565884E0,1.0388591E0,3.3488235E0,1.3469803E0,1.2079027E0,1.077558E0,7.374779E0,1.6694296E1,5.093938E0,2.9139829E0,2.4426053E0,2.202976E0,1.1458474E0],"tree_param":{"num_deleted":"0","num_feature":"22","num_nodes":"33","size_leaf_vector":"1"}},{"base_weights":[-1.7742608E-3,8.848227E-1,-1.1761773E-1,5.4246034E-2,-5.2962964E-4,2.1037343E-3,-7.936157E-1,8.670777E-1,-1.304828E-1,1.2557702E-3,-9.3451613E-1,4.3823202E-5,5.3399492E-2,3.0068284E-2,-9.396794E-1,-5.56448E-2,-6.355358E-4,1.2084645E-2,-2.3623722E-2,-7.0563355E-3,-5.4812998E-2],"categories":[],"categories_nodes":[],"categories_segments":[],"categories_sizes":[],"default_left":[0,0,0,0,0,0,0,0,0,0,0,0,0,0,0,0,0,0,0,0,0],"id":29,"left_children":[1,3,5,-1,-1,7,9,11,13,-1,15,-1,-1,17,19,-1,-1,-1,-1,-1,-1],"loss_changes":[5.5519104E0,1.1307783E0,3.869851E0,0E0,0E0,4.8842096E0,8.5335016E-1,9.841008E-1,4.8276334E0,0E0,9.993706E-1,0E0,0E0,3.4955735E0,6.139059E-1,0E0,0E0,0E0,0E0,0E0,0E0],"parents":[2147483647,0,0,1,1,2,2,5,5,6,6,7,7,8,8,10,10,13,13,14,14],"right_children":[2,4,6,-1,-1,8,10,12,14,-1,16,-1,-1,18,20,-1,-1,-1,-1,-1,-1],"split_conditions":[7.5428555E6,3.237161E-2,1.0165027E7,5.4246034E-2,-5.2962964E-4,2.1356964E5,-2.4342837E-2,8.802753E-3,7.1942866E-1,1.2557702E-3,4.692836E-1,4.3823202E-5,5.3399492E-2,6.5246923E-3,-2.9132579E-2,-5.56448E-2,-6.355358E-4,1.2084645E-2,-2.3623722E-2,-7.0563355E-3,-5.4812998E-2],"split_indices":[13,10,11,0,0,16,5,9,18,0,20,0,0,8,5,0,0,0,0,0,0],"split_type":[0,0,0,0,0,0,0,0,0,0,0,0,0,0,0,0,0,0,0,0,0],"sum_hessian":[5.2042805E1,5.2470345E0,4.6795773E1,4.115669E0,1.1313658E0,4.0601925E1,6.1938467E0,4.6601458E0,3.594178E1,1.0300839E0,5.1637626E0,1.0664926E0,3.593653E0,3.0794704E1,5.147074E0,4.1528406E0,1.0109221E0,2.2034758E1,8.759947E0,1.1554819E0,3.9915922E0],"tree_param":{"num_deleted":"0","num_feature":"22","num_nodes":"21","size_leaf_vector":"1"}},{"base_weights":[-2.2747045E-2,7.621299E-2,-8.7396175E-1,2.8453496E-1,-1.7557131E-1,-9.401533E-3,-4.932981E-2,6.7653194E-2,8.520473E-1,-3.555891E-1,5.5960566E-1,7.7933294E-1,-1.24285795E-1,5.0171502E-2,-2.9399767E-5,2.6256371E-2,-4.8083463E-1,4.013732E-2,-7.331816E-3,5.0463926E-2,3.5974924E-3,-3.135404E-2,1.2487E-2,1.4470669E-2,-3.1529587E-2],"categories":[],"categories_nodes":[],"categories_segments":[],"categories_sizes":[],"default_left":[0,0,0,0,0,0,0,0,0,0,0,0,0,0,0,0,0,0,0,0,0,0,0,0,0],"id":30,"left_children":[1,3,5,7,9,-1,-1,11,13,15,17,19,21,-1,-1,-1,23,-1,-1,-1,-1,-1,-1,-1,-1],"loss_changes":[4.443429E0,2.5397155E0,2.3877478E-1,3.1864693E0,3.1251497E0,0E0,0E0,2.8501132E0,9.301028E-1,2.2790961E0,9.312296E-1,6.461508E-1,3.3041146E0,0E0,0E0,0E0,2.0981338E0,0E0,0E0,0E0,0E0,0E0,0E0,0E0,0E0],"parents":[2147483647,0,0,1,1,2,2,3,3,4,4,7,7,8,8,9,9,10,10,11,11,12,12,16,16],"right_children":[2,4,6,8,10,-1,-1,12,14,16,18,20,22,-1,-1,-1,24,-1,-1,-1,-1,-1,-1,-1,-1],"split_conditions":[1.020589E7,3.1316257E-3,-5.2556742E-2,4.1802052E-2,1.0041818E7,-9.401533E-3,-4.932981E-2,7.5559975E6,6.651388E-2,-1.0111123E-1,5.6251955E12,-1.850172E-2,8.915442E6,5.0171502E-2,-2.9399767E-5,2.6256371E-2,7.499906E6,4.013732E-2,-7.331816E-3,5.0463926E-2,3.5974924E-3,-3.135404E-2,1.2487E-2,1.4470669E-2,-3.1529587E-2],"split_indices":[11,5,7,15,12,0,0,1,7,15,4,14,13,0,0,0,13,0,0,0,0,0,0,0,0],"split_type":[0,0,0,0,0,0,0,0,0,0,0,0,0,0,0,0,0,0,0,0,0,0,0,0,0],"sum_hessian":[5.0958897E1,4.6467205E1,4.491692E0,2.5357101E1,2.1110102E1,1.0100416E0,3.4816506E0,1.915572E1,6.2013817E0,1.737253E1,3.7375717E0,3.4188488E0,1.5736872E1,5.1161656E0,1.085216E0,1.7654241E0,1.5607106E1,2.6787148E0,1.0588568E0,2.2580557E0,1.1607931E0,6.4242787E0,9.312593E0,2.3887036E0,1.3218402E1],"tree_param":{"num_deleted":"0","num_feature":"22","num_nodes":"25","size_leaf_vector":"1"}},{"base_weights":[-4.3034203E-2,2.7433205E-1,-2.3111662E-1,4.6071488E-1,-6.1827004E-1,7.2343653E-1,-3.537876E-1,6.897519E-1,-4.858417E-1,1.1408172E-3,-4.4286076E-2,4.48776E-2,1.2894729E-2,-5.091344E-1,5.184415E-1,-2.9103456E-2,8.4167516E-1,1.3991512E-2,-4.4420052E-2,-2.376312E-1,-1.0809917E0,8.208399E-1,-1.2076426E-2,-6.293764E-3,4.8747715E-2,6.093224E-4,-3.3392977E-2,-1.3700652E-2,-5.8084246E-2,4.809059E-2,1.4627898E-2],"categories":[],"categories_nodes":[],"categories_segments":[],"categories_sizes":[],"default_left":[0,0,0,0,0,0,0,0,0,0,0,0,0,0,0,0,0,0,0,0,0,0,0,0,0,0,0,0,0,0,0],"id":31,"left_children":[1,3,5,7,9,11,13,15,17,-1,-1,-1,-1,19,21,-1,23,-1,-1,25,27,29,-1,-1,-1,-1,-1,-1,-1,-1,-1],"loss_changes":[3.1578143E0,3.5701709E0,4.1309867E0,4.0010176E0,6.783E-1,1.0061622E-1,4.328347E0,3.2004504E0,1.444878E0,0E0,0E0,0E0,0E0,3.7745929E0,1.3542639E0,0E0,1.791419E0,0E0,0E0,2.0382333E0,2.0766449E-1,3.5271645E-3,0E0,0E0,0E0,0E0,0E0,0E0,0E0,0E0,0E0],"parents":[2147483647,0,0,1,1,2,2,3,3,4,4,5,5,6,6,7,7,8,8,13,13,14,14,16,16,19,19,20,20,21,21],"right_children":[2,4,6,8,10,12,14,16,18,-1,-1,-1,-1,20,22,-1,24,-1,-1,26,28,30,-1,-1,-1,-1,-1,-1,-1,-1,-1],"split_conditions":[1.6808761E-2,1.0132707E7,7.0418715E6,2.7301416E5,-1.5371508E-3,2.4421911E-1,3.9748397E-2,1.141876E-2,-1.683213E-2,1.1408172E-3,-4.4286076E-2,4.48776E-2,1.2894729E-2,5.3166706E1,2.7668568E-1,-2.9103456E-2,8.405424E6,1.3991512E-2,-4.4420052E-2,2.434942E-2,-1.0116968E-2,8.679214E6,-1.2076426E-2,-6.293764E-3,4.8747715E-2,6.093224E-4,-3.3392977E-2,-1.3700652E-2,-5.8084246E-2,4.809059E-2,1.4627898E-2],"split_indices":[9,2,2,16,5,20,14,10,14,0,0,0,0,17,19,0,11,0,0,9,5,2,0,0,0,0,0,0,0,0,0],"split_type":[0,0,0,0,0,0,0,0,0,0,0,0,0,0,0,0,0,0,0,0,0,0,0,0,0,0,0,0,0,0,0],"sum_hessian":[5.0840496E1,1.874761E1,3.2092888E1,1.5909437E1,2.8381724E0,3.0969415E0,2.8995945E1,1.30283E1,2.881137E0,1.1047515E0,1.7334211E0,1.5785737E0,1.5183678E0,2.496575E1,4.0301957E0,1.0880858E0,1.1940214E1,1.0978628E0,1.7832739E0,1.7888357E1,7.077391E0,2.8257225E0,1.2044733E0,1.452346E0,1.0487868E1,1.1931723E1,5.956635E0,1.0429566E0,6.034435E0,1.5827304E0,1.2429922E0],"tree_param":{"num_deleted":"0","num_feature":"22","num_nodes":"31","size_leaf_vector":"1"}},{"base_weights":[5.245037E-2,8.046791E-1,-5.024248E-2,2.8069067E-1,5.351429E-2,1.824338E-1,-4.7229472E-1,4.2455923E-2,-2.5444034E-2,3.3762568E-1,-5.7701164E-1,8.196864E-1,-8.110199E-1,-2.520879E-1,5.6413835E-1,-4.3956667E-2,1.7194201E-4,4.644039E-2,1.2040026E-2,-9.605751E-1,-1.8090667E-2,-3.4875635E-2,2.2926714E-2,5.1106203E-2,1.0014867E-2,-1.12805525E-2,-5.740986E-2,2.0865953E-2,-2.1079084E-2],"categories":[],"categories_nodes":[],"categories_segments":[],"categories_sizes":[],"default_left":[0,0,0,0,0,0,0,0,0,0,0,0,0,0,0,0,0,0,0,0,0,0,0,0,0,0,0,0,0],"id":32,"left_children":[1,3,5,7,-1,9,11,-1,-1,13,15,17,19,21,23,-1,-1,-1,-1,25,27,-1,-1,-1,-1,-1,-1,-1,-1],"loss_changes":[4.188438E0,6.0544586E-1,4.8183103E0,2.023123E0,0E0,3.9409242E0,8.281082E0,0E0,0E0,3.7517831E0,1.0135199E0,3.611636E-2,1.6773777E0,2.9122555E0,3.0999756E0,0E0,0E0,0E0,0E0,1.3962946E0,7.534001E-1,0E0,0E0,0E0,0E0,0E0,0E0,0E0,0E0],"parents":[2147483647,0,0,1,1,2,2,3,3,5,5,6,6,9,9,10,10,11,11,12,12,13,13,14,14,19,19,20,20],"right_children":[2,4,6,8,-1,10,12,-1,-1,14,16,18,20,22,24,-1,-1,-1,-1,26,28,-1,-1,-1,-1,-1,-1,-1,-1],"split_conditions":[-6.337525E-2,2.323673E-2,2.7592472E5,2.0528125E-2,5.351429E-2,1.0165027E7,7.2732295E6,4.2455923E-2,-2.5444034E-2,8.422318E6,2.4999008E5,2.5188153E12,3.6672648E-2,2.5269412E-2,-2.634265E-4,-4.3956667E-2,1.7194201E-4,4.644039E-2,1.2040026E-2,-4.1705485E-2,2.434942E-2,-3.4875635E-2,2.2926714E-2,5.1106203E-2,1.0014867E-2,-1.12805525E-2,-5.740986E-2,2.0865953E-2,-2.1079084E-2],"split_indices":[14,10,16,10,0,11,3,0,0,11,16,4,6,10,6,0,0,0,0,14,9,0,0,0,0,0,0,0,0],"split_type":[0,0,0,0,0,0,0,0,0,0,0,0,0,0,0,0,0,0,0,0,0,0,0,0,0,0,0,0,0],"sum_hessian":[5.2696945E1,5.5088243E0,4.718812E1,2.5449471E0,2.9638772E0,3.078447E1,1.640365E1,1.4358406E0,1.1091065E0,2.6022276E1,4.7621937E0,3.1123743E0,1.3291276E1,7.1901636E0,1.8832113E1,2.7935786E0,1.9686148E0,2.1101346E0,1.0022397E0,1.1004315E1,2.2869606E0,4.431134E0,2.7590296E0,7.5363965E0,1.1295716E1,2.6858048E0,8.318511E0,1.0834894E0,1.2034711E0],"tree_param":{"num_deleted":"0","num_feature":"22","num_nodes":"29","size_leaf_vector":"1"}},{"base_weights":[4.3275453E-2,1.6827407E-1,-5.8443844E-1,5.5507284E-1,1.0061589E-2,-4.9664542E-2,-1.131774E-1,7.9687786E-1,-2.9025468E-1,-1.218692E-1,5.3871613E-2,-3.1999763E-2,3.265365E-1,9.3086183E-1,-6.029601E-3,7.9819973E-4,-2.5357619E-2,2.1536988E-1,-5.429917E-1,-1.482436E-2,4.184111E-2,5.37539E-3,5.2206725E-2,-1.2373041E-2,4.6671074E-2,1.6733091E-2,-4.5606602E-2],"categories":[],"categories_nodes":[],"categories_segments":[],"categories_sizes":[],"default_left":[0,0,0,0,0,0,0,0,0,0,0,0,0,0,0,0,0,0,0,0,0,0,0,0,0,0,0],"id":33,"left_children":[1,3,5,7,9,-1,11,13,15,17,-1,-1,19,21,-1,-1,-1,23,25,-1,-1,-1,-1,-1,-1,-1,-1],"loss_changes":[3.9182515E0,2.5264597E0,1.488378E0,2.6826358E0,4.40983E0,0E0,1.3644792E0,1.291379E0,2.3394805E-1,4.0848374E0,0E0,0E0,1.3229916E0,6.7904377E-1,0E0,0E0,0E0,5.6250663E0,4.4224854E0,0E0,0E0,0E0,0E0,0E0,0E0,0E0,0E0],"parents":[2147483647,0,0,1,1,2,2,3,3,4,4,6,6,7,7,8,8,9,9,12,12,13,13,17,17,18,18],"right_children":[2,4,6,8,10,-1,12,14,16,18,-1,-1,20,22,-1,-1,-1,24,26,-1,-1,-1,-1,-1,-1,-1,-1],"split_conditions":[1.0241126E7,2.5961876E-1,1.8748862E-1,3.52116E5,4.16791E5,-4.9664542E-2,1.5324111E-1,6.403904E-1,-1.1641893E-1,2.7592472E5,5.3871613E-2,-3.1999763E-2,9.342371E-2,-4.2033745E-3,-6.029601E-3,7.9819973E-4,-2.5357619E-2,9.256308E6,8.114134E6,-1.482436E-2,4.184111E-2,5.37539E-3,5.2206725E-2,-1.2373041E-2,4.6671074E-2,1.6733091E-2,-4.5606602E-2],"split_indices":[1,18,19,16,16,0,20,19,21,16,0,0,21,5,0,0,0,11,0,0,0,0,0,0,0,0,0],"split_type":[0,0,0,0,0,0,0,0,0,0,0,0,0,0,0,0,0,0,0,0,0,0,0,0,0,0,0],"sum_hessian":[4.7683937E1,4.037572E1,7.308217E0,1.0992585E1,2.9383135E1,3.3200812E0,3.9881358E0,8.59213E0,2.400455E0,2.693918E1,2.443955E0,1.6071457E0,2.3809903E0,7.4845214E0,1.1076088E0,1.3794003E0,1.0210549E0,1.5230792E1,1.1708388E1,1.260718E0,1.1202722E0,1.1408736E0,6.343648E0,9.659799E0,5.570994E0,3.4941754E0,8.214212E0],"tree_param":{"num_deleted":"0","num_feature":"22","num_nodes":"27","size_leaf_vector":"1"}},{"base_weights":[1.2393653E-2,2.9586825E-1,-1.6501488E-1,5.478265E-1,-5.8498687E-1,-2.822266E-1,6.56049E-1,-3.3646252E-2,7.216469E-1,4.77389E-3,-4.549208E-2,6.5376514E-1,-3.9603248E-1,5.224641E-2,-4.446546E-3,1.6470474E-1,9.2819846E-1,7.037048E-3,4.250094E-2,2.9367676E-1,-5.0790495E-1,-2.548257E-2,2.7720526E-2,5.4400623E-2,3.293498E-3,3.2256622E-2,-1.4581583E-2,-3.0401379E-2,1.7846072E-2],"categories":[],"categories_nodes":[],"categories_segments":[],"categories_sizes":[],"default_left":[0,0,0,0,0,0,0,0,0,0,0,0,0,0,0,0,0,0,0,0,0,0,0,0,0,0,0,0,0],"id":34,"left_children":[1,3,5,7,9,11,13,-1,15,-1,-1,17,19,-1,-1,21,23,-1,-1,25,27,-1,-1,-1,-1,-1,-1,-1,-1],"loss_changes":[2.512383E0,4.5848956E0,3.1465878E0,3.7654972E0,1.1384666E0,3.2017765E0,1.2937316E0,0E0,1.4591532E0,0E0,0E0,2.1989179E-1,2.0978036E0,0E0,0E0,1.5983354E0,1.3073311E0,0E0,0E0,1.0435448E0,2.130323E0,0E0,0E0,0E0,0E0,0E0,0E0,0E0,0E0],"parents":[2147483647,0,0,1,1,2,2,3,3,4,4,5,5,6,6,8,8,11,11,12,12,15,15,16,16,19,19,20,20],"right_children":[2,4,6,8,10,12,14,-1,16,-1,-1,18,20,-1,-1,22,24,-1,-1,26,28,-1,-1,-1,-1,-1,-1,-1,-1],"split_conditions":[1.6780185E-2,4.4409603E-2,4.310538E-2,1.0914514E-2,2.84283E-2,-1.09399416E-1,2.46613E-2,-3.3646252E-2,1.6557258E-1,4.77389E-3,-4.549208E-2,1.6475537E-1,7.2732295E6,5.224641E-2,-4.446546E-3,-4.7580957E-1,1.569533E-2,7.037048E-3,4.250094E-2,2.7383132E12,1.3687174E-1,-2.548257E-2,2.7720526E-2,5.4400623E-2,3.293498E-3,3.2256622E-2,-1.4581583E-2,-3.0401379E-2,1.7846072E-2],"split_indices":[9,8,6,10,7,8,9,0,19,0,0,19,3,0,0,21,6,0,0,4,15,0,0,0,0,0,0,0,0],"split_type":[0,0,0,0,0,0,0,0,0,0,0,0,0,0,0,0,0,0,0,0,0,0,0,0,0,0,0,0,0],"sum_hessian":[4.7986298E1,1.821442E1,2.9771875E1,1.4457186E1,3.757234E0,2.6626984E1,3.1448922E0,1.4440626E0,1.30131235E1,1.44226E0,2.314974E0,2.3722172E0,2.4254766E1,1.8017523E0,1.3431398E0,4.0067616E0,9.006362E0,1.1315042E0,1.2407131E0,3.1583E0,2.1096466E1,1.3547261E0,2.6520355E0,7.3774037E0,1.6289576E0,1.9095049E0,1.248795E0,1.9173634E1,1.9228324E0],"tree_param":{"num_deleted":"0","num_feature":"22","num_nodes":"29","size_leaf_vector":"1"}},{"base_weights":[-5.316778E-2,4.3901157E-1,-2.7591774E-1,6.1950624E-1,-3.410461E-2,-9.74151E-1,-1.4139687E-1,-1.0814989E-2,7.3214287E-1,-5.6940615E-2,-6.072002E-3,2.5699583E-1,-4.5561826E-1,9.208519E-1,2.3477481E-1,6.4908093E-1,-4.1517678E-1,3.8551394E-2,-6.7765325E-1,5.972008E-2,2.1945475E-2,-1.3606166E-2,2.315892E-2,5.1996954E-2,3.974715E-3,2.8478963E-2,-4.2942952E-2,-3.2702633E-3,-4.478344E-2],"categories":[],"categories_nodes":[],"categories_segments":[],"categories_sizes":[],"default_left":[0,0,0,0,0,0,0,0,0,0,0,0,0,0,0,0,0,0,0,0,0,0,0,0,0,0,0,0,0],"id":35,"left_children":[1,3,5,7,-1,9,11,-1,13,-1,-1,15,17,19,21,23,25,-1,27,-1,-1,-1,-1,-1,-1,-1,-1,-1,-1],"loss_changes":[5.679701E0,3.6972446E0,3.198415E0,1.5199361E0,0E0,6.434679E-1,3.9916272E0,0E0,1.0014606E0,0E0,0E0,4.0347753E0,5.3334165E0,6.705594E-1,6.945771E-1,2.0130439E0,3.0553646E0,0E0,2.0088687E0,0E0,0E0,0E0,0E0,0E0,0E0,0E0,0E0,0E0,0E0],"parents":[2147483647,0,0,1,1,2,2,3,3,5,5,6,6,8,8,11,11,12,12,13,13,14,14,15,15,16,16,18,18],"right_children":[2,4,6,8,-1,10,12,-1,14,-1,-1,16,18,20,22,24,26,-1,28,-1,-1,-1,-1,-1,-1,-1,-1,-1,-1],"split_conditions":[8.213518E6,4.703284E-2,8.524994E6,1.7504802E-2,-3.410461E-2,3.639562E-1,5.157161E1,-1.0814989E-2,7.83913E-3,-5.6940615E-2,-6.072002E-3,2.0528125E-2,8.914792E6,4.5964363E1,7.3247805E6,1.7685076E-2,3.0567623E1,3.8551394E-2,1.9842086E-2,5.972008E-2,2.1945475E-2,-1.3606166E-2,2.315892E-2,5.1996954E-2,3.974715E-3,2.8478963E-2,-4.2942952E-2,-3.2702633E-3,-4.478344E-2],"split_indices":[0,9,0,20,0,19,17,0,5,0,0,10,11,17,11,9,17,0,15,0,0,0,0,0,0,0,0,0,0],"split_type":[0,0,0,0,0,0,0,0,0,0,0,0,0,0,0,0,0,0,0,0,0,0,0,0,0,0,0,0,0],"sum_hessian":[4.9701645E1,1.5183007E1,3.4518635E1,1.3462927E1,1.7200809E0,4.567791E0,2.9950844E1,1.4895521E0,1.1973374E1,3.5472796E0,1.0205114E0,1.3286885E1,1.666396E1,8.062781E0,3.910593E0,8.413537E0,4.8733478E0,2.1750743E0,1.4488885E1,4.2003574E0,3.862424E0,1.1552725E0,2.7553205E0,4.49988E0,3.9136577E0,1.4255577E0,3.4477901E0,4.145941E0,1.0342944E1],"tree_param":{"num_deleted":"0","num_feature":"22","num_nodes":"29","size_leaf_vector":"1"}},{"base_weights":[-2.1533038E-2,6.047277E-1,-1.5915588E-1,9.0813816E-1,-2.6282767E-2,1.5007387E-1,-5.7847244E-1,5.3889673E-2,1.2266121E-2,-7.321309E-2,4.8535845E-1,2.4264313E-1,-7.434352E-1,2.3026687E-1,-7.778009E-1,4.7833044E-2,7.9674445E-2,4.102385E-2,-2.7144149E-2,-9.080468E-1,1.2514829E-2,3.8920965E-2,-1.7079432E-3,-5.42845E-2,-3.883667E-3,-2.6202349E-2,3.4157734E-2,-5.1184993E-2,2.8123225E-3],"categories":[],"categories_nodes":[],"categories_segments":[],"categories_sizes":[],"default_left":[0,0,0,0,0,0,0,0,0,0,0,0,0,0,0,0,0,0,0,0,0,0,0,0,0,0,0,0,0],"id":36,"left_children":[1,3,5,7,-1,9,11,-1,-1,13,15,17,19,21,23,-1,25,-1,-1,27,-1,-1,-1,-1,-1,-1,-1,-1,-1],"loss_changes":[4.3160295E0,3.574095E0,5.394164E0,5.77291E-1,0E0,1.8586435E0,2.5615444E0,0E0,0E0,3.4905193E0,1.8101027E0,2.1224952E0,2.6620626E0,1.7073405E0,9.698973E-1,0E0,2.687119E0,0E0,0E0,1.5057373E0,0E0,0E0,0E0,0E0,0E0,0E0,0E0,0E0,0E0],"parents":[2147483647,0,0,1,1,2,2,3,3,5,5,6,6,9,9,10,10,11,11,12,12,13,13,14,14,16,16,19,19],"right_children":[2,4,6,8,-1,10,12,-1,-1,14,16,18,20,22,24,-1,26,-1,-1,28,-1,-1,-1,-1,-1,-1,-1,-1,-1],"split_conditions":[2.1924811E5,1.0084795E7,4.3528713E-3,8.393689E-2,-2.6282767E-2,5.1690733E-1,-1.980872E-2,5.3889673E-2,1.2266121E-2,3.8247433E-1,-2.1300744E-2,-4.9212512E-1,4.9001935E-1,8.619626E6,3.677409E-3,4.7833044E-2,1.7131817E-1,4.102385E-2,-2.7144149E-2,7.0716746E-2,1.2514829E-2,3.8920965E-2,-1.7079432E-3,-5.42845E-2,-3.883667E-3,-2.6202349E-2,3.4157734E-2,-5.1184993E-2,2.8123225E-3],"split_indices":[16,11,7,8,0,18,14,0,0,18,5,21,20,12,6,0,19,0,0,6,0,0,0,0,0,0,0,0,0],"split_type":[0,0,0,0,0,0,0,0,0,0,0,0,0,0,0,0,0,0,0,0,0,0,0,0,0,0,0,0,0],"sum_hessian":[4.796035E1,8.029148E0,3.9931202E1,6.4850745E0,1.5440733E0,2.3352058E1,1.6579142E1,4.664945E0,1.8201294E0,1.4486339E1,8.865721E0,2.6947765E0,1.3884366E1,1.0595735E1,3.8906038E0,3.4729204E0,5.3928003E0,1.5270116E0,1.1677649E0,1.1985237E1,1.8991287E0,2.8154726E0,7.7802625E0,2.3197598E0,1.5708438E0,2.761661E0,2.631139E0,1.0646712E1,1.3385253E0],"tree_param":{"num_deleted":"0","num_feature":"22","num_nodes":"29","size_leaf_vector":"1"}},{"base_weights":[4.2907074E-2,4.7847092E-2,-2.9272791E-2,6.501333E-1,-1.1311939E-1,4.586954E-2,5.593577E-3,-5.2854747E-1,8.7224655E-2,1.9768304E-1,-1.1030661E0,7.9851764E-1,-1.1334916E-1,-2.0478224E-2,4.660193E-2,-1.990256E-2,-6.0996365E-2,1.4790467E-2,5.3984404E-2,-3.002145E-2,9.342811E-3],"categories":[],"categories_nodes":[],"categories_segments":[],"categories_sizes":[],"default_left":[0,0,0,0,0,0,0,0,0,0,0,0,0,0,0,0,0,0,0,0,0],"id":37,"left_children":[1,-1,3,5,7,-1,-1,9,11,13,15,17,19,-1,-1,-1,-1,-1,-1,-1,-1],"loss_changes":[3.2994306E0,0E0,2.7467802E0,6.602793E-1,3.593606E0,0E0,0E0,6.063254E0,4.3154745E0,3.5192208E0,1.7135048E-1,6.189103E-1,3.6180573E0,0E0,0E0,0E0,0E0,0E0,0E0,0E0,0E0],"parents":[2147483647,0,0,2,2,3,3,4,4,7,7,8,8,9,9,10,10,11,11,12,12],"right_children":[2,-1,4,6,8,-1,-1,10,12,14,16,18,20,-1,-1,-1,-1,-1,-1,-1,-1],"split_conditions":[-5.827064E-2,4.7847092E-2,7.499906E6,1.1003504E-2,8.390705E6,4.586954E-2,5.593577E-3,-8.530073E-2,9.142308E6,2.109676E-3,3.8308838E1,4.0974137E12,9.615424E6,-2.0478224E-2,4.660193E-2,-1.990256E-2,-6.0996365E-2,1.4790467E-2,5.3984404E-2,-3.002145E-2,9.342811E-3],"split_indices":[6,0,13,6,2,0,0,15,1,6,17,4,12,0,0,0,0,0,0,0,0],"split_type":[0,0,0,0,0,0,0,0,0,0,0,0,0,0,0,0,0,0,0,0,0],"sum_hessian":[4.8585793E1,2.6588066E0,4.5926987E1,4.303339E0,4.1623646E1,2.4049003E0,1.8984386E0,1.3009434E1,2.8614212E1,6.035751E0,6.973683E0,5.6382337E0,2.2975979E1,3.5458908E0,2.48986E0,1.6180853E0,5.3555975E0,2.7584424E0,2.8797913E0,8.379795E0,1.4596184E1],"tree_param":{"num_deleted":"0","num_feature":"22","num_nodes":"21","size_leaf_vector":"1"}},{"base_weights":[2.208452E-2,1.16933614E-1,-6.5075177E-1,1.691807E-1,-4.6870932E-2,2.6157051E-2,-5.1562995E-2,9.803473E-2,4.6904147E-2,4.1408303E-1,-9.355963E-2,3.344745E-2,-3.0149166E-2,7.965021E-3,-2.9985726E-2],"categories":[],"categories_nodes":[],"categories_segments":[],"categories_sizes":[],"default_left":[0,0,0,0,0,0,0,0,0,0,0,0,0,0,0],"id":38,"left_children":[1,3,5,7,-1,-1,-1,9,-1,11,13,-1,-1,-1,-1],"loss_changes":[3.1393368E0,2.5227518E0,3.2565258E0,2.1912708E0,0E0,0E0,0E0,2.4196632E0,0E0,4.297896E0,3.3329873E0,0E0,0E0,0E0,0E0],"parents":[2147483647,0,0,1,1,2,2,3,3,7,7,9,9,10,10],"right_children":[2,4,6,8,-1,-1,-1,10,-1,12,14,-1,-1,-1,-1],"split_conditions":[1.0173594E7,1.6963561E-1,9.723394E6,5.6152437E-2,-4.6870932E-2,2.6157051E-2,-5.1562995E-2,1.6808761E-2,4.6904147E-2,4.4409603E-2,9.079814E6,3.344745E-2,-3.0149166E-2,7.965021E-3,-2.9985726E-2],"split_indices":[12,15,0,6,0,0,0,9,0,8,12,0,0,0,0],"split_type":[0,0,0,0,0,0,0,0,0,0,0,0,0,0,0],"sum_hessian":[4.699972E1,4.191694E1,5.082783E0,4.073777E1,1.1791683E0,1.1524744E0,3.9303088E0,3.8319588E1,2.4181848E0,1.402429E1,2.4295296E1,1.1487837E1,2.536453E0,1.6658482E1,7.636813E0],"tree_param":{"num_deleted":"0","num_feature":"22","num_nodes":"15","size_leaf_vector":"1"}},{"base_weights":[4.740413E-2,7.0235014E-1,-8.5244715E-2,9.775497E-1,-1.9032378E-2,8.2242316E-1,-2.0096017E-1,5.352235E-2,1.1500451E-2,9.758757E-3,4.8664253E-2,1.4163971E-1,-4.8205918E-1,5.596752E-1,-1.4307112E-1,2.8888116E-2,-6.033138E-1,-1.6404673E-2,4.7645517E-2,-2.884831E-2,2.4137868E-2,2.020226E-2,-3.4804355E-2],"categories":[],"categories_nodes":[],"categories_segments":[],"categories_sizes":[],"default_left":[0,0,0,0,0,0,0,0,0,0,0,0,0,0,0,0,0,0,0,0,0,0,0],"id":39,"left_children":[1,3,5,7,-1,9,11,-1,-1,-1,-1,13,15,17,19,-1,21,-1,-1,-1,-1,-1,-1],"loss_changes":[4.1089997E0,2.7438884E0,4.3296795E0,2.1390867E-1,0E0,2.5285554E-1,3.5323179E0,0E0,0E0,0E0,0E0,2.1015322E0,2.9168534E0,2.7858953E0,3.238279E0,0E0,2.0029683E0,0E0,0E0,0E0,0E0,0E0,0E0],"parents":[2147483647,0,0,1,1,2,2,3,3,5,5,6,6,11,11,12,12,13,13,14,14,16,16],"right_children":[2,4,6,8,-1,10,12,-1,-1,-1,-1,14,16,18,20,-1,22,-1,-1,-1,-1,-1,-1],"split_conditions":[2.1924811E5,1.0084795E7,-6.337525E-2,5.771713E-1,-1.9032378E-2,2.3419244E-2,4.0951046E-1,5.352235E-2,1.1500451E-2,9.758757E-3,4.8664253E-2,1.6780185E-2,7.432952E6,2.6286614E-1,2.3261841E-2,2.8888116E-2,1.254833E-2,-1.6404673E-2,4.7645517E-2,-2.884831E-2,2.4137868E-2,2.020226E-2,-3.4804355E-2],"split_indices":[16,11,14,20,0,10,18,0,0,0,0,9,13,20,9,0,10,0,0,0,0,0,0],"split_type":[0,0,0,0,0,0,0,0,0,0,0,0,0,0,0,0,0,0,0,0,0,0,0],"sum_hessian":[4.560715E1,6.957936E0,3.8649216E1,5.625749E0,1.3321869E0,3.6795635E0,3.4969654E1,4.6196985E0,1.0060506E0,1.1581175E0,2.5214462E0,1.5984305E1,1.8985346E1,6.0846143E0,9.899691E0,1.5626034E0,1.7422743E1,1.9186717E0,4.1659427E0,5.8924527E0,4.0072384E0,1.1863067E0,1.6236437E1],"tree_param":{"num_deleted":"0","num_feature":"22","num_nodes":"23","size_leaf_vector":"1"}},{"base_weights":[-7.890067E-2,4.694918E-2,-1.9947152E-1,-2.7274091E-3,-4.9941945E-1,-7.330453E-1,1.8167257E-1,4.186428E-1,-6.9030035E-1,1.5878662E-2,-5.1177364E-2,4.1892892E-1,-6.170472E-1,-1.0833598E-2,4.023545E-2,-8.3104855E-1,1.3679142E-2,5.1021554E-2,9.854795E-3,-4.3741282E-2,1.1574261E-2,1.0881522E-4,-5.0181568E-2,2.3551812E-2,-2.1071127E-2],"categories":[],"categories_nodes":[],"categories_segments":[],"categories_sizes":[],"default_left":[0,0,0,0,0,0,0,0,0,0,0,0,0,0,0,0,0,0,0,0,0,0,0,0,0],"id":40,"left_children":[1,-1,3,5,7,9,11,13,15,-1,-1,17,19,-1,-1,21,23,-1,-1,-1,-1,-1,-1,-1,-1],"loss_changes":[6.0657506E0,0E0,2.5745845E0,3.8185215E0,3.317997E0,2.0694032E0,4.550767E0,1.0567795E0,1.4666271E0,0E0,0E0,2.2084959E0,1.4255996E0,0E0,0E0,1.7646275E0,8.812584E-1,0E0,0E0,0E0,0E0,0E0,0E0,0E0,0E0],"parents":[2147483647,0,0,2,2,3,3,4,4,5,5,6,6,7,7,8,8,11,11,12,12,15,15,16,16],"right_children":[2,-1,4,6,8,10,12,14,16,-1,-1,18,20,-1,-1,22,24,-1,-1,-1,-1,-1,-1,-1,-1],"split_conditions":[7.499906E6,4.694918E-2,2.7592472E5,8.422318E6,7.568674E6,-5.1532615E-2,1.0302259E7,7.215657E6,5.160284E-1,1.5878662E-2,-5.1177364E-2,9.062011E6,5.835304E-2,-1.0833598E-2,4.023545E-2,-8.028484E-2,-1.2239233E-2,5.1021554E-2,9.854795E-3,-4.3741282E-2,1.1574261E-2,1.0881522E-4,-5.0181568E-2,2.3551812E-2,-2.1071127E-2],"split_indices":[13,0,16,11,1,7,1,0,19,0,0,0,7,0,0,8,8,0,0,0,0,0,0,0,0],"split_type":[0,0,0,0,0,0,0,0,0,0,0,0,0,0,0,0,0,0,0,0,0,0,0,0,0],"sum_hessian":[4.689852E1,4.2480216E0,4.26505E1,2.6365643E1,1.6284859E1,4.7153106E0,2.1650331E1,2.5977046E0,1.3687155E1,1.0012046E0,3.7141058E0,1.7058636E1,4.5916967E0,1.1477404E0,1.4499643E0,1.125618E1,2.4309745E0,3.6261911E0,1.3432444E1,3.4980316E0,1.093665E0,2.1008291E0,9.155351E0,1.1449116E0,1.2860628E0],"tree_param":{"num_deleted":"0","num_feature":"22","num_nodes":"25","size_leaf_vector":"1"}},{"base_weights":[-1.8041082E-2,4.5553606E-2,-8.080958E-2,2.6468256E-1,-3.198015E-1,5.914296E-1,-2.8714702E-1,-8.938876E-2,-5.1515955E-2,-1.7220615E-1,7.699185E-1,-5.577455E-1,3.8096387E-2,-8.0208045E-1,9.6153915E-2,2.1256771E-2,-3.6613446E-2,-1.1965844E-2,4.6349283E-2,1.7478632E-2,-4.895803E-2,-9.445404E-5,-5.5114605E-2,5.0369717E-2,-3.740063E-3],"categories":[],"categories_nodes":[],"categories_segments":[],"categories_sizes":[],"default_left":[0,0,0,0,0,0,0,0,0,0,0,0,0,0,0,0,0,0,0,0,0,0,0,0,0],"id":41,"left_children":[1,-1,3,5,7,9,11,13,-1,15,17,19,-1,21,23,-1,-1,-1,-1,-1,-1,-1,-1,-1,-1],"loss_changes":[2.8757339E0,0E0,3.876739E0,3.6544666E0,4.4263487E0,1.8316207E0,2.656411E0,2.977867E0,0E0,1.3747853E0,1.8524446E0,2.9523146E0,0E0,1.1121609E0,2.925844E0,0E0,0E0,0E0,0E0,0E0,0E0,0E0,0E0,0E0,0E0],"parents":[2147483647,0,0,2,2,3,3,4,4,5,5,6,6,7,7,9,9,10,10,11,11,13,13,14,14],"right_children":[2,-1,4,6,8,10,12,14,-1,16,18,20,-1,22,24,-1,-1,-1,-1,-1,-1,-1,-1,-1,-1],"split_conditions":[7.2974265E6,4.5553606E-2,-1.5253986E-2,9.64779E6,2.7126916E5,6.985329E-2,3.9932347E5,8.422318E6,-5.1515955E-2,7.5338405E6,7.2615915E6,2.7532503E5,3.8096387E-2,7.5428555E6,9.062011E6,2.1256771E-2,-3.6613446E-2,-1.1965844E-2,4.6349283E-2,1.7478632E-2,-4.895803E-2,-9.445404E-5,-5.5114605E-2,5.0369717E-2,-3.740063E-3],"split_indices":[13,0,14,13,16,19,16,11,0,2,11,16,0,13,0,0,0,0,0,0,0,0,0,0,0],"split_type":[0,0,0,0,0,0,0,0,0,0,0,0,0,0,0,0,0,0,0,0,0,0,0,0,0],"sum_hessian":[4.7047943E1,2.1220527E0,4.492589E1,1.8325966E1,2.6599926E1,1.1465374E1,6.8605914E0,2.0936323E1,5.6636033E0,2.1788251E0,9.28655E0,5.826141E0,1.0344503E0,3.6382976E0,1.7298025E1,1.1709013E0,1.0079237E0,1.1801075E0,8.1064415E0,1.9018612E0,3.9242797E0,1.2671356E0,2.3711617E0,1.9596715E0,1.5338354E1],"tree_param":{"num_deleted":"0","num_feature":"22","num_nodes":"25","size_leaf_vector":"1"}},{"base_weights":[-8.449105E-3,2.1703792E-1,-2.7999982E-1,-3.2971105E-1,4.33879E-1,3.8915154E-1,-4.760362E-1,2.1764971E-2,-5.009604E-1,2.1301778E-1,7.9622465E-1,-2.5130466E-1,4.5550015E-2,1.7501032E-2,-5.9651905E-1,-8.2868785E-3,-4.8735466E-2,5.4826325E-1,-7.6972824E-1,5.3602595E-2,1.8090872E-1,2.3587836E-2,-4.0649466E-2,-9.161198E-1,-1.339127E-1,2.4639172E-2,-1.7788967E-2,4.140789E-2,4.3758587E-3,-4.430979E-2,-1.2175945E-2,3.143393E-2,-1.9690076E-2,-5.1151056E-2,-3.424186E-3,1.7680345E-2,-5.0787278E-2],"categories":[],"categories_nodes":[],"categories_segments":[],"categories_sizes":[],"default_left":[0,0,0,0,0,0,0,0,0,0,0,0,0,0,0,0,0,0,0,0,0,0,0,0,0,0,0,0,0,0,0,0,0,0,0,0,0],"id":42,"left_children":[1,3,5,7,9,11,13,-1,15,17,19,21,-1,-1,23,25,-1,27,29,-1,31,-1,-1,33,35,-1,-1,-1,-1,-1,-1,-1,-1,-1,-1,-1,-1],"loss_changes":[2.9859877E0,3.3042443E0,3.0855432E0,1.2844777E0,1.3928323E0,2.087161E0,1.9554434E0,0E0,1.6528493E0,4.868186E0,9.9892044E-1,1.7156633E0,0E0,0E0,2.196435E0,9.5832425E-1,0E0,1.300514E0,2.0064592E-2,0E0,1.1169748E0,0E0,0E0,7.5501823E-1,3.617975E0,0E0,0E0,0E0,0E0,0E0,0E0,0E0,0E0,0E0,0E0,0E0,0E0],"parents":[2147483647,0,0,1,1,2,2,3,3,4,4,5,5,6,6,8,8,9,9,10,10,11,11,14,14,15,15,17,17,18,18,20,20,23,23,24,24],"right_children":[2,4,6,8,10,12,14,-1,16,18,20,22,-1,-1,24,26,-1,28,30,-1,32,-1,-1,34,36,-1,-1,-1,-1,-1,-1,-1,-1,-1,-1,-1,-1],"split_conditions":[6.5246923E-3,1.05288394E-1,2.1356964E5,7.952656E6,2.323673E-2,1.964165E5,7.206364E6,2.1764971E-2,3.0535694E5,3.3578075E5,2.9155357E-2,4.330141E-2,4.5550015E-2,1.7501032E-2,2.6398072E-1,4.100423E-2,-4.8735466E-2,4.0951046E-1,-3.8634796E-2,5.3602595E-2,2.4421911E-1,2.3587836E-2,-4.0649466E-2,8.774446E-1,2.3164857E-2,2.4639172E-2,-1.7788967E-2,4.140789E-2,4.3758587E-3,-4.430979E-2,-1.2175945E-2,3.143393E-2,-1.9690076E-2,-5.1151056E-2,-3.424186E-3,1.7680345E-2,-5.0787278E-2],"split_indices":[8,19,16,1,10,16,12,0,16,16,9,8,0,0,20,19,0,18,8,0,20,0,0,18,10,0,0,0,0,0,0,0,0,0,0,0,0],"split_type":[0,0,0,0,0,0,0,0,0,0,0,0,0,0,0,0,0,0,0,0,0,0,0,0,0,0,0,0,0,0,0,0,0,0,0,0,0],"sum_hessian":[4.677333E1,2.5663734E1,2.1109596E1,7.1400642E0,1.852367E1,4.559858E0,1.6549738E1,1.0239478E0,6.1161165E0,1.2495283E1,6.028387E0,2.2800386E0,2.2798193E0,1.8640765E0,1.4685662E1,3.4969585E0,2.619158E0,9.646627E0,2.8486562E0,3.649949E0,2.3784382E0,1.0668184E0,1.2132202E0,8.105484E0,6.580178E0,1.2608092E0,2.2361493E0,5.5050106E0,4.141617E0,1.7722794E0,1.0763768E0,1.2840784E0,1.09436E0,7.0139904E0,1.0914937E0,4.6232386E0,1.9569393E0],"tree_param":{"num_deleted":"0","num_feature":"22","num_nodes":"37","size_leaf_vector":"1"}},{"base_weights":[-2.8568443E-2,7.403558E-1,-1.2291373E-1,4.7897577E-2,6.668704E-3,2.4838315E-1,-3.0054742E-1,-3.7092382E-1,5.114969E-1,-9.4274867E-1,-1.5249951E-1,1.2520353E-2,-6.8343604E-1,4.9656358E-2,1.6225708E-1,-5.276228E-2,-1.3459953E-2,2.9351857E-2,-7.9450464E-1,-4.270577E-2,-7.653413E-3,3.6992196E-2,-1.0329899E-2,1.4426509E-2,-2.9651944E-2,2.2597264E-3,-5.0349172E-2],"categories":[],"categories_nodes":[],"categories_segments":[],"categories_sizes":[],"default_left":[0,0,0,0,0,0,0,0,0,0,0,0,0,0,0,0,0,0,0,0,0,0,0,0,0,0,0],"id":43,"left_children":[1,3,5,-1,-1,7,9,11,13,15,17,-1,19,-1,21,-1,-1,23,25,-1,-1,-1,-1,-1,-1,-1,-1],"loss_changes":[3.5050342E0,5.703435E-1,2.8959143E0,0E0,0E0,2.534503E0,2.6501498E0,1.1168146E0,1.6082747E0,1.1845207E-1,2.9506614E0,0E0,1.8686795E-1,0E0,1.7066119E0,0E0,0E0,3.4785328E0,1.0393333E0,0E0,0E0,0E0,0E0,0E0,0E0,0E0,0E0],"parents":[2147483647,0,0,1,1,2,2,5,5,6,6,7,7,8,8,9,9,10,10,12,12,14,14,17,17,18,18],"right_children":[2,4,6,-1,-1,8,10,12,14,16,18,-1,20,-1,22,-1,-1,24,26,-1,-1,-1,-1,-1,-1,-1,-1],"split_conditions":[7.499906E6,3.3392993E-1,-2.8361786E-2,4.7897577E-2,6.668704E-3,6.985329E-2,8.2432705E6,8.082598E6,2.149553E-2,3.0816087E-2,1.0158706E7,1.2520353E-2,9.171391E6,4.9656358E-2,1.8311189E-1,-5.276228E-2,-1.3459953E-2,2.7126916E5,9.529398E6,-4.270577E-2,-7.653413E-3,3.6992196E-2,-1.0329899E-2,1.4426509E-2,-2.9651944E-2,2.2597264E-3,-5.0349172E-2],"split_indices":[13,19,14,0,0,19,12,0,9,10,11,0,0,0,20,0,0,16,13,0,0,0,0,0,0,0,0],"split_type":[0,0,0,0,0,0,0,0,0,0,0,0,0,0,0,0,0,0,0,0,0,0,0,0,0,0,0],"sum_hessian":[4.6061325E1,4.285636E0,4.1775692E1,2.7290735E0,1.5565622E0,1.33897085E1,2.8385983E1,3.87027E0,9.519439E0,4.3122907E0,2.407369E1,1.3616977E0,2.5085723E0,3.2263522E0,6.2930865E0,3.2095373E0,1.1027536E0,1.9503502E1,4.5701895E0,1.4360209E0,1.0725515E0,2.0606103E0,4.232476E0,1.414825E1,5.355252E0,1.081901E0,3.4882886E0],"tree_param":{"num_deleted":"0","num_feature":"22","num_nodes":"27","size_leaf_vector":"1"}},{"base_weights":[-2.2102812E-2,6.6291764E-2,-4.673199E-2,-3.1924456E-1,2.0295894E-1,2.5745023E-2,-4.6362355E-1,-3.3739588E-1,3.4533203E-1,-3.3151705E-2,-9.127142E-1,1.6716244E-2,-6.033304E-1,6.504962E-1,7.218458E-2,-2.3205776E-2,3.292348E-2,-9.2169875E-3,-5.296829E-2,-4.3315645E-2,3.3151202E-3,4.0501457E-2,-1.6189096E-2,-6.265161E-3,4.1190036E-2],"categories":[],"categories_nodes":[],"categories_segments":[],"categories_sizes":[],"default_left":[0,0,0,0,0,0,0,0,0,0,0,0,0,0,0,0,0,0,0,0,0,0,0,0,0],"id":44,"left_children":[1,3,-1,5,7,-1,9,11,13,15,17,-1,19,21,23,-1,-1,-1,-1,-1,-1,-1,-1,-1,-1],"loss_changes":[3.8377352E0,2.3625605E0,0E0,1.6600327E0,2.6404476E0,0E0,2.0163481E0,1.5141861E0,2.1586146E0,2.2260392E0,3.5413694E-1,0E0,1.0471385E0,2.1853638E0,2.3427057E0,0E0,0E0,0E0,0E0,0E0,0E0,0E0,0E0,0E0,0E0],"parents":[2147483647,0,0,1,1,3,3,4,4,6,6,7,7,8,8,9,9,10,10,12,12,13,13,14,14],"right_children":[2,4,-1,6,8,-1,10,12,14,16,18,-1,20,22,24,-1,-1,-1,-1,-1,-1,-1,-1,-1,-1],"split_conditions":[1.020589E7,1.419966E-1,-4.673199E-2,2.1737647E5,7.331216E-2,2.5745023E-2,1.0462039E-2,-3.5284895E-2,1.9164724E-2,2.3784263E-2,1.4201353E-2,1.6716244E-2,-1.4810057E-3,1.0173435E7,3.6672648E-2,-2.3205776E-2,3.292348E-2,-9.2169875E-3,-5.296829E-2,-4.3315645E-2,3.3151202E-3,4.0501457E-2,-1.6189096E-2,-6.265161E-3,4.1190036E-2],"split_indices":[11,20,0,16,19,0,6,7,9,10,9,0,5,3,6,0,0,0,0,0,0,0,0,0,0],"split_type":[0,0,0,0,0,0,0,0,0,0,0,0,0,0,0,0,0,0,0,0,0,0,0,0,0],"sum_hessian":[4.5809082E1,4.2609035E1,3.2000482E0,1.0801687E1,3.1807346E1,1.2151111E0,9.586576E0,6.3473125E0,2.5460033E1,5.443029E0,4.1435475E0,1.7272649E0,4.6200476E0,1.1372752E1,1.4087282E1,3.556096E0,1.886933E0,1.07271E0,3.0708375E0,3.1063774E0,1.5136701E0,9.917413E0,1.4553391E0,1.1815926E1,2.2713563E0],"tree_param":{"num_deleted":"0","num_feature":"22","num_nodes":"25","size_leaf_vector":"1"}},{"base_weights":[9.854599E-5,2.4109834E-1,-2.90322E-1,-1.043301E-1,5.629392E-1,-9.4685495E-1,-9.450894E-2,-6.588313E-1,3.746976E-1,7.144841E-1,-1.0519456E-2,-5.252054E-2,-1.5248057E-2,6.233632E-1,-3.5625285E-1,1.0455239E-3,-8.300364E-1,6.633428E-1,-2.707435E-2,8.636492E-1,-1.0737004E-2,4.4903323E-2,-1.0133828E-2,3.125701E-2,-5.8376193E-1,-1.1828904E-2,-5.2281555E-2,4.3241855E-2,-1.0092399E-2,5.9604783E-2,2.0539679E-2,6.1236336E-3,-3.5869434E-2],"categories":[],"categories_nodes":[],"categories_segments":[],"categories_sizes":[],"default_left":[0,0,0,0,0,0,0,0,0,0,0,0,0,0,0,0,0,0,0,0,0,0,0,0,0,0,0,0,0,0,0,0,0],"id":45,"left_children":[1,3,5,7,9,11,13,15,17,19,-1,-1,-1,21,23,-1,25,27,-1,29,-1,-1,-1,-1,31,-1,-1,-1,-1,-1,-1,-1,-1],"loss_changes":[3.3234544E0,2.94363E0,2.6788921E0,3.7955143E0,1.7429643E0,1.1396408E-3,3.5474837E0,7.8015494E-1,2.4232848E0,1.7919998E0,0E0,0E0,0E0,1.337556E0,3.4027162E0,0E0,4.256847E-1,1.2876136E0,0E0,1.025414E0,0E0,0E0,0E0,0E0,1.1790004E0,0E0,0E0,0E0,0E0,0E0,0E0,0E0,0E0],"parents":[2147483647,0,0,1,1,2,2,3,3,4,4,5,5,6,6,7,7,8,8,9,9,13,13,14,14,16,16,17,17,19,19,24,24],"right_children":[2,4,6,8,10,12,14,16,18,20,-1,-1,-1,22,24,-1,26,28,-1,30,-1,-1,-1,-1,32,-1,-1,-1,-1,-1,-1,-1,-1],"split_conditions":[5.157161E1,8.390705E6,-3.253418E-3,2.3365872E-2,2.414952E-2,2.518553E-2,8.945013E6,-8.057999E-2,4.3215837E-2,4.466829E-3,-1.0519456E-2,-5.252054E-2,-1.5248057E-2,8.005691E1,2.0136936E-2,1.0455239E-3,-1.759874E-2,6.990234E-1,-2.707435E-2,4.5607278E-1,-1.0737004E-2,4.4903323E-2,-1.0133828E-2,3.125701E-2,2.1356964E5,-1.1828904E-2,-5.2281555E-2,4.3241855E-2,-1.0092399E-2,5.9604783E-2,2.0539679E-2,6.1236336E-3,-3.5869434E-2],"split_indices":[17,2,15,10,9,8,1,8,9,8,0,0,0,17,15,0,6,18,0,18,0,0,0,0,16,0,0,0,0,0,0,0,0],"split_type":[0,0,0,0,0,0,0,0,0,0,0,0,0,0,0,0,0,0,0,0,0,0,0,0,0,0,0,0,0,0,0,0,0],"sum_hessian":[4.548376E1,2.4949629E1,2.053413E1,1.235981E1,1.258982E1,3.836246E0,1.6697886E1,5.5546465E0,6.805163E0,1.0590542E1,1.9992781E0,2.7553113E0,1.0809348E0,4.092369E0,1.26055155E1,1.2941799E0,4.2604666E0,5.3846836E0,1.4204793E0,9.186444E0,1.4040977E0,3.005636E0,1.086733E0,2.043373E0,1.0562142E1,1.6942108E0,2.5662556E0,4.3678613E0,1.0168227E0,4.3784513E0,4.807993E0,1.6937779E0,8.868364E0],"tree_param":{"num_deleted":"0","num_feature":"22","num_nodes":"33","size_leaf_vector":"1"}},{"base_weights":[3.3831608E-2,1.1594131E-1,-7.463355E-1,3.4672198E-1,-1.4384654E-1,-4.282091E-2,-9.180398E-3,4.8624384E-1,-1.7855445E-1,-3.6910766E-1,3.8676873E-1,-1.8991318E-1,5.99305E-1,2.360871E-2,-5.3131163E-1,3.8622525E-2,-5.35986E-1,5.863103E-1,-1.3960241E-2,1.2706918E-2,-2.7174413E-2,3.5027232E-2,-1.7385341E-2,7.983283E-3,-4.2668976E-2,9.195542E-3,-3.731133E-2,4.585601E-2,2.5590379E-3],"categories":[],"categories_nodes":[],"categories_segments":[],"categories_sizes":[],"default_left":[0,0,0,0,0,0,0,0,0,0,0,0,0,0,0,0,0,0,0,0,0,0,0,0,0,0,0,0,0],"id":46,"left_children":[1,3,5,7,9,-1,-1,11,13,15,17,19,21,-1,23,-1,25,27,-1,-1,-1,-1,-1,-1,-1,-1,-1,-1,-1],"loss_changes":[3.0132854E0,2.580121E0,1.2059069E-1,1.7462358E0,2.6003067E0,0E0,0E0,1.5020256E0,1.5095872E0,3.2610574E0,1.0428507E0,6.6578317E-1,1.7582493E0,0E0,1.0322876E0,0E0,2.2000442E0,9.113076E-1,0E0,0E0,0E0,0E0,0E0,0E0,0E0,0E0,0E0,0E0,0E0],"parents":[2147483647,0,0,1,1,2,2,3,3,4,4,7,7,8,8,9,9,10,10,11,11,12,12,14,14,16,16,17,17],"right_children":[2,4,6,8,10,-1,-1,12,14,16,18,20,22,-1,24,-1,26,28,-1,-1,-1,-1,-1,-1,-1,-1,-1,-1,-1],"split_conditions":[1.020589E7,2.969399E-3,2.0365883E-2,8.2675624E-1,9.275061E6,-4.282091E-2,-9.180398E-3,7.331216E-2,7.7356175E6,7.2974265E6,1.7721301E-2,-2.9132579E-2,1.0100526E7,2.360871E-2,-3.5118476E-2,3.8622525E-2,-7.3074615E-1,1.0249188E7,-1.3960241E-2,1.2706918E-2,-2.7174413E-2,3.5027232E-2,-1.7385341E-2,7.983283E-3,-4.2668976E-2,9.195542E-3,-3.731133E-2,4.585601E-2,2.5590379E-3],"split_indices":[11,7,9,21,13,0,0,19,0,13,10,5,13,0,5,0,21,3,0,0,0,0,0,0,0,0,0,0,0],"split_type":[0,0,0,0,0,0,0,0,0,0,0,0,0,0,0,0,0,0,0,0,0,0,0,0,0,0,0,0,0],"sum_hessian":[4.468821E1,4.1203125E1,3.4850872E0,2.1642517E1,1.9560608E1,2.4783566E0,1.0067304E0,1.7159094E1,4.4834228E0,1.3944959E1,5.615649E0,2.3607857E0,1.4798307E1,1.4570637E0,3.026359E0,1.315723E0,1.2629235E1,4.4130216E0,1.2026277E0,1.1711642E0,1.1896216E0,1.3604217E1,1.1940916E0,1.1224525E0,1.9039066E0,2.8829153E0,9.746321E0,2.2860117E0,2.1270099E0],"tree_param":{"num_deleted":"0","num_feature":"22","num_nodes":"29","size_leaf_vector":"1"}},{"base_weights":[4.1599818E-2,4.4627942E-2,-2.127013E-2,4.1292652E-2,-8.882255E-2,1.2349403E-1,-4.316641E-1,-3.6213386E-1,2.7111185E-1,6.3364275E-2,-8.3003134E-1,1.6611123E-2,-4.007407E-2,2.0941231E-2,-2.9648183E-2,2.9673854E-2,-2.4003142E-2,-4.752582E-2,2.0563006E-3],"categories":[],"categories_nodes":[],"categories_segments":[],"categories_sizes":[],"default_left":[0,0,0,0,0,0,0,0,0,0,0,0,0,0,0,0,0,0,0],"id":47,"left_children":[1,-1,3,-1,5,7,9,11,13,15,17,-1,-1,-1,-1,-1,-1,-1,-1],"loss_changes":[2.4723105E0,0E0,2.572873E0,0E0,3.0636265E0,1.9847755E0,3.2154665E0,2.2683945E0,2.8972907E0,2.6127896E0,9.7932434E-1,0E0,0E0,0E0,0E0,0E0,0E0,0E0,0E0],"parents":[2147483647,0,0,2,2,4,4,5,5,6,6,7,7,8,8,9,9,10,10],"right_children":[2,-1,4,-1,6,8,10,12,14,16,18,-1,-1,-1,-1,-1,-1,-1,-1],"split_conditions":[7.2545495E6,4.4627942E-2,-5.9128687E-2,4.1292652E-2,2.7126916E5,8.422318E6,-4.7582242E-1,2.1924811E5,1.020589E7,8.450942E6,4.8514324E-1,1.6611123E-2,-4.007407E-2,2.0941231E-2,-2.9648183E-2,2.9673854E-2,-2.4003142E-2,-4.752582E-2,2.0563006E-3],"split_indices":[12,0,6,0,16,11,21,16,11,3,19,0,0,0,0,0,0,0,0],"split_type":[0,0,0,0,0,0,0,0,0,0,0,0,0,0,0,0,0,0,0],"sum_hessian":[4.485677E1,2.1781473E0,4.2678623E1,2.322948E0,4.0355675E1,2.531702E1,1.5038654E1,5.562971E0,1.975405E1,7.080749E0,7.9579053E0,2.2503254E0,3.3126454E0,1.7310184E1,2.4438658E0,3.5376616E0,3.5430875E0,6.910989E0,1.0469168E0],"tree_param":{"num_deleted":"0","num_feature":"22","num_nodes":"19","size_leaf_vector":"1"}},{"base_weights":[-5.3695235E-2,5.5466616E-1,-1.2484793E-1,3.80998E-2,-6.1567654E-3,2.352907E-1,-2.9160833E-1,6.829165E-1,-3.3713114E-1,-7.9468094E-2,-8.515464E-1,-3.2865906E-3,8.534896E-1,4.86051E-1,-8.5899085E-1,-4.8410222E-2,9.154295E-2,-6.196866E-3,-5.166484E-2,5.8582883E-2,6.663566E-3,-2.0408747E-3,4.0909123E-2,-5.271552E-2,-4.7074445E-3,3.347579E-2,-8.345305E-3],"categories":[],"categories_nodes":[],"categories_segments":[],"categories_sizes":[],"default_left":[0,0,0,0,0,0,0,0,0,0,0,0,0,0,0,0,0,0,0,0,0,0,0,0,0,0,0],"id":48,"left_children":[1,3,5,-1,-1,7,9,11,13,15,17,-1,19,21,23,-1,25,-1,-1,-1,-1,-1,-1,-1,-1,-1,-1],"loss_changes":[2.056232E0,7.951058E-1,2.5857592E0,0E0,0E0,3.7709749E0,3.38829E0,1.0885618E0,3.3101165E0,3.4631302E0,9.154844E-1,0E0,1.3691483E0,6.023119E-1,5.7034755E-1,0E0,3.0296292E0,0E0,0E0,0E0,0E0,0E0,0E0,0E0,0E0,0E0,0E0],"parents":[2147483647,0,0,1,1,2,2,5,5,6,6,7,7,8,8,9,9,10,10,12,12,13,13,14,14,16,16],"right_children":[2,4,6,-1,-1,8,10,12,14,16,18,-1,20,22,24,-1,26,-1,-1,-1,-1,-1,-1,-1,-1,-1,-1],"split_conditions":[7.5428555E6,8.088702E6,-2.9228458E-2,3.80998E-2,-6.1567654E-3,2.3281377E-2,2.7126916E5,6.217677E-2,4.7304603E12,8.514539E6,2.463454E-1,-3.2865906E-3,-4.1705485E-2,-4.8531346E-2,9.887866E6,-4.8410222E-2,5.2386017E1,-6.196866E-3,-5.166484E-2,5.8582883E-2,6.663566E-3,-2.0408747E-3,4.0909123E-2,-5.271552E-2,-4.7074445E-3,3.347579E-2,-8.345305E-3],"split_indices":[13,0,14,0,0,9,16,19,4,0,18,0,14,14,13,0,17,0,0,0,0,0,0,0,0,0,0],"split_type":[0,0,0,0,0,0,0,0,0,0,0,0,0,0,0,0,0,0,0,0,0,0,0,0,0,0,0],"sum_hessian":[4.4903008E1,3.9902873E0,4.091272E1,2.9604967E0,1.0297908E0,1.2818568E1,2.8094152E1,7.085094E0,5.733474E0,2.120302E1,6.8911324E0,1.4287825E0,5.6563115E0,2.25114E0,3.4823337E0,2.6692753E0,1.8533745E1,1.713463E0,5.1776695E0,3.4884312E0,2.1678805E0,1.2095327E0,1.0416075E0,2.4724658E0,1.009868E0,5.235351E0,1.3298394E1],"tree_param":{"num_deleted":"0","num_feature":"22","num_nodes":"27","size_leaf_vector":"1"}},{"base_weights":[1.1405405E-2,1.04411736E-1,-5.9164685E-1,6.9346654E-1,-4.18356E-3,1.5035755E-2,-8.4114784E-1,4.485245E-2,-6.668745E-3,2.1948273E-1,-3.7067845E-1,-4.9192544E-2,-1.0533769E-2,3.3115327E-1,-5.363362E-1,3.287908E-2,-5.304546E-1,2.2063714E-2,-3.6392793E-2,-3.811426E-2,-8.230577E-4,-4.474781E-2,6.928191E-4],"categories":[],"categories_nodes":[],"categories_segments":[],"categories_sizes":[],"default_left":[0,0,0,0,0,0,0,0,0,0,0,0,0,0,0,0,0,0,0,0,0,0,0],"id":49,"left_children":[1,3,5,7,9,-1,11,-1,-1,13,15,-1,-1,17,19,-1,21,-1,-1,-1,-1,-1,-1],"loss_changes":[2.6085699E0,2.5738058E0,1.6371915E0,1.1737177E0,2.9445095E0,0E0,2.5356722E-1,0E0,0E0,2.0613751E0,2.5847244E0,0E0,0E0,2.6610277E0,3.697775E-1,0E0,2.4592173E0,0E0,0E0,0E0,0E0,0E0,0E0],"parents":[2147483647,0,0,1,1,2,2,3,3,4,4,6,6,9,9,10,10,13,13,14,14,16,16],"right_children":[2,4,6,8,10,-1,12,-1,-1,14,16,-1,-1,18,20,-1,22,-1,-1,-1,-1,-1,-1],"split_conditions":[1.0165027E7,2.1356964E5,-2.1300744E-2,8.091946E1,5.113564E1,1.5035755E-2,7.891943E-2,4.485245E-2,-6.668745E-3,7.121549E-1,-1.701254E-2,-4.9192544E-2,-1.0533769E-2,4.703284E-2,2.5140531E-2,3.287908E-2,6.687791E1,2.2063714E-2,-3.6392793E-2,-3.811426E-2,-8.230577E-4,-4.474781E-2,6.928191E-4],"split_indices":[11,16,5,17,17,0,15,0,0,18,5,0,0,9,9,0,17,0,0,0,0,0,0],"split_type":[0,0,0,0,0,0,0,0,0,0,0,0,0,0,0,0,0,0,0,0,0,0,0],"sum_hessian":[4.4407387E1,3.9190117E1,5.2172728E0,5.2619367E0,3.392818E1,1.0951408E0,4.1221323E0,4.1541934E0,1.1077435E0,2.131878E1,1.2609399E1,2.9042723E0,1.2178597E0,1.9063982E1,2.2547987E0,1.2767922E0,1.1332606E1,1.7796707E1,1.2672749E0,1.2466794E0,1.0081192E0,6.4015584E0,4.9310484E0],"tree_param":{"num_deleted":"0","num_feature":"22","num_nodes":"23","size_leaf_vector":"1"}},{"base_weights":[3.7387118E-2,4.6312585E-1,-7.4569285E-2,4.9619038E-2,2.6923386E-2,9.470126E-2,-5.365586E-1,-3.2734996E-1,3.0687047E-2,2.4139151E-1,-3.5319543E-1,3.952191E-1,-9.0535027E-1,1.6009362E-2,-4.536105E-2,-1.0973476E-1,5.505299E-1,3.6537558E-1,-7.7351743E-1,3.7075464E-2,-1.1084612E-2,-5.64874E-2,-2.4004841E-1,-2.7975583E-2,1.1413719E-2,3.939068E-2,-2.080133E-3,3.6576733E-2,-7.2932257E-3,2.605229E-3,-5.0704964E-2,-3.2939475E-2,1.49979545E-2],"categories":[],"categories_nodes":[],"categories_segments":[],"categories_sizes":[],"default_left":[0,0,0,0,0,0,0,0,0,0,0,0,0,0,0,0,0,0,0,0,0,0,0,0,0,0,0,0,0,0,0,0,0],"id":50,"left_children":[1,3,5,-1,7,9,11,13,-1,15,17,19,21,-1,-1,23,25,27,29,-1,-1,-1,31,-1,-1,-1,-1,-1,-1,-1,-1,-1,-1],"loss_changes":[2.116421E0,2.1048698E0,2.8226578E0,0E0,1.4668607E0,1.8454528E0,3.6754081E0,1.961109E0,0E0,2.3154764E0,2.401513E0,8.9794374E-1,8.068056E-1,0E0,0E0,1.7332623E0,1.6084232E0,7.185194E-1,9.9576163E-1,0E0,0E0,0E0,8.9655817E-1,0E0,0E0,0E0,0E0,0E0,0E0,0E0,0E0,0E0,0E0],"parents":[2147483647,0,0,1,1,2,2,4,4,5,5,6,6,7,7,9,9,10,10,11,11,12,12,15,15,16,16,17,17,18,18,22,22],"right_children":[2,4,6,-1,8,10,12,14,-1,16,18,20,22,-1,-1,24,26,28,30,-1,-1,-1,32,-1,-1,-1,-1,-1,-1,-1,-1,-1,-1],"split_conditions":[7.9827095E6,5.5109145E-4,2.0226957E-2,4.9619038E-2,7.341699E6,2.434942E-2,2.1356964E5,7.206364E6,3.0687047E-2,4.722473E12,-4.812575E-1,1.0192313E7,1.0073712E7,1.6009362E-2,-4.536105E-2,8.853176E6,1.0043253E7,7.138093E6,-6.661004E-2,3.7075464E-2,-1.1084612E-2,-5.64874E-2,2.2121263E-1,-2.7975583E-2,1.1413719E-2,3.939068E-2,-2.080133E-3,3.6576733E-2,-7.2932257E-3,2.605229E-3,-5.0704964E-2,-3.2939475E-2,1.49979545E-2],"split_indices":[13,6,8,0,12,9,16,12,0,4,21,0,2,0,0,12,13,2,6,0,0,0,20,0,0,0,0,0,0,0,0,0,0],"split_type":[0,0,0,0,0,0,0,0,0,0,0,0,0,0,0,0,0,0,0,0,0,0,0,0,0,0,0,0,0,0,0,0,0],"sum_hessian":[4.2678207E1,8.233158E0,3.444505E1,3.1437387E0,5.08942E0,2.579054E1,8.654509E0,3.4492188E0,1.640201E0,1.9775078E1,6.015463E0,2.4337668E0,6.2207413E0,1.8411038E0,1.608115E0,