{"learner":{"attributes":{},"feature_names":["open","high","low","close","volume","ret_1","ret_3","ret_5","ret_10","vol_10","vol_20","ma_10","ma_20","ma_50","close_over_ma20","close_over_ma50","atr_14","rsi_14","body_to_range","upper_wick","lower_wick","vol_zscore_20"],"feature_types":["float","float","float","float","int","float","float","float","float","float","float","float","float","float","float","float","float","float","float","float","float","float"],"gradient_booster":{"model":{"cats":{"enc":[],"feature_segments":[],"sorted_idx":[]},"gbtree_model_param":{"num_parallel_tree":"1","num_trees":"150"},"iteration_indptr":[0,1,2,3,4,5,6,7,8,9,10,11,12,13,14,15,16,17,18,19,20,21,22,23,24,25,26,27,28,29,30,31,32,33,34,35,36,37,38,39,40,41,42,43,44,45,46,47,48,49,50,51,52,53,54,55,56,57,58,59,60,61,62,63,64,65,66,67,68,69,70,71,72,73,74,75,76,77,78,79,80,81,82,83,84,85,86,87,88,89,90,91,92,93,94,95,96,97,98,99,100,101,102,103,104,105,106,107,108,109,110,111,112,113,114,115,116,117,118,119,120,121,122,123,124,125,126,127,128,129,130,131,132,133,134,135,136,137,138,139,140,141,142,143,144,145,146,147,148,149,150],"tree_info":[0,0,0,0,0,0,0,0,0,0,0,0,0,0,0,0,0,0,0,0,0,0,0,0,0,0,0,0,0,0,0,0,0,0,0,0,0,0,0,0,0,0,0,0,0,0,0,0,0,0,0,0,0,0,0,0,0,0,0,0,0,0,0,0,0,0,0,0,0,0,0,0,0,0,0,0,0,0,0,0,0,0,0,0,0,0,0,0,0,0,0,0,0,0,0,0,0,0,0,0,0,0,0,0,0,0,0,0,0,0,0,0,0,0,0,0,0,0,0,0,0,0,0,0,0,0,0,0,0,0,0,0,0,0,0,0,0,0,0,0,0,0,0,0,0,0,0,0,0,0],"trees":[{"base_weights":[2.2255387E-2,1.2242893E0,-1.3657796E-2,-7.901118E-3,7.3268816E-2,5.567095E-1,-9.307037E-2,8.041564E-1,6.920928E-2,-1.2758927E-1,9.803729E-1,-1.5016495E-1,1.0439847E0,-7.706076E-1,7.2514606E-1,-9.5038325E-2,-1.1691381E0,-2.810709E-2,1.3191699E0,2.80821E-2,-4.343294E-2,3.1594695E-3,6.88128E-2,5.27168E-2,-7.018896E-2,-2.810709E-2,5.1866014E-2,-3.698161E-2,-2.0710272E-3,8.0685215E-3,-7.7894546E-2,7.608477E-2,3.906709E-3],"categories":[],"categories_nodes":[],"categories_segments":[],"categories_sizes":[],"default_left":[0,0,0,0,0,0,0,0,0,0,0,0,0,0,0,0,0,0,0,0,0,0,0,0,0,0,0,0,0,0,0,0,0],"id":0,"left_children":[1,3,5,-1,-1,7,9,11,13,15,17,19,21,23,25,27,29,-1,31,-1,-1,-1,-1,-1,-1,-1,-1,-1,-1,-1,-1,-1,-1],"loss_changes":[1.5750401E1,3.758874E0,1.6126043E1,0E0,0E0,5.1936035E0,1.1699617E1,6.7414646E0,9.232288E0,1.0179298E1,5.8876457E0,3.89006E0,7.4468765E0,1.0018723E1,4.3427405E0,1.017929E1,4.963361E0,0E0,1.9854803E0,0E0,0E0,0E0,0E0,0E0,0E0,0E0,0E0,0E0,0E0,0E0,0E0,0E0,0E0],"parents":[2147483647,0,0,1,1,2,2,5,5,6,6,7,7,8,8,9,9,10,10,11,11,12,12,13,13,14,14,15,15,16,16,18,18],"right_children":[2,4,6,-1,-1,8,10,12,14,16,18,20,22,24,26,28,30,-1,32,-1,-1,-1,-1,-1,-1,-1,-1,-1,-1,-1,-1,-1,-1],"split_conditions":[1.4157478E2,6.1727894E1,-2.8909625E-2,-7.901118E-3,7.3268816E-2,3.264368E-1,1.763624E-2,5.338942E-2,-1.3953083E-2,5.6194047E4,-1.8378533E-2,2.0761533E-2,1.884E5,-6.521918E-2,7.547847E-3,1.7465537E4,4.2250534E-3,-2.810709E-2,1.1678353E-2,2.80821E-2,-4.343294E-2,3.1594695E-3,6.88128E-2,5.27168E-2,-7.018896E-2,-2.810709E-2,5.1866014E-2,-3.698161E-2,-2.0710272E-3,8.0685215E-3,-7.7894546E-2,7.608477E-2,3.906709E-3],"split_indices":[16,17,15,0,0,19,10,19,6,13,15,19,4,15,10,13,9,0,5,0,0,0,0,0,0,0,0,0,0,0,0,0,0],"split_type":[0,0,0,0,0,0,0,0,0,0,0,0,0,0,0,0,0,0,0,0,0,0,0,0,0,0,0,0,0,0,0,0,0],"sum_hessian":[3.634682E2,9.584354E0,3.5388385E2,1.474516E0,8.1098385E0,4.2515213E1,3.1136865E2,2.7770052E1,1.4745161E1,3.0252155E2,8.847096E0,5.652312E0,2.211774E1,6.3895698E0,8.355591E0,2.944117E2,8.1098385E0,1.474516E0,7.3725805E0,2.949032E0,2.7032795E0,5.898064E0,1.6219677E1,1.474516E0,4.9150534E0,1.474516E0,6.881075E0,2.1626236E1,2.7278546E2,1.9660214E0,6.143817E0,6.143817E0,1.2287633E0],"tree_param":{"num_deleted":"0","num_feature":"22","num_nodes":"33","size_leaf_vector":"1"}},{"base_weights":[-5.6811157E-3,1.368295E0,-5.490649E-2,3.2403995E-3,7.493979E-2,-5.6535864E-1,3.580972E-2,1.0187761E-1,-1.0060221E0,-4.047636E-2,7.713304E-1,-4.7522795E-1,7.747471E-1,3.3268105E-2,-1.1056191E0,2.788713E-1,-1.8748952E-1,5.5142507E-2,1.0012982E0,-6.546881E-2,2.8036598E-2,5.2931797E-2,-2.8521416E-3,-6.146983E-2,3.3829163E-3,3.980127E-3,4.4672012E-2,-1.1834322E-2,6.4497605E-2,3.438809E-2,-4.42716E-2,-5.7855877E-3,6.3577496E-2],"categories":[],"categories_nodes":[],"categories_segments":[],"categories_sizes":[],"default_left":[0,0,0,0,0,0,0,0,0,0,0,0,0,0,0,0,0,0,0,0,0,0,0,0,0,0,0,0,0,0,0,0,0],"id":1,"left_children":[1,3,5,-1,-1,7,9,11,13,15,17,19,21,-1,23,25,27,29,31,-1,-1,-1,-1,-1,-1,-1,-1,-1,-1,-1,-1,-1,-1],"loss_changes":[2.5333126E1,2.1066456E0,1.6759651E1,0E0,0E0,1.6158937E1,1.7306606E1,9.155215E0,6.2256966E0,1.3193226E1,4.7181225E0,1.1796021E1,2.6171808E0,0E0,4.657959E0,1.0783753E1,1.4280222E1,5.4301553E0,6.751974E0,0E0,0E0,0E0,0E0,0E0,0E0,0E0,0E0,0E0,0E0,0E0,0E0,0E0,0E0],"parents":[2147483647,0,0,1,1,2,2,5,5,6,6,7,7,8,8,9,9,10,10,11,11,12,12,14,14,15,15,16,16,17,17,18,18],"right_children":[2,4,6,-1,-1,8,10,12,14,16,18,20,22,-1,24,26,28,30,32,-1,-1,-1,-1,-1,-1,-1,-1,-1,-1,-1,-1,-1,-1],"split_conditions":[1.4157478E2,8.4635764E-2,-9.039511E-1,3.2403995E-3,7.493979E-2,2.499854E4,6.0764587E-1,5.730684E-3,2.5123745E1,-8.510412E-3,-9.840738E-3,1.976682E4,3.4495014E-1,3.3268105E-2,7.358979E-1,3.017E5,1.7198538E-2,3.1038644E-4,1.7418596E2,-6.546881E-2,2.8036598E-2,5.2931797E-2,-2.8521416E-3,-6.146983E-2,3.3829163E-3,3.980127E-3,4.4672012E-2,-1.1834322E-2,6.4497605E-2,3.438809E-2,-4.42716E-2,-5.7855877E-3,6.3577496E-2],"split_indices":[16,20,21,0,0,13,20,14,17,15,14,12,19,0,18,4,10,6,16,0,0,0,0,0,0,0,0,0,0,0,0,0,0],"split_type":[0,0,0,0,0,0,0,0,0,0,0,0,0,0,0,0,0,0,0,0,0,0,0,0,0,0,0,0,0,0,0,0,0],"sum_hessian":[3.7244846E2,1.1955332E1,3.6049313E2,1.2242005E0,1.0731132E1,5.360882E1,3.068843E2,2.1628525E1,3.1980299E1,2.7890234E2,2.7981974E1,1.1800887E1,9.827637E0,1.479054E0,3.0501245E1,8.7636986E1,1.9126535E2,7.102491E0,2.0879482E1,6.390983E0,5.4099045E0,7.12363E0,2.7040064E0,2.7547256E1,2.9539893E0,6.703197E1,2.060502E1,1.8591443E2,5.3509107E0,4.407108E0,2.695383E0,4.178919E0,1.6700563E1],"tree_param":{"num_deleted":"0","num_feature":"22","num_nodes":"33","size_leaf_vector":"1"}},{"base_weights":[-3.8847275E-2,1.4279958E0,-8.143837E-2,2.3420911E-2,7.50533E-2,4.7051415E-1,-1.6191088E-1,6.817109E-1,-1.1514315E-1,-1.9746749E-1,9.3794256E-1,9.270493E-1,7.899739E-2,-9.4452554E-1,4.0845102E-1,1.0679016E0,-2.2450006E-1,-1.872118E-2,1.1596795E0,5.2867986E-2,-4.2713083E-2,-2.9782007E-2,6.6634655E-2,-9.745883E-3,-7.4857496E-2,-1.671521E-2,5.718268E-2,7.290592E-2,-1.8063046E-2,-5.0071906E-2,-8.8914E-3,7.2305016E-2,-2.0870436E-3],"categories":[],"categories_nodes":[],"categories_segments":[],"categories_sizes":[],"default_left":[0,0,0,0,0,0,0,0,0,0,0,0,0,0,0,0,0,0,0,0,0,0,0,0,0,0,0,0,0,0,0,0,0],"id":2,"left_children":[1,3,5,-1,-1,7,9,11,13,15,17,19,21,23,25,27,29,-1,31,-1,-1,-1,-1,-1,-1,-1,-1,-1,-1,-1,-1,-1,-1],"loss_changes":[2.3538837E1,4.2402267E-2,1.6300879E1,0E0,0E0,5.8592167E0,1.2681691E1,5.0273E0,6.1363997E0,1.0856124E1,3.3968344E0,6.57209E0,1.0158432E1,1.9561539E0,5.1963816E0,4.243975E0,1.0870697E1,0E0,3.1413212E0,0E0,0E0,0E0,0E0,0E0,0E0,0E0,0E0,0E0,0E0,0E0,0E0,0E0,0E0],"parents":[2147483647,0,0,1,1,2,2,5,5,6,6,7,7,8,8,9,9,10,10,11,11,12,12,13,13,14,14,15,15,16,16,18,18],"right_children":[2,4,6,-1,-1,8,10,12,14,16,18,20,22,24,26,28,30,-1,32,-1,-1,-1,-1,-1,-1,-1,-1,-1,-1,-1,-1,-1,-1],"split_conditions":[1.4157478E2,5.5330403E-2,-2.7461581E-2,2.3420911E-2,7.50533E-2,3.858358E1,1.763624E-2,3.872208E-1,-1.3642996E-2,1.6296843E4,-1.1530346E-2,2.4990022E0,-2.110843E-2,1.1843754E-2,-1.1164759E-2,9.445085E-3,1.7465537E4,-1.872118E-2,3.5464868E-2,5.2867986E-2,-4.2713083E-2,-2.9782007E-2,6.6634655E-2,-9.745883E-3,-7.4857496E-2,-1.671521E-2,5.718268E-2,7.290592E-2,-1.8063046E-2,-5.0071906E-2,-8.8914E-3,7.2305016E-2,-2.0870436E-3],"split_indices":[16,19,15,0,0,17,10,19,6,13,15,21,14,10,8,10,13,0,14,0,0,0,0,0,0,0,0,0,0,0,0,0,0],"split_type":[0,0,0,0,0,0,0,0,0,0,0,0,0,0,0,0,0,0,0,0,0,0,0,0,0,0,0,0,0,0,0,0,0],"sum_hessian":[3.7391394E2,9.632747E0,3.6428122E2,1.2059807E0,8.426766E0,4.573598E1,3.1854523E2,3.349366E1,1.2242322E1,3.0936438E2,9.180829E0,2.3421614E1,1.0072046E1,4.4265933E0,7.8157287E0,5.665457E0,3.0369894E2,1.2274554E0,7.9533734E0,2.2203732E1,1.2178823E0,6.889544E0,3.182502E0,2.4525466E0,1.9740467E0,4.159146E0,3.6565826E0,4.434426E0,1.2310307E0,1.6050661E1,2.876483E2,6.2578363E0,1.6955372E0],"tree_param":{"num_deleted":"0","num_feature":"22","num_nodes":"33","size_leaf_vector":"1"}},{"base_weights":[4.2124636E-2,1.2892764E0,6.4064227E-3,2.0117505E-2,7.200534E-2,4.3788064E-1,-9.662362E-2,1.6787468E-1,8.026471E-1,-1.3973023E-1,1.1797642E0,3.5551476E-1,-6.6113806E-1,8.943708E-1,-2.9108932E-2,-9.3021035E-2,-9.2729366E-1,6.702583E-2,8.178971E-4,2.8244501E-2,-3.891708E-2,-6.308555E-2,4.0887408E-2,4.829697E-2,-1.9294722E-2,-7.707357E-3,2.5897795E-2,-7.2405845E-2,1.7827583E-2],"categories":[],"categories_nodes":[],"categories_segments":[],"categories_sizes":[],"default_left":[0,0,0,0,0,0,0,0,0,0,0,0,0,0,0,0,0,0,0,0,0,0,0,0,0,0,0,0,0],"id":3,"left_children":[1,3,5,-1,-1,7,9,11,13,15,17,19,21,23,-1,25,27,-1,-1,-1,-1,-1,-1,-1,-1,-1,-1,-1,-1],"loss_changes":[1.6793268E1,8.2473373E-1,1.638727E1,0E0,0E0,6.8632326E0,1.6540268E1,6.783116E0,4.326071E0,1.0537438E1,1.8162851E0,8.742954E0,8.242843E0,2.9833736E0,0E0,1.0302968E1,1.125325E1,0E0,0E0,0E0,0E0,0E0,0E0,0E0,0E0,0E0,0E0,0E0,0E0],"parents":[2147483647,0,0,1,1,2,2,5,5,6,6,7,7,8,8,9,9,10,10,11,11,12,12,13,13,15,15,16,16],"right_children":[2,4,6,-1,-1,8,10,12,14,16,18,20,22,24,-1,26,28,-1,-1,-1,-1,-1,-1,-1,-1,-1,-1,-1,-1],"split_conditions":[1.4157478E2,1.0193349E-1,-2.0762417E-2,2.0117505E-2,7.200534E-2,1.7257795E-1,1.763624E-2,4.5934708E1,8.14941E-1,1.3933283E-2,5.21893E4,1.6782654E-2,6.988214E2,6.850708E-1,-2.9108932E-2,3.5464868E-2,3.855225E4,6.702583E-2,8.178971E-4,2.8244501E-2,-3.891708E-2,-6.308555E-2,4.0887408E-2,4.829697E-2,-1.9294722E-2,-7.707357E-3,2.5897795E-2,-7.2405845E-2,1.7827583E-2],"split_indices":[16,19,15,0,0,21,10,17,18,10,3,21,16,20,0,14,0,0,0,0,0,0,0,0,0,0,0,0,0],"split_type":[0,0,0,0,0,0,0,0,0,0,0,0,0,0,0,0,0,0,0,0,0,0,0,0,0,0,0,0,0],"sum_hessian":[3.7617227E2,9.496399E0,3.6667587E2,1.913287E0,7.583112E0,7.005329E1,2.966226E2,4.109462E1,2.8958668E1,2.8779367E2,8.82894E0,3.397567E1,7.11895E0,2.749191E1,1.4667575E0,2.727362E2,1.5057459E1,7.623357E0,1.2055837E0,2.9103317E1,4.8723536E0,5.1673493E0,1.9516002E0,2.6268955E1,1.2229549E0,2.4861122E2,2.4124975E1,1.0620885E1,4.436574E0],"tree_param":{"num_deleted":"0","num_feature":"22","num_nodes":"29","size_leaf_vector":"1"}},{"base_weights":[3.1432707E-2,-4.0023884E-1,1.0712349E-1,-6.366945E-1,6.049267E-1,3.9255568E-1,-1.1315277E-2,4.5346297E-2,-7.371731E-1,8.717463E-1,-1.5751362E-2,4.434168E-1,-5.2039802E-2,-8.448939E-2,7.384642E-1,-1.2457132E0,-2.7956155E-1,2.2349843E-1,6.206576E-2,9.413096E-3,5.953235E-1,9.64554E-1,-1.295702E-1,-4.001197E-2,8.8251257E-1,-7.6189674E-2,3.4031828E-3,4.7859717E-2,-2.833043E-2,2.9124616E-2,-1.9784104E-2,-3.7458982E-2,3.7786867E-2,2.2252353E-2,6.2895425E-2,-1.45849E-3,5.643451E-2,-8.618461E-3,5.3998895E-2,4.9873244E-2,-2.1493709E-2],"categories":[],"categories_nodes":[],"categories_segments":[],"categories_sizes":[],"default_left":[0,0,0,0,0,0,0,0,0,0,0,0,0,0,0,0,0,0,0,0,0,0,0,0,0,0,0,0,0,0,0,0,0,0,0,0,0,0,0,0,0],"id":4,"left_children":[1,3,5,7,9,11,13,-1,15,17,-1,19,-1,21,23,25,27,29,-1,31,33,35,37,-1,39,-1,-1,-1,-1,-1,-1,-1,-1,-1,-1,-1,-1,-1,-1,-1,-1],"loss_changes":[1.2094736E1,1.3514193E1,1.0640486E1,7.680111E0,2.9826956E0,7.1898003E0,1.2315011E1,0E0,9.657339E0,1.8350163E0,0E0,5.9167824E0,0E0,9.789768E0,5.1303015E0,7.437845E0,9.034194E0,1.2132457E0,0E0,1.43272915E1,6.0641117E0,1.4256554E0,1.0375363E1,0E0,3.2539577E0,0E0,0E0,0E0,0E0,0E0,0E0,0E0,0E0,0E0,0E0,0E0,0E0,0E0,0E0,0E0,0E0],"parents":[2147483647,0,0,1,1,2,2,3,3,4,4,5,5,6,6,8,8,9,9,11,11,13,13,14,14,15,15,16,16,17,17,19,19,20,20,21,21,22,22,24,24],"right_children":[2,4,6,8,10,12,14,-1,16,18,-1,20,-1,22,24,26,28,30,-1,32,34,36,38,-1,40,-1,-1,-1,-1,-1,-1,-1,-1,-1,-1,-1,-1,-1,-1,-1,-1],"split_conditions":[-9.039511E-1,2.183E5,-8.206824E-3,2.5123745E1,1.2963026E-2,1.9790994E-2,6.288195E-1,4.5346297E-2,1.2611973E-3,8.216051E-3,-1.5751362E-2,-4.1421142E-1,-5.2039802E-2,1.4234654E2,-9.840738E-3,7.422597E2,2.0131418E2,2.3931266E-1,6.206576E-2,-3.6681422E-3,-5.926804E-3,-2.9243168E-3,1.763624E-2,-4.001197E-2,4.241E5,-7.6189674E-2,3.4031828E-3,4.7859717E-2,-2.833043E-2,2.9124616E-2,-1.9784104E-2,-3.7458982E-2,3.7786867E-2,2.2252353E-2,6.2895425E-2,-1.45849E-3,5.643451E-2,-8.618461E-3,5.3998895E-2,4.9873244E-2,-2.1493709E-2],"split_indices":[21,4,15,17,9,14,20,0,14,10,0,21,0,16,14,16,16,20,0,6,14,5,10,0,4,0,0,0,0,0,0,0,0,0,0,0,0,0,0,0,0],"split_type":[0,0,0,0,0,0,0,0,0,0,0,0,0,0,0,0,0,0,0,0,0,0,0,0,0,0,0,0,0,0,0,0,0,0,0,0,0,0,0,0,0],"sum_hessian":[3.6785675E2,5.4238976E1,3.1361777E2,4.4206417E1,1.0032561E1,9.129248E1,2.2232529E2,2.2111502E0,4.1995266E1,7.8175845E0,2.214977E0,8.883104E1,2.4614408E0,2.0336533E2,1.8959959E1,1.9075073E1,2.2920193E1,3.4212482E0,4.396336E0,2.3306208E1,6.552483E1,7.538816E0,1.958265E2,1.2330757E0,1.7726883E1,1.5610933E1,3.4641397E0,3.8778157E0,1.9042377E1,2.2031434E0,1.218105E0,1.1556208E1,1.175E1,5.4773666E1,1.07511635E1,1.1852537E0,6.3535624E0,1.8996233E2,5.8641906E0,1.6519865E1,1.2070181E0],"tree_param":{"num_deleted":"0","num_feature":"22","num_nodes":"41","size_leaf_vector":"1"}},{"base_weights":[3.7418075E-3,1.0823594E0,-2.9853791E-2,1.1421538E-2,1.2040435E0,4.3735492E-1,-9.092417E-2,1.2738445E0,1.8541183E-2,1.5306267E-1,9.1427296E-1,-1.2454415E-1,7.972305E-1,2.0956777E-2,6.776538E-2,-4.2367253E-1,6.1270416E-1,1.2294497E0,1.8168572E-1,-1.166577E0,-1.0463555E-1,-3.615689E-2,1.1289384E0,4.6993997E-2,-3.2454606E-2,5.2317556E-2,-1.7225033E-2,1.146439E-3,6.911553E-2,-3.977476E-2,3.8818482E-2,1.3386521E-2,-8.680678E-2,-2.2770042E-2,-2.0094188E-3,6.843371E-2,8.241627E-3],"categories":[],"categories_nodes":[],"categories_segments":[],"categories_sizes":[],"default_left":[0,0,0,0,0,0,0,0,0,0,0,0,0,0,0,0,0,0,0,0,0,0,0,0,0,0,0,0,0,0,0,0,0,0,0,0,0],"id":5,"left_children":[1,3,5,-1,7,9,11,13,-1,15,17,19,21,-1,-1,23,25,27,29,31,33,-1,35,-1,-1,-1,-1,-1,-1,-1,-1,-1,-1,-1,-1,-1,-1],"loss_changes":[1.3441915E1,8.892393E-1,1.0307231E1,0E0,8.439541E-2,5.523635E0,9.626888E0,1.8372536E-2,0E0,7.5157003E0,3.3322983E0,6.2738605E0,6.75366E0,0E0,0E0,4.523202E0,6.852941E0,1.9221249E0,3.9913867E0,5.106064E0,6.845373E0,0E0,2.0983725E0,0E0,0E0,0E0,0E0,0E0,0E0,0E0,0E0,0E0,0E0,0E0,0E0,0E0,0E0],"parents":[2147483647,0,0,1,1,2,2,4,4,5,5,6,6,7,7,9,9,10,10,11,11,12,12,15,15,16,16,17,17,18,18,19,19,20,20,22,22],"right_children":[2,4,6,-1,8,10,12,14,-1,16,18,20,22,-1,-1,24,26,28,30,32,34,-1,36,-1,-1,-1,-1,-1,-1,-1,-1,-1,-1,-1,-1,-1,-1],"split_conditions":[1.4157478E2,1.25199776E2,-2.8909625E-2,1.1421538E-2,5.469368E-3,-9.324738E-3,1.763624E-2,-5.640197E-3,1.8541183E-2,2.419E5,8.501647E-3,3.2251235E-3,-1.8378533E-2,2.0956777E-2,6.776538E-2,-6.521918E-2,3.114534E-1,7.0361267E-3,1.741E5,7.167102E1,-9.039511E-1,-3.615689E-2,3.5464868E-2,4.6993997E-2,-3.2454606E-2,5.2317556E-2,-1.7225033E-2,1.146439E-3,6.911553E-2,-3.977476E-2,3.8818482E-2,1.3386521E-2,-8.680678E-2,-2.2770042E-2,-2.0094188E-3,6.843371E-2,8.241627E-3],"split_indices":[16,16,15,0,9,7,10,8,0,4,6,9,15,0,0,15,19,10,4,17,21,0,14,0,0,0,0,0,0,0,0,0,0,0,0,0,0],"split_type":[0,0,0,0,0,0,0,0,0,0,0,0,0,0,0,0,0,0,0,0,0,0,0,0,0,0,0,0,0,0,0,0,0,0,0,0,0],"sum_hessian":[3.690548E2,1.0204746E1,3.5885004E2,1.6316618E0,8.573084E0,4.077168E1,3.1807837E2,7.4224634E0,1.1506207E0,2.6372122E1,1.4399558E1,3.0730548E2,1.077289E1,1.1806103E0,6.241853E0,1.1730957E1,1.4641165E1,9.593831E0,4.805727E0,4.6813827E0,3.0262408E2,1.7180842E0,9.054806E0,1.2145761E0,1.0516381E1,1.0012173E1,4.6289926E0,1.2081304E0,8.3857E0,1.6903982E0,3.115329E0,1.4812119E0,3.2001708E0,4.603021E1,2.565939E2,6.9155464E0,2.1392593E0],"tree_param":{"num_deleted":"0","num_feature":"22","num_nodes":"37","size_leaf_vector":"1"}},{"base_weights":[3.6146152E-3,6.868371E-1,-4.4853643E-2,1.207224E-1,1.1782205E0,-1.130696E-1,4.776593E-1,5.7785332E-2,-6.0473025E-1,1.3595245E0,4.2314003E-3,8.657891E-1,-1.5512045E-1,-2.3611091E-1,6.579906E-1,-7.177031E-2,1.6139556E-1,7.534205E-2,6.376459E-1,-9.698668E-2,1.1932147E0,1.0322342E0,-1.9079138E-1,-9.896441E-1,3.69573E-1,-5.374539E-1,8.297963E-1,3.4667496E-2,-4.160396E-2,-5.3357903E-4,4.8037987E-2,5.0405722E-2,-5.2488234E-2,7.0601605E-2,1.6047595E-2,-3.1310848E-3,6.043839E-2,-2.3839826E-2,-1.7095631E-3,-6.625101E-2,-1.603321E-2,3.8925987E-2,-1.7789824E-2,1.7053436E-2,-5.764371E-2,5.7038035E-2,1.30579565E-2],"categories":[],"categories_nodes":[],"categories_segments":[],"categories_sizes":[],"default_left":[0,0,0,0,0,0,0,0,0,0,0,0,0,0,0,0,0,0,0,0,0,0,0,0,0,0,0,0,0,0,0,0,0,0,0,0,0,0,0,0,0,0,0,0,0,0,0],"id":6,"left_children":[1,3,5,7,9,11,13,-1,15,17,-1,19,21,23,25,-1,27,-1,29,31,33,35,37,39,41,43,45,-1,-1,-1,-1,-1,-1,-1,-1,-1,-1,-1,-1,-1,-1,-1,-1,-1,-1,-1,-1],"loss_changes":[1.2273712E1,6.687522E0,1.2392495E1,1.0101164E1,2.4682732E0,1.277083E1,5.325241E0,0E0,5.334734E0,2.2064972E-1,0E0,4.1498156E0,1.2699824E1,4.398916E0,7.0857315E0,0E0,3.2564948E0,0E0,7.678553E-1,5.451503E0,1.38381E0,1.7699432E0,1.2857391E1,5.1960516E-1,1.9462171E0,2.9176798E0,4.7697678E0,0E0,0E0,0E0,0E0,0E0,0E0,0E0,0E0,0E0,0E0,0E0,0E0,0E0,0E0,0E0,0E0,0E0,0E0,0E0,0E0],"parents":[2147483647,0,0,1,1,2,2,3,3,4,4,5,5,6,6,8,8,9,9,11,11,12,12,13,13,14,14,16,16,18,18,19,19,20,20,21,21,22,22,23,23,24,24,25,25,26,26],"right_children":[2,4,6,8,10,12,14,-1,16,18,-1,20,22,24,26,-1,28,-1,30,32,34,36,38,40,42,44,46,-1,-1,-1,-1,-1,-1,-1,-1,-1,-1,-1,-1,-1,-1,-1,-1,-1,-1,-1,-1],"split_conditions":[-3.721719E-2,-4.1702982E-2,5.6189513E-1,-6.521918E-2,4.7823635E-1,1.1814349E-2,-5.404327E-4,5.7785332E-2,-4.1372858E-2,4.1242726E-3,4.2314003E-3,2.300819E2,1.4157478E2,1.6043502E-1,4.014742E1,-7.177031E-2,2.7648813E-1,7.534205E-2,1.6197314E-2,2.333E5,5.07361E4,9.510509E-2,6.2111085E-3,2.59061E4,-2.6209627E-3,-1.2178249E-2,2.7698439E-2,3.4667496E-2,-4.160396E-2,-5.3357903E-4,4.8037987E-2,5.0405722E-2,-5.2488234E-2,7.0601605E-2,1.6047595E-2,-3.1310848E-3,6.043839E-2,-2.3839826E-2,-1.7095631E-3,-6.625101E-2,-1.603321E-2,3.8925987E-2,-1.7789824E-2,1.7053436E-2,-5.764371E-2,5.7038035E-2,1.30579565E-2],"split_indices":[15,8,20,15,20,20,5,0,7,7,0,16,16,18,17,0,19,0,9,4,0,20,9,0,5,14,8,0,0,0,0,0,0,0,0,0,0,0,0,0,0,0,0,0,0,0,0],"split_type":[0,0,0,0,0,0,0,0,0,0,0,0,0,0,0,0,0,0,0,0,0,0,0,0,0,0,0,0,0,0,0,0,0,0,0,0,0,0,0,0,0,0,0,0,0,0,0],"sum_hessian":[3.6871317E2,2.355164E1,3.4516153E2,1.152247E1,1.2029169E1,3.0599622E2,3.916531E1,4.503855E0,7.0186157E0,1.0109901E1,1.9192679E0,1.1796993E1,2.9419922E2,7.836862E0,3.1328447E1,2.9483073E0,4.070308E0,7.4933214E0,2.6165793E0,3.1724315E0,8.624561E0,7.7658224E0,2.864334E2,3.209716E0,4.6271462E0,3.6692326E0,2.7659214E1,2.8476403E0,1.222668E0,1.1919476E0,1.4246318E0,1.4419149E0,1.7305167E0,6.4001846E0,2.2243767E0,1.1678883E0,6.5979342E0,1.0062084E2,1.8581256E2,1.484728E0,1.7249882E0,2.9120982E0,1.715048E0,1.6951597E0,1.9740728E0,1.7230457E1,1.0428758E1],"tree_param":{"num_deleted":"0","num_feature":"22","num_nodes":"47","size_leaf_vector":"1"}},{"base_weights":[2.0629179E-2,1.1866951E0,-1.3730777E-2,1.6815968E-2,1.2519203E0,-1.1326852E-1,3.393802E-1,1.7786672E-2,6.656666E-2,-4.0489036E-1,1.0566566E-1,6.330501E-1,-2.6485553E-1,-7.0981413E-1,-1.12133145E-1,4.4281118E-2,8.0511135E-1,7.1695566E-1,-4.7500074E-1,7.765828E-1,-7.3744625E-1,4.8359968E-2,-3.8089715E-2,-1.2469044E-2,4.0131353E-2,1.1437963E-2,-1.0850381E-2,-2.0414865E-2,4.8223417E-2,-2.8380841E-2,3.834841E-2,1.6953161E-2,-5.5426933E-2,6.47115E-2,-9.666193E-3,3.443347E-2,-4.582368E-2],"categories":[],"categories_nodes":[],"categories_segments":[],"categories_sizes":[],"default_left":[0,0,0,0,0,0,0,0,0,0,0,0,0,0,0,0,0,0,0,0,0,0,0,0,0,0,0,0,0,0,0,0,0,0,0,0,0],"id":7,"left_children":[1,3,5,-1,7,9,11,-1,-1,13,15,17,19,21,23,25,27,29,31,33,35,-1,-1,-1,-1,-1,-1,-1,-1,-1,-1,-1,-1,-1,-1,-1,-1],"loss_changes":[1.4886198E1,1.6880798E-1,1.2744429E1,0E0,2.0318699E-1,1.8095648E1,1.4318002E1,0E0,0E0,1.0762728E1,6.932691E0,5.357136E0,1.3756236E1,5.9064827E0,8.12887E0,7.2926264E0,2.9145498E0,3.6834545E0,2.6450107E0,4.692615E0,5.466317E0,0E0,0E0,0E0,0E0,0E0,0E0,0E0,0E0,0E0,0E0,0E0,0E0,0E0,0E0,0E0,0E0],"parents":[2147483647,0,0,1,1,2,2,4,4,5,5,6,6,9,9,10,10,11,11,12,12,13,13,14,14,15,15,16,16,17,17,18,18,19,19,20,20],"right_children":[2,4,6,-1,8,10,12,-1,-1,14,16,18,20,22,24,26,28,30,32,34,36,-1,-1,-1,-1,-1,-1,-1,-1,-1,-1,-1,-1,-1,-1,-1,-1],"split_conditions":[1.4157478E2,8.6586505E-2,3.017E5,1.6815968E-2,1.25199776E2,-8.596671E-4,6.2416855E1,1.7786672E-2,6.656666E-2,-3.710761E-1,6.5072435E-1,5.5110705E-1,9.882976E-2,1.669561E4,7.662425E2,6.3320652E1,5.1210765E-3,7.710147E-2,3.261E5,2.3935701E2,-2.1900268E-1,4.8359968E-2,-3.8089715E-2,-1.2469044E-2,4.0131353E-2,1.1437963E-2,-1.0850381E-2,-2.0414865E-2,4.8223417E-2,-2.8380841E-2,3.834841E-2,1.6953161E-2,-5.5426933E-2,6.47115E-2,-9.666193E-3,3.443347E-2,-4.582368E-2],"split_indices":[16,18,4,0,16,6,17,0,0,21,20,19,19,13,16,17,10,18,4,16,21,0,0,0,0,0,0,0,0,0,0,0,0,0,0,0,0],"split_type":[0,0,0,0,0,0,0,0,0,0,0,0,0,0,0,0,0,0,0,0,0,0,0,0,0,0,0,0,0,0,0,0,0,0,0,0,0],"sum_hessian":[3.7013547E2,9.6345005E0,3.6050098E2,1.1248969E0,8.5096035E0,2.8175644E2,7.874453E1,1.1387029E0,7.3709E0,1.2045722E2,1.6129921E2,5.2958176E1,2.5786352E1,5.8304787E1,6.2152435E1,1.4926295E2,1.2036263E1,4.9558395E1,3.3997831E0,7.8481975E0,1.7938156E1,1.2235267E0,5.708126E1,5.467635E1,7.476086E0,8.7564285E1,6.1698666E1,1.2158831E0,1.082038E1,1.4693224E0,4.808907E1,1.6913257E0,1.7084575E0,4.8991137E0,2.9490836E0,1.6832005E0,1.6254955E1],"tree_param":{"num_deleted":"0","num_feature":"22","num_nodes":"37","size_leaf_vector":"1"}},{"base_weights":[3.4182786E-3,6.6098344E-1,-4.4695765E-2,1.1261714E-1,1.1513515E0,1.0348536E0,-7.57554E-2,1.0149275E0,-9.483901E-1,1.3173115E0,9.927925E-3,-4.748305E-3,1.1957623E0,-4.5860626E-2,-1.0869936E0,6.752274E-2,-2.0715913E-2,-1.4418317E0,2.5534857E-2,5.935472E-1,7.235429E-2,6.426791E-2,1.5142572E-2,-9.1694E-2,7.107636E-1,1.5655404E-2,-1.3784744E0,-8.411329E-2,-1.8238403E-2,-1.8476137E-4,4.6036713E-2,-1.4828217E-3,-4.9244422E-2,6.051448E-2,-1.9472077E-2,-8.8091284E-2,-5.7931705E-3],"categories":[],"categories_nodes":[],"categories_segments":[],"categories_sizes":[],"default_left":[0,0,0,0,0,0,0,0,0,0,0,0,0,0,0,0,0,0,0,0,0,0,0,0,0,0,0,0,0,0,0,0,0,0,0,0,0],"id":8,"left_children":[1,3,5,7,9,11,13,15,17,19,-1,-1,21,23,25,-1,-1,27,-1,29,-1,-1,-1,31,33,-1,35,-1,-1,-1,-1,-1,-1,-1,-1,-1,-1],"loss_changes":[1.1822833E1,6.7214766E0,1.1756283E1,1.3538643E1,1.8481503E0,1.8966742E0,1.0212556E1,4.195515E0,5.4551682E0,1.91679E-1,0E0,0E0,3.034649E-1,1.1535682E1,4.3915815E0,0E0,0E0,7.2244644E-1,0E0,6.670228E-1,0E0,0E0,0E0,1.7301296E1,1.0916879E1,0E0,3.7728271E0,0E0,0E0,0E0,0E0,0E0,0E0,0E0,0E0,0E0,0E0],"parents":[2147483647,0,0,1,1,2,2,3,3,4,4,5,5,6,6,7,7,8,8,9,9,12,12,13,13,14,14,17,17,19,19,23,23,24,24,26,26],"right_children":[2,4,6,8,10,12,14,16,18,20,-1,-1,22,24,26,-1,-1,28,-1,30,-1,-1,-1,32,34,-1,36,-1,-1,-1,-1,-1,-1,-1,-1,-1,-1],"split_conditions":[-3.721719E-2,-4.0773027E-2,1.4157478E2,2.8972439E1,4.7823635E-1,9.510509E-2,5.6194047E4,3.455395E4,3.301E5,1.10067405E-1,9.927925E-3,-4.748305E-3,2.6920773E-2,5.4578285E4,3.370231E1,6.752274E-2,-2.0715913E-2,4.10046E-1,2.5534857E-2,-6.161219E-3,7.235429E-2,6.426791E-2,1.5142572E-2,5.156769E4,5.6114637E4,1.5655404E-2,3.2277703E-2,-8.411329E-2,-1.8238403E-2,-1.8476137E-4,4.6036713E-2,-1.4828217E-3,-4.9244422E-2,6.051448E-2,-1.9472077E-2,-8.8091284E-2,-5.7931705E-3],"split_indices":[15,8,16,17,20,20,13,1,4,20,0,0,8,12,17,0,0,20,0,5,0,0,0,12,12,0,15,0,0,0,0,0,0,0,0,0,0],"split_type":[0,0,0,0,0,0,0,0,0,0,0,0,0,0,0,0,0,0,0,0,0,0,0,0,0,0,0,0,0,0,0,0,0,0,0,0,0],"sum_hessian":[3.717557E2,2.4478264E1,3.4727747E2,1.2136253E1,1.234201E1,8.808248E0,3.384692E2,6.58209E0,5.554164E0,1.0185324E1,2.1566858E0,1.1491699E0,7.6590776E0,3.2976584E2,8.703368E0,5.3753176E0,1.2067723E0,4.1593575E0,1.3948065E0,2.396042E0,7.789282E0,6.5612025E0,1.0978748E0,3.1175946E2,1.8006372E1,1.4869137E0,7.2164545E0,2.940946E0,1.2184112E0,1.1979775E0,1.1980647E0,2.9247833E2,1.9281124E1,1.2314957E1,5.691416E0,5.232416E0,1.9840384E0],"tree_param":{"num_deleted":"0","num_feature":"22","num_nodes":"37","size_leaf_vector":"1"}},{"base_weights":[1.6035816E-2,4.3808006E-2,-8.299193E-1,-1.3208321E-3,8.952136E-1,1.5414731E-1,-1.4051589E0,5.167126E-2,-8.7812287E-1,7.230904E-2,2.1064658E-1,5.617736E-2,-5.3605497E-1,-7.894858E-2,-1.4812404E-2,1.8799404E-2,8.905709E-1,-3.1467076E-2,-1.4039093E0,-6.057578E-2,6.471688E-1,-4.4886064E-2,5.303122E-3,3.731207E-2,-1.2298377E-3,6.177909E-2,-4.718837E-2,-5.9998073E-2,1.68497E-2,-7.901531E-2,-5.0344947E-3,7.1326144E-2,-2.814806E-2],"categories":[],"categories_nodes":[],"categories_segments":[],"categories_sizes":[],"default_left":[0,0,0,0,0,0,0,0,0,0,0,0,0,0,0,0,0,0,0,0,0,0,0,0,0,0,0,0,0,0,0,0,0],"id":9,"left_children":[1,3,5,7,9,11,13,15,17,-1,19,-1,21,-1,-1,23,25,27,29,-1,31,-1,-1,-1,-1,-1,-1,-1,-1,-1,-1,-1,-1],"loss_changes":[8.642926E0,1.3665759E1,6.836421E0,1.5784108E1,6.447954E0,4.091709E0,9.737606E-1,8.817886E0,8.574608E0,0E0,6.466971E0,0E0,9.598857E-1,0E0,0E0,9.782805E0,8.797638E0,4.0382695E0,2.581295E0,0E0,8.023623E0,0E0,0E0,0E0,0E0,0E0,0E0,0E0,0E0,0E0,0E0,0E0,0E0],"parents":[2147483647,0,0,1,1,2,2,3,3,4,4,5,5,6,6,7,7,8,8,10,10,12,12,15,15,16,16,17,17,18,18,20,20],"right_children":[2,4,6,8,10,12,14,16,18,-1,20,-1,22,-1,-1,24,26,28,30,-1,32,-1,-1,-1,-1,-1,-1,-1,-1,-1,-1,-1,-1],"split_conditions":[5.6278914E4,5.4578285E4,5.0954404E-3,5.156769E4,5.540021E4,-3.7817596E-3,4.0290277E-2,5.063342E4,-8.328613E-3,7.230904E-2,5.552015E4,5.617736E-2,6.1155254E1,-7.894858E-2,-1.4812404E-2,-4.1781917E-2,7.154E1,6.2291797E2,1.0341556E-2,-6.057578E-2,2.9683411E-2,-4.4886064E-2,5.303122E-3,3.731207E-2,-1.2298377E-3,6.177909E-2,-4.718837E-2,-5.9998073E-2,1.68497E-2,-7.901531E-2,-5.0344947E-3,7.1326144E-2,-2.814806E-2],"split_indices":[12,12,9,12,12,6,15,12,6,0,11,0,17,0,0,15,17,16,5,0,15,0,0,0,0,0,0,0,0,0,0,0,0],"split_type":[0,0,0,0,0,0,0,0,0,0,0,0,0,0,0,0,0,0,0,0,0,0,0,0,0,0,0,0,0,0,0,0,0],"sum_hessian":[3.6533014E2,3.5463586E2,1.0694263E1,3.3773276E2,1.6903109E1,4.2152443E0,6.4790196E0,3.1937167E2,1.836109E1,8.749007E0,8.154101E0,1.4919395E0,2.7233045E0,5.234638E0,1.2443811E0,3.08313E2,1.1058679E1,7.440215E0,1.0920876E1,1.4980774E0,6.6560235E0,1.4874495E0,1.2358551E0,1.6445414E1,2.9186758E2,9.582729E0,1.4759487E0,1.2426705E0,6.1975446E0,9.431642E0,1.4892337E0,3.9398463E0,2.7161772E0],"tree_param":{"num_deleted":"0","num_feature":"22","num_nodes":"33","size_leaf_vector":"1"}},{"base_weights":[9.435119E-3,-2.6575264E-2,7.8064346E-1,4.3215075E-1,-8.185091E-2,-2.3755227E-1,1.0265051E0,2.4211176E-1,6.771093E-2,6.980091E-1,-1.1441319E-1,4.7360834E-2,-6.919096E-2,6.9032066E-2,2.441761E-1,5.328302E-1,-5.44386E-1,8.376785E-1,-1.745814E-2,-2.0702228E-1,1.7699365E-1,-4.7592115E-2,4.628211E-2,3.559525E-2,-2.0416541E-2,-6.1868038E-2,4.604882E-2,-8.437525E-3,5.281275E-2,5.5194523E-2,-1.1555797E-2,-2.7277399E-2,1.7494021E-2],"categories":[],"categories_nodes":[],"categories_segments":[],"categories_sizes":[],"default_left":[0,0,0,0,0,0,0,0,0,0,0,0,0,0,0,0,0,0,0,0,0,0,0,0,0,0,0,0,0,0,0,0,0],"id":10,"left_children":[1,3,5,7,9,11,13,15,-1,17,19,-1,-1,-1,21,23,25,27,-1,29,31,-1,-1,-1,-1,-1,-1,-1,-1,-1,-1,-1,-1],"loss_changes":[1.0398256E1,9.112243E0,4.425126E0,6.4456835E0,8.213985E0,6.825567E0,3.4423914E0,7.8966966E0,0E0,2.1908069E0,8.357714E0,0E0,0E0,0E0,5.3359814E0,4.4695606E0,1.0758913E1,2.7621584E0,0E0,7.659833E0,9.54692E0,0E0,0E0,0E0,0E0,0E0,0E0,0E0,0E0,0E0,0E0,0E0,0E0],"parents":[2147483647,0,0,1,1,2,2,3,3,4,4,5,5,6,6,7,7,9,9,10,10,14,14,15,15,16,16,17,17,19,19,20,20],"right_children":[2,4,6,8,10,12,14,16,-1,18,20,-1,-1,-1,22,24,26,28,-1,30,32,-1,-1,-1,-1,-1,-1,-1,-1,-1,-1,-1,-1],"split_conditions":[1.763624E-2,-2.7856579E-2,-3.2651544E-2,-8.044319E-3,1.1814349E-2,-6.521918E-2,4.1758187E-2,3.7183273E1,6.771093E-2,1.292568E0,4.3902418E-1,4.7360834E-2,-6.919096E-2,6.9032066E-2,2.049E5,5.131734E4,6.4307314E-1,5.5719847E-3,-1.745814E-2,1.6296843E4,-8.545248E-1,-4.7592115E-2,4.628211E-2,3.559525E-2,-2.0416541E-2,-6.1868038E-2,4.604882E-2,-8.437525E-3,5.281275E-2,5.5194523E-2,-1.1555797E-2,-2.7277399E-2,1.7494021E-2],"split_indices":[10,15,14,8,20,15,8,17,0,21,20,0,0,0,4,13,18,10,0,13,21,0,0,0,0,0,0,0,0,0,0,0,0],"split_type":[0,0,0,0,0,0,0,0,0,0,0,0,0,0,0,0,0,0,0,0,0,0,0,0,0,0,0,0,0,0,0,0,0],"sum_hessian":[3.7267468E2,3.56972E2,1.5702715E1,3.7655483E1,3.193165E2,3.0607817E0,1.2641933E1,3.2267666E1,5.38782E0,1.1979271E1,3.0733722E2,1.5905044E0,1.4702772E0,8.176086E0,4.4658465E0,2.3794773E1,8.472892E0,1.0746044E1,1.2332267E0,2.3343968E2,7.389755E1,1.4769478E0,2.9888988E0,2.0195719E1,3.599054E0,5.8581486E0,2.6147435E0,1.9580796E0,8.787964E0,3.404194E0,2.3003548E2,1.3851746E1,6.0045803E1],"tree_param":{"num_deleted":"0","num_feature":"22","num_nodes":"33","size_leaf_vector":"1"}},{"base_weights":[4.6165593E-2,1.1373762E0,1.4836788E-2,8.585351E-3,6.4504765E-2,1.1581606E0,-7.3836083E-3,6.9675356E-2,5.2348356E-4,4.1572264E-1,-6.285527E-2,6.421352E-1,1.0014225E-1,-8.5672796E-1,-1.2557968E-2,2.1090431E-2,6.4922124E-2,-2.3884295E-2,3.5126474E-2,8.794486E-3,-5.8133613E-2,-7.997061E-3,1.6077539E-2],"categories":[],"categories_nodes":[],"categories_segments":[],"categories_sizes":[],"default_left":[0,0,0,0,0,0,0,0,0,0,0,0,0,0,0,0,0,0,0,0,0,0,0],"id":11,"left_children":[1,3,5,-1,-1,7,9,-1,-1,11,13,15,17,19,21,-1,-1,-1,-1,-1,-1,-1,-1],"loss_changes":[1.2868598E1,1.3278894E0,9.342714E0,0E0,0E0,1.8790722E0,8.508382E0,0E0,0E0,2.9381676E0,1.2781934E1,2.9635983E0,6.8581004E0,6.23044E0,1.4937628E1,0E0,0E0,0E0,0E0,0E0,0E0,0E0,0E0],"parents":[2147483647,0,0,1,1,2,2,5,5,6,6,9,9,10,10,11,11,12,12,13,13,14,14],"right_children":[2,4,6,-1,-1,8,10,-1,-1,12,14,16,18,20,22,-1,-1,-1,-1,-1,-1,-1,-1],"split_conditions":[1.4157478E2,1.0193349E-1,1.6296843E4,8.585351E-3,6.4504765E-2,9.318609E-3,-2.8909625E-2,6.9675356E-2,5.2348356E-4,2.6177326E-1,1.7465537E4,1.8171352E-1,-1.4087994E-2,9.473163E-3,9.205236E-3,2.1090431E-2,6.4922124E-2,-2.3884295E-2,3.5126474E-2,8.794486E-3,-5.8133613E-2,-7.997061E-3,1.6077539E-2],"split_indices":[16,19,13,0,0,10,15,0,0,19,13,19,7,10,10,0,0,0,0,0,0,0,0],"split_type":[0,0,0,0,0,0,0,0,0,0,0,0,0,0,0,0,0,0,0,0,0,0,0],"sum_hessian":[3.7591898E2,9.5061655E0,3.664128E2,1.5881774E0,7.917988E0,6.0108385E0,3.6040198E2,4.8102593E0,1.2005792E0,4.1021214E1,3.1938077E2,2.328247E1,1.7738743E1,1.807404E1,3.0130673E2,1.8660666E1,4.621806E0,9.159594E0,8.579149E0,4.2281976E0,1.3845841E1,2.0943938E2,9.1867355E1],"tree_param":{"num_deleted":"0","num_feature":"22","num_nodes":"23","size_leaf_vector":"1"}},{"base_weights":[2.1696562E-2,7.771329E-1,-1.8211009E-2,4.8294154E-1,6.916547E-2,9.607877E-1,-4.389041E-2,9.2056024E-1,-4.0222034E-1,1.1290697E0,-1.0821888E-3,-3.787558E-1,1.5513504E-2,1.0625795E0,-3.4649707E-3,4.0484138E-2,-7.231876E-2,6.0955442E-2,1.512983E-2,-7.8160495E-1,1.251129E-1,-1.8081203E-1,1.8844903E-1,8.936958E-3,6.627569E-2,-6.840735E-2,-1.3759731E-2,4.9491473E-2,-7.4841813E-3,2.0602494E-2,-1.594637E-2,5.6394774E-2,5.7037314E-3],"categories":[],"categories_nodes":[],"categories_segments":[],"categories_sizes":[],"default_left":[0,0,0,0,0,0,0,0,0,0,0,0,0,0,0,0,0,0,0,0,0,0,0,0,0,0,0,0,0,0,0,0,0],"id":12,"left_children":[1,3,5,7,-1,9,11,13,15,17,-1,19,21,23,-1,-1,-1,-1,-1,25,27,29,31,-1,-1,-1,-1,-1,-1,-1,-1,-1,-1],"loss_changes":[1.1199137E1,2.6558237E0,8.925887E0,5.826277E0,0E0,1.5248852E0,6.874547E0,1.441371E0,7.948284E0,2.0910263E-1,0E0,1.0665906E1,1.0023624E1,1.7546225E0,0E0,0E0,0E0,0E0,0E0,8.25827E0,5.84958E0,1.1456371E1,1.083564E1,0E0,0E0,0E0,0E0,0E0,0E0,0E0,0E0,0E0,0E0],"parents":[2147483647,0,0,1,1,2,2,3,3,5,5,6,6,7,7,8,8,9,9,11,11,12,12,13,13,19,19,20,20,21,21,22,22],"right_children":[2,4,6,8,-1,10,12,14,16,18,-1,20,22,24,-1,-1,-1,-1,-1,26,28,30,32,-1,-1,-1,-1,-1,-1,-1,-1,-1,-1],"split_conditions":[1.7070225E4,7.644446E-3,1.4052135E2,5.378586E1,6.916547E-2,4.7104545E-3,-8.899028E-1,2.7888294E-2,-7.174344E-1,5.7238815E-3,-1.0821888E-3,4.762403E-1,3.7182367E2,2.522E5,-3.4649707E-3,4.0484138E-2,-7.231876E-2,6.0955442E-2,1.512983E-2,3.9619784E-4,5.851784E-2,2.401E5,3.4482246E4,8.936958E-3,6.627569E-2,-6.840735E-2,-1.3759731E-2,4.9491473E-2,-7.4841813E-3,2.0602494E-2,-1.594637E-2,5.6394774E-2,5.7037314E-3],"split_indices":[12,15,16,17,0,9,21,6,21,5,0,18,16,4,0,0,0,0,0,6,19,4,3,0,0,0,0,0,0,0,0,0,0],"split_type":[0,0,0,0,0,0,0,0,0,0,0,0,0,0,0,0,0,0,0,0,0,0,0,0,0,0,0,0,0,0,0,0,0],"sum_hessian":[3.700071E2,1.7638735E1,3.5236838E2,1.3084989E1,4.5537453E0,8.075722E0,3.4429266E2,8.72929E0,4.355699E0,6.767285E0,1.3084371E0,5.106403E1,2.9322864E2,7.5697603E0,1.1595297E0,2.1198466E0,2.2358525E0,5.674057E0,1.0932279E0,2.8070288E1,2.2993742E1,1.3730603E2,1.559226E2,2.1207511E0,5.449009E0,1.2217683E1,1.5852605E1,4.917511E0,1.8076231E1,2.5568697E1,1.1173734E2,1.0399401E1,1.455232E2],"tree_param":{"num_deleted":"0","num_feature":"22","num_nodes":"33","size_leaf_vector":"1"}},{"base_weights":[-2.803097E-2,-1.6360497E-1,1.2383594E-1,-4.3215755E-1,7.6241404E-2,3.3498326E-1,-6.619114E-2,-6.9145674E-1,-7.157137E-2,6.3607347E-1,-9.383773E-2,6.039418E-1,-1.3212972E-2,-2.773352E-1,2.8544363E-1,-2.5637054E-1,-1.0649588E0,-2.3549102E-1,9.288961E-1,-3.6383843E-1,9.2549664E-1,2.7880794E-1,-3.3431688E-1,6.961566E-1,-5.646694E-1,3.8603076E-1,-4.2090777E-1,5.420357E-2,-3.8498384E-1,-1.267149E-1,6.8695265E-1,-2.2884887E-2,4.532629E-2,-6.031553E-2,1.1374944E-2,2.3940949E-2,-2.2214059E-2,6.626125E-2,-7.817867E-3,2.6830096E-2,-4.554035E-2,5.526982E-2,-8.159305E-3,-7.7831307E-3,5.9080567E-2,-4.062629E-2,-5.6777033E-3,6.681947E-2,2.4790043E-2,2.8705567E-2,-6.4403936E-2,3.2940008E-2,-2.2330092E-2,-4.231944E-2,4.3409105E-2,4.0404606E-3,-3.4123383E-2,3.839306E-2,-3.0387491E-2,5.874106E-2,1.5927782E-2],"categories":[],"categories_nodes":[],"categories_segments":[],"categories_sizes":[],"default_left":[0,0,0,0,0,0,0,0,0,0,0,0,0,0,0,0,0,0,0,0,0,0,0,0,0,0,0,0,0,0,0,0,0,0,0,0,0,0,0,0,0,0,0,0,0,0,0,0,0,0,0,0,0,0,0,0,0,0,0,0,0],"id":13,"left_children":[1,3,5,7,9,11,13,15,17,19,21,23,25,27,29,31,33,35,37,39,41,43,45,47,49,51,53,-1,55,57,59,-1,-1,-1,-1,-1,-1,-1,-1,-1,-1,-1,-1,-1,-1,-1,-1,-1,-1,-1,-1,-1,-1,-1,-1,-1,-1,-1,-1,-1,-1],"loss_changes":[7.6491942E0,1.26703E1,7.057193E0,8.618841E0,1.0008578E1,7.801217E0,6.992685E0,8.471985E0,6.761557E0,7.419921E0,7.352999E0,5.4549236E0,6.2247705E0,9.018344E0,5.9499493E0,6.542975E0,5.5065346E0,5.4441996E0,2.70994E0,3.5482147E0,3.953247E0,1.2861093E1,5.153801E0,4.979452E0,4.024488E0,4.6864166E0,1.1104255E1,0E0,7.6937056E0,8.3530445E0,2.8791857E0,0E0,0E0,0E0,0E0,0E0,0E0,0E0,0E0,0E0,0E0,0E0,0E0,0E0,0E0,0E0,0E0,0E0,0E0,0E0,0E0,0E0,0E0,0E0,0E0,0E0,0E0,0E0,0E0,0E0,0E0],"parents":[2147483647,0,0,1,1,2,2,3,3,4,4,5,5,6,6,7,7,8,8,9,9,10,10,11,11,12,12,13,13,14,14,15,15,16,16,17,17,18,18,19,19,20,20,21,21,22,22,23,23,24,24,25,25,26,26,28,28,29,29,30,30],"right_children":[2,4,6,8,10,12,14,16,18,20,22,24,26,28,30,32,34,36,38,40,42,44,46,48,50,52,54,-1,56,58,60,-1,-1,-1,-1,-1,-1,-1,-1,-1,-1,-1,-1,-1,-1,-1,-1,-1,-1,-1,-1,-1,-1,-1,-1,-1,-1,-1,-1,-1,-1],"split_conditions":[-1.3040066E-1,3.1038644E-4,3.4865264E-3,3.7779457E4,1.8783408E-1,8.473442E-3,8.642276E-3,2.212835E4,1.0985599E-2,-9.6928626E-1,2.48918E4,5.540021E4,-2.2117166E-2,1.772465E4,2.651972E-1,1.9721393E4,3.1161021E-2,5.5738636E-3,4.930814E1,2.44315E4,2.092195E-2,2.2283963E4,3.8400625E4,-1.6951628E-2,5.0954404E-3,4.51109E4,2.830224E-2,5.420357E-2,5.9617334E-3,9.5153496E-2,2.6964438E-1,-2.2884887E-2,4.532629E-2,-6.031553E-2,1.1374944E-2,2.3940949E-2,-2.2214059E-2,6.626125E-2,-7.817867E-3,2.6830096E-2,-4.554035E-2,5.526982E-2,-8.159305E-3,-7.7831307E-3,5.9080567E-2,-4.062629E-2,-5.6777033E-3,6.681947E-2,2.4790043E-2,2.8705567E-2,-6.4403936E-2,3.2940008E-2,-2.2330092E-2,-4.231944E-2,4.3409105E-2,4.0404606E-3,-3.4123383E-2,3.839306E-2,-3.0387491E-2,5.874106E-2,1.5927782E-2],"split_indices":[21,6,7,2,18,9,10,0,10,21,1,12,8,1,20,12,8,9,17,0,7,12,12,7,9,2,15,0,10,19,18,0,0,0,0,0,0,0,0,0,0,0,0,0,0,0,0,0,0,0,0,0,0,0,0,0,0,0,0,0,0],"split_type":[0,0,0,0,0,0,0,0,0,0,0,0,0,0,0,0,0,0,0,0,0,0,0,0,0,0,0,0,0,0,0,0,0,0,0,0,0,0,0,0,0,0,0,0,0,0,0,0,0,0,0,0,0,0,0,0,0,0,0,0,0],"sum_hessian":[3.6953076E2,1.9519754E2,1.7433324E2,9.1709694E1,1.0348785E2,8.221631E1,9.211692E1,5.28136E1,3.889609E1,2.3475634E1,8.001221E1,4.5971718E1,3.6244595E1,5.7688404E1,3.4428516E1,2.5174572E1,2.7639029E1,3.407737E1,4.818722E0,5.2119703E0,1.8263664E1,3.1319788E1,4.869242E1,4.2984135E1,2.9875805E0,1.833894E1,1.7905657E1,3.562599E0,5.4125805E1,1.7326677E1,1.7101841E1,2.1976322E1,3.1982496E0,2.4974323E1,2.6647058E0,7.415219E0,2.6662151E1,3.367726E0,1.4509956E0,1.9767396E0,3.2352307E0,1.5660488E1,2.603176E0,2.170292E1,9.616867E0,1.4532366E1,3.4160057E1,8.893872E0,3.4090263E1,1.2407657E0,1.7468147E0,1.3970874E1,4.3680654E0,1.372046E1,4.1851964E0,2.1379168E1,3.2746635E1,5.8504257E0,1.1476252E1,6.4160514E0,1.068579E1],"tree_param":{"num_deleted":"0","num_feature":"22","num_nodes":"61","size_leaf_vector":"1"}},{"base_weights":[1.3934912E-3,9.9689907E-1,-2.6449578E-2,-5.8802194E-3,1.1497597E0,1.0093421E0,-4.8271768E-2,6.161047E-2,1.3885516E-2,-1.1489796E-2,6.681886E-2,-7.913061E-2,7.1865344E-1,2.4488594E-2,-3.095904E-1,-1.16911694E-1,1.1398422E0,2.9251536E-3,-5.1956594E-2,-3.3471163E-2,1.3751816E-4,3.090921E-2,-5.6718867E-2,6.590431E-2,-3.7442711E-3],"categories":[],"categories_nodes":[],"categories_segments":[],"categories_sizes":[],"default_left":[0,0,0,0,0,0,0,0,0,0,0,0,0,0,0,0,0,0,0,0,0,0,0,0,0],"id":14,"left_children":[1,3,5,-1,7,9,11,-1,-1,-1,-1,13,15,17,19,21,23,-1,-1,-1,-1,-1,-1,-1,-1],"loss_changes":[1.0379654E1,1.8709831E0,8.283863E0,0E0,3.0868053E-1,3.3719816E0,8.524038E0,0E0,0E0,0E0,0E0,8.242224E0,5.0384827E0,8.700406E0,1.2030779E1,4.87336E0,2.1252832E0,0E0,0E0,0E0,0E0,0E0,0E0,0E0,0E0],"parents":[2147483647,0,0,1,1,2,2,4,4,5,5,6,6,11,11,12,12,13,13,14,14,15,15,16,16],"right_children":[2,4,6,-1,8,10,12,-1,-1,-1,-1,14,16,18,20,22,24,-1,-1,-1,-1,-1,-1,-1,-1],"split_conditions":[1.4157478E2,8.4635764E-2,1.6296843E4,-5.8802194E-3,7.144347E-1,6.3359584E-3,1.763624E-2,6.161047E-2,1.3885516E-2,-1.1489796E-2,6.681886E-2,6.3320652E1,4.7626755E1,5.6194047E4,6.7899474E-3,3.542409E4,1.3785926E-2,2.9251536E-3,-5.1956594E-2,-3.3471163E-2,1.3751816E-4,3.090921E-2,-5.6718867E-2,6.590431E-2,-3.7442711E-3],"split_indices":[16,20,13,0,18,9,10,0,0,0,0,17,17,13,10,1,5,0,0,0,0,0,0,0,0],"split_type":[0,0,0,0,0,0,0,0,0,0,0,0,0,0,0,0,0,0,0,0,0,0,0,0,0],"sum_hessian":[3.725231E2,9.18859E0,3.6333453E2,1.1360818E0,8.052508E0,6.563109E0,3.5677142E2,6.979602E0,1.0729064E0,1.4325409E0,5.130568E0,3.4383337E2,1.2938035E1,2.3780525E2,1.0602812E2,4.5781684E0,8.359866E0,2.3135164E2,6.4536057E0,4.873715E1,5.7290977E1,2.885725E0,1.6924435E0,7.2159414E0,1.1439254E0],"tree_param":{"num_deleted":"0","num_feature":"22","num_nodes":"25","size_leaf_vector":"1"}},{"base_weights":[-2.6475538E-2,9.191216E-1,-5.49919E-2,2.3834053E-3,1.0397848E0,3.8497195E-1,-1.2193403E-1,5.6165247E-3,6.0234394E-2,-3.645764E-2,6.003861E-1,-1.5839171E-1,9.743897E-1,2.3199575E-1,-6.372268E-2,7.46336E-1,-1.3585186E-1,-1.8490064E-1,7.364924E-1,6.0020622E-2,-6.724426E-3,-3.9822783E-2,1.9128816E-2,2.1844134E-2,6.215181E-2,-6.1734527E-2,3.3883926E-2,6.180641E-2,-9.992394E-3,-1.7109675E-2,5.1907368E-2],"categories":[],"categories_nodes":[],"categories_segments":[],"categories_sizes":[],"default_left":[0,0,0,0,0,0,0,0,0,0,0,0,0,0,0,0,0,0,0,0,0,0,0,0,0,0,0,0,0,0,0],"id":15,"left_children":[1,3,5,-1,7,9,11,-1,-1,13,15,17,19,21,-1,23,25,27,29,-1,-1,-1,-1,-1,-1,-1,-1,-1,-1,-1,-1],"loss_changes":[9.99341E0,1.0914211E0,1.0616764E1,0E0,1.3150129E0,4.346242E0,1.2634668E1,0E0,0E0,5.9638863E0,3.4947062E0,7.325443E0,2.715191E0,2.606301E0,0E0,3.5314817E0,6.2633824E0,6.5159006E0,3.2576685E0,0E0,0E0,0E0,0E0,0E0,0E0,0E0,0E0,0E0,0E0,0E0,0E0],"parents":[2147483647,0,0,1,1,2,2,4,4,5,5,6,6,9,9,10,10,11,11,12,12,13,13,15,15,16,16,17,17,18,18],"right_children":[2,4,6,-1,8,10,12,-1,-1,14,16,18,20,22,-1,24,26,28,30,-1,-1,-1,-1,-1,-1,-1,-1,-1,-1,-1,-1],"split_conditions":[1.4157478E2,8.4635764E-2,-2.7461581E-2,2.3834053E-3,1.0193349E-1,-6.5162177E-3,1.763624E-2,5.6165247E-3,6.0234394E-2,3.6158997E-1,1.0160532E-2,7.366687E-1,1.4860131E-2,-7.309443E-1,-6.372268E-2,3.618953E4,1.741E5,-5.267437E-2,-9.970403E-3,6.0020622E-2,-6.724426E-3,-3.9822783E-2,1.9128816E-2,2.1844134E-2,6.215181E-2,-6.1734527E-2,3.3883926E-2,6.180641E-2,-9.992394E-3,-1.7109675E-2,5.1907368E-2],"split_indices":[16,20,15,0,19,5,10,0,0,20,5,20,5,21,0,0,4,8,8,0,0,0,0,0,0,0,0,0,0,0,0],"split_type":[0,0,0,0,0,0,0,0,0,0,0,0,0,0,0,0,0,0,0,0,0,0,0,0,0,0,0,0,0,0,0],"sum_hessian":[3.6773236E2,9.850787E0,3.578816E2,1.3677413E0,8.483046E0,4.6634537E1,3.1124704E2,1.5343999E0,6.948646E0,1.6055267E1,3.057927E1,3.020578E2,9.189252E0,1.386197E1,2.193297E0,2.5508762E1,5.070506E0,2.94138E2,7.9197974E0,7.5647764E0,1.6244755E0,1.2225859E0,1.2639383E1,1.6874937E1,8.633826E0,1.9367864E0,3.13372E0,2.211296E0,2.919267E2,1.7013971E0,6.2184005E0],"tree_param":{"num_deleted":"0","num_feature":"22","num_nodes":"31","size_leaf_vector":"1"}},{"base_weights":[8.146495E-3,-1.3664503E-1,1.4062956E-1,-2.96194E-1,4.5653746E-1,2.5810313E-1,-1.4189744E-1,-4.300364E-1,3.1459138E-1,6.897032E-1,-6.75006E-1,1.7411111E-1,8.37177E-1,7.275502E-1,-2.8983784E-1,-8.850196E-2,-5.988448E-1,-2.2342576E-1,7.86084E-1,9.9885905E-1,4.7771964E-2,-7.43315E-2,2.9400142E-4,1.2610184E-1,9.5035154E-1,2.3877072E-1,1.0919607E0,5.938795E-2,-2.5271585E-2,3.9493677E-1,-4.426767E-1,-6.399552E-2,1.8895656E-3,-4.1533563E-2,-4.726426E-3,2.1902397E-2,-4.362554E-2,5.3166665E-2,-1.46745695E-2,5.7706036E-2,-4.7268686E-3,3.7236538E-2,-5.726712E-2,4.3644723E-2,-2.5161555E-2,4.51084E-3,5.439481E-2,7.173322E-2,-1.1339671E-2,-2.187517E-2,4.6147827E-2,6.407222E-2,-1.5219959E-2,4.811631E-2,-4.113179E-2,-2.379392E-2,5.5982422E-2,-3.229178E-2,2.1550754E-2],"categories":[],"categories_nodes":[],"categories_segments":[],"categories_sizes":[],"default_left":[0,0,0,0,0,0,0,0,0,0,0,0,0,0,0,0,0,0,0,0,0,0,0,0,0,0,0,0,0,0,0,0,0,0,0,0,0,0,0,0,0,0,0,0,0,0,0,0,0,0,0,0,0,0,0,0,0,0,0],"id":16,"left_children":[1,3,5,7,9,11,13,15,17,19,21,23,25,27,29,31,33,35,37,39,41,-1,43,45,47,49,51,-1,53,55,57,-1,-1,-1,-1,-1,-1,-1,-1,-1,-1,-1,-1,-1,-1,-1,-1,-1,-1,-1,-1,-1,-1,-1,-1,-1,-1,-1,-1],"loss_changes":[7.266237E0,1.7267183E1,6.600687E0,1.1846396E1,1.0692496E1,6.665779E0,7.764929E0,6.7461147E0,6.8540564E0,6.428773E0,3.9072616E0,4.4851885E0,2.4039555E0,3.087391E0,5.5024443E0,6.094369E0,9.128235E0,5.9958935E0,4.577963E0,3.8398228E0,1.0547336E1,0E0,2.5880804E0,3.9581141E0,4.3414536E0,3.4108925E0,3.5594063E0,0E0,4.199176E0,6.7281704E0,7.7487383E0,0E0,0E0,0E0,0E0,0E0,0E0,0E0,0E0,0E0,0E0,0E0,0E0,0E0,0E0,0E0,0E0,0E0,0E0,0E0,0E0,0E0,0E0,0E0,0E0,0E0,0E0,0E0,0E0],"parents":[2147483647,0,0,1,1,2,2,3,3,4,4,5,5,6,6,7,7,8,8,9,9,10,10,11,11,12,12,13,13,14,14,15,15,16,16,17,17,18,18,19,19,20,20,22,22,23,23,24,24,25,25,26,26,28,28,29,29,30,30],"right_children":[2,4,6,8,10,12,14,16,18,20,22,24,26,28,30,32,34,36,38,40,42,-1,44,46,48,50,52,-1,54,56,58,-1,-1,-1,-1,-1,-1,-1,-1,-1,-1,-1,-1,-1,-1,-1,-1,-1,-1,-1,-1,-1,-1,-1,-1,-1,-1,-1,-1],"split_conditions":[8.424635E-4,3.017E5,2.1173093E-2,3.2474127E-2,1.515666E-2,4.88E-1,1.766575E4,-1.4945546E-2,1.7916982E-1,2.467145E4,-7.310964E-3,1.9575598E-2,1.3063917E-1,1.1369793E-2,1.54E5,4.3815263E-2,1.3519884E-5,1.2267458E-4,1.0316104E-2,2.5554022E-3,-9.671067E-3,-7.43315E-2,6.321898E1,1.763624E-2,2.974E5,6.1277175E-1,5.17112E4,5.938795E-2,1.1874239E-1,4.14184E4,1.3280154E-2,-6.399552E-2,1.8895656E-3,-4.1533563E-2,-4.726426E-3,2.1902397E-2,-4.362554E-2,5.3166665E-2,-1.46745695E-2,5.7706036E-2,-4.7268686E-3,3.7236538E-2,-5.726712E-2,4.3644723E-2,-2.5161555E-2,4.51084E-3,5.439481E-2,7.173322E-2,-1.1339671E-2,-2.187517E-2,4.6147827E-2,6.407222E-2,-1.5219959E-2,4.811631E-2,-4.113179E-2,-2.379392E-2,5.5982422E-2,-3.229178E-2,2.1550754E-2],"split_indices":[6,4,7,15,8,19,0,14,19,2,6,7,18,10,4,19,5,5,10,5,7,0,17,10,4,19,0,0,19,0,10,0,0,0,0,0,0,0,0,0,0,0,0,0,0,0,0,0,0,0,0,0,0,0,0,0,0,0,0],"split_type":[0,0,0,0,0,0,0,0,0,0,0,0,0,0,0,0,0,0,0,0,0,0,0,0,0,0,0,0,0,0,0,0,0,0,0,0,0,0,0,0,0,0,0,0,0,0,0,0,0,0,0,0,0,0,0,0,0,0,0],"sum_hessian":[3.767948E2,1.8001926E2,1.9677553E2,1.4225693E2,3.776233E1,1.3904686E2,5.7728664E1,1.16929825E2,2.53271E1,3.1634254E1,6.128076E0,1.22569405E2,1.6477459E1,7.824734E0,4.990393E1,3.91816E1,7.774822E1,1.20747795E1,1.3252321E1,2.097609E1,1.0658165E1,2.237478E0,3.8905983E0,1.1652496E2,6.0444393E0,5.499059E0,1.0978401E1,4.497573E0,3.3271613E0,8.81691E0,4.108702E1,2.879829E0,3.630177E1,5.2820385E1,2.492784E1,6.141347E0,5.933433E0,1.0556354E1,2.695967E0,1.8319233E1,2.6568573E0,6.9652295E0,3.692935E0,1.1551596E0,2.7354388E0,1.1338819E2,3.136771E0,4.1274967E0,1.9169426E0,2.9468422E0,2.552217E0,9.739115E0,1.2392856E0,1.3938657E0,1.9332956E0,4.1607265E0,4.6561832E0,3.3547127E1,7.5398936E0],"tree_param":{"num_deleted":"0","num_feature":"22","num_nodes":"59","size_leaf_vector":"1"}},{"base_weights":[1.3018619E-2,-8.201298E-2,2.3471527E-1,-2.4178441E-1,2.513965E-1,3.017188E-1,-7.5612885E-1,-2.7312884E-1,9.469357E-1,4.6536544E-1,-3.057026E-1,1.2525663E-1,6.6905034E-1,-1.2243161E0,1.3617952E-1,-3.51361E-1,1.8972757E-1,1.0698734E-2,5.985982E-2,5.285969E-1,-6.330074E-2,1.06417075E-1,-8.6559737E-1,-1.1491741E0,1.9521442E-1,7.748326E-1,-4.4106776E-1,-1.3789192E-2,-7.32625E-2,2.8230771E-2,-1.7687058E-2,-3.6018517E-2,-1.1623753E-2,2.5191803E-2,-1.4265092E-2,5.0795406E-2,1.1628165E-2,-5.6346994E-2,1.5032965E-2,-6.852343E-2,1.34677235E-2,-1.9247524E-2,-6.7278676E-2,4.438019E-3,5.16331E-2,2.0862214E-2,5.464373E-2,2.129369E-2,-5.1568504E-2],"categories":[],"categories_nodes":[],"categories_segments":[],"categories_sizes":[],"default_left":[0,0,0,0,0,0,0,0,0,0,0,0,0,0,0,0,0,0,0,0,0,0,0,0,0,0,0,0,0,0,0,0,0,0,0,0,0,0,0,0,0,0,0,0,0,0,0,0,0],"id":17,"left_children":[1,3,5,7,9,11,13,15,17,19,21,23,25,27,29,31,33,-1,-1,35,-1,37,39,41,43,45,47,-1,-1,-1,-1,-1,-1,-1,-1,-1,-1,-1,-1,-1,-1,-1,-1,-1,-1,-1,-1,-1,-1],"loss_changes":[7.927231E0,1.409574E1,7.722247E0,6.9142265E0,1.0375133E1,6.815977E0,3.2728205E0,6.396722E0,6.2667227E-1,7.5027714E0,5.728076E0,6.7446733E0,4.3709555E0,7.332001E-1,9.2566633E-1,6.408188E0,4.0119557E0,0E0,0E0,8.552923E0,0E0,3.9227443E0,6.3658648E0,7.5016975E-2,6.165122E0,3.147932E0,2.292974E0,0E0,0E0,0E0,0E0,0E0,0E0,0E0,0E0,0E0,0E0,0E0,0E0,0E0,0E0,0E0,0E0,0E0,0E0,0E0,0E0,0E0,0E0],"parents":[2147483647,0,0,1,1,2,2,3,3,4,4,5,5,6,6,7,7,8,8,9,9,10,10,11,11,12,12,13,13,14,14,15,15,16,16,19,19,21,21,22,22,23,23,24,24,25,25,26,26],"right_children":[2,4,6,8,10,12,14,16,18,20,22,24,26,28,30,32,34,-1,-1,36,-1,38,40,42,44,46,48,-1,-1,-1,-1,-1,-1,-1,-1,-1,-1,-1,-1,-1,-1,-1,-1,-1,-1,-1,-1,-1,-1],"split_conditions":[2.9981455E-1,1.0481515E-2,5.554075E4,7.6613575E-1,5.6201465E2,3.4082893E-1,2.6319125E-3,3.9946094E-2,-9.970403E-3,8.202061E-2,2.2245012E-2,1.9261925E-1,7.2433513E-1,4.9048383E-3,1.637E5,-6.0603926E-3,5.109377E-3,1.0698734E-2,5.985982E-2,2.117E5,-6.330074E-2,-1.3236759E0,5.3349603E-2,2.5982E4,5.122951E4,3.3019644E2,6.693081E-3,-1.3789192E-2,-7.32625E-2,2.8230771E-2,-1.7687058E-2,-3.6018517E-2,-1.1623753E-2,2.5191803E-2,-1.4265092E-2,5.0795406E-2,1.1628165E-2,-5.6346994E-2,1.5032965E-2,-6.852343E-2,1.34677235E-2,-1.9247524E-2,-6.7278676E-2,4.438019E-3,5.16331E-2,2.0862214E-2,5.464373E-2,2.129369E-2,-5.1568504E-2],"split_indices":[21,7,1,20,16,20,5,15,8,15,14,18,20,9,4,5,7,0,0,4,0,21,15,0,11,16,9,0,0,0,0,0,0,0,0,0,0,0,0,0,0,0,0,0,0,0,0,0,0],"split_type":[0,0,0,0,0,0,0,0,0,0,0,0,0,0,0,0,0,0,0,0,0,0,0,0,0,0,0,0,0,0,0,0,0,0,0,0,0,0,0,0,0,0,0,0,0,0,0,0,0],"sum_hessian":[3.7435175E2,2.6247174E2,1.1188002E2,1.7762688E2,8.484485E1,1.0544504E2,6.434982E0,1.7381395E2,3.8129296E0,6.141964E1,2.3425207E1,7.213374E1,3.331129E1,3.9764774E0,2.4585044E0,1.4888948E2,2.4924473E1,1.442667E0,2.3702626E0,5.9925793E1,1.4938442E0,1.3959801E1,9.465405E0,2.9508588E0,6.9182884E1,3.068899E1,2.6223018E0,1.2398717E0,2.7366056E0,1.2302164E0,1.2282879E0,3.5047234E1,1.1384225E2,1.4967031E1,9.957442E0,2.1727564E1,3.819823E1,1.2460674E0,1.2713734E1,6.4075594E0,3.057846E0,1.2084827E0,1.7423761E0,6.2361637E1,6.8212504E0,1.5534642E1,1.5154347E1,1.1750809E0,1.4472209E0],"tree_param":{"num_deleted":"0","num_feature":"22","num_nodes":"49","size_leaf_vector":"1"}},{"base_weights":[-8.068698E-3,1.0833209E0,-3.1589545E-2,5.9171397E-2,1.02727795E-2,1.0598314E0,-5.2924827E-2,-3.1003277E-4,6.395528E-2,5.7182944E-1,-8.275385E-2,7.445033E-1,-3.7175894E-2,-1.5043086E-1,1.6887422E-1,1.15082E-2,6.32407E-2,-1.9074818E-2,4.693133E-4,3.1558774E-2,-1.4353444E-2],"categories":[],"categories_nodes":[],"categories_segments":[],"categories_sizes":[],"default_left":[0,0,0,0,0,0,0,0,0,0,0,0,0,0,0,0,0,0,0,0,0],"id":18,"left_children":[1,3,5,-1,-1,7,9,-1,-1,11,13,15,-1,17,19,-1,-1,-1,-1,-1,-1],"loss_changes":[9.451572E0,4.3949413E-1,8.441034E0,0E0,0E0,1.6329079E0,6.64695E0,0E0,0E0,4.2475905E0,5.796214E0,3.6900997E0,0E0,9.884729E0,1.5419855E1,0E0,0E0,0E0,0E0,0E0,0E0],"parents":[2147483647,0,0,1,1,2,2,5,5,6,6,9,9,10,10,11,11,13,13,14,14],"right_children":[2,4,6,-1,-1,8,10,-1,-1,12,14,16,-1,18,20,-1,-1,-1,-1,-1,-1],"split_conditions":[1.4052135E2,4.9549475E-1,1.6296843E4,5.9171397E-2,1.02727795E-2,6.3359584E-3,-4.429191E-2,-3.1003277E-4,6.395528E-2,2.3490343E0,3.017E5,2.26E5,-3.7175894E-2,-8.596671E-4,7.043509E-3,1.15082E-2,6.32407E-2,-1.9074818E-2,4.693133E-4,3.1558774E-2,-1.4353444E-2],"split_indices":[16,20,13,0,0,9,15,0,0,21,4,4,0,6,14,0,0,0,0,0,0],"split_type":[0,0,0,0,0,0,0,0,0,0,0,0,0,0,0,0,0,0,0,0,0],"sum_hessian":[3.6585638E2,6.767765E0,3.5908862E2,5.7625585E0,1.0052063E0,5.9516726E0,3.5313693E2,1.1811361E0,4.770537E0,1.5264261E1,3.3787268E2,1.3876582E1,1.3876785E0,2.6657718E2,7.1295494E1,7.7036753E0,6.172907E0,1.08426216E2,1.5815097E2,3.5210083E1,3.6085415E1],"tree_param":{"num_deleted":"0","num_feature":"22","num_nodes":"21","size_leaf_vector":"1"}},{"base_weights":[2.4799537E-2,-2.974411E-2,4.130419E-1,3.973169E-1,-9.252397E-2,-4.5357728E-1,5.1516306E-1,7.2689235E-1,6.054596E-2,-1.5821064E-1,4.2231053E-1,4.8294846E-2,-6.0845494E-2,-4.7807834E-1,6.1191636E-1,-1.1802602E-2,8.35973E-1,-5.923595E-1,4.6374115E-1,8.3522743E-1,-1.8909597E-1,-4.770945E-1,6.576035E-1,2.0094564E-2,-6.2289186E-2,-8.27332E-2,7.4897546E-1,4.8524555E-2,-8.440964E-3,-1.0490159E-2,-6.782457E-2,-1.8278463E-2,3.902925E-2,-3.5828855E-3,5.1086087E-2,3.2086242E-2,-1.12596555E-2,2.2251168E-2,-5.4653104E-2,4.169607E-2,-1.2556146E-2,3.823902E-2,-2.899479E-2,5.2694112E-2,1.8046653E-2],"categories":[],"categories_nodes":[],"categories_segments":[],"categories_sizes":[],"default_left":[0,0,0,0,0,0,0,0,0,0,0,0,0,0,0,0,0,0,0,0,0,0,0,0,0,0,0,0,0,0,0,0,0,0,0,0,0,0,0,0,0,0,0,0,0],"id":19,"left_children":[1,3,5,7,9,11,13,15,17,19,21,-1,-1,23,25,-1,27,29,31,33,35,37,39,-1,-1,41,43,-1,-1,-1,-1,-1,-1,-1,-1,-1,-1,-1,-1,-1,-1,-1,-1,-1,-1],"loss_changes":[7.819237E0,8.72847E0,4.25871E0,4.5885334E0,9.652413E0,6.946506E0,4.2474613E0,2.4035034E0,5.9962564E0,7.8931484E0,7.158724E0,0E0,0E0,3.3477829E0,3.6741571E0,0E0,2.743617E0,2.269382E0,3.9633985E0,1.3900552E0,7.501645E0,4.625231E0,4.3846207E0,0E0,0E0,3.4573143E0,3.3805828E0,0E0,0E0,0E0,0E0,0E0,0E0,0E0,0E0,0E0,0E0,0E0,0E0,0E0,0E0,0E0,0E0,0E0,0E0],"parents":[2147483647,0,0,1,1,2,2,3,3,4,4,5,5,6,6,7,7,8,8,9,9,10,10,13,13,14,14,16,16,17,17,18,18,19,19,20,20,21,21,22,22,25,25,26,26],"right_children":[2,4,6,8,10,12,14,16,18,20,22,-1,-1,24,26,-1,28,30,32,34,36,38,40,-1,-1,42,44,-1,-1,-1,-1,-1,-1,-1,-1,-1,-1,-1,-1,-1,-1,-1,-1,-1,-1],"split_conditions":[1.7809717E-2,-2.0704592E-2,1.19262345E-1,2.4531764E-1,5.6189513E-1,1.777E5,1.327E5,6.117629E-3,1.4783186E-1,1.4157478E2,-8.621895E-3,4.8294846E-2,-6.0845494E-2,1.237E5,3.010076E-3,-1.1802602E-2,8.315733E-1,3.6379868E1,-9.010934E-3,1.25199776E2,1.1814349E-2,-2.2372026E-2,1.1532053E-2,2.0094564E-2,-6.2289186E-2,1.6827308E-1,2.673347E-2,4.8524555E-2,-8.440964E-3,-1.0490159E-2,-6.782457E-2,-1.8278463E-2,3.902925E-2,-3.5828855E-3,5.1086087E-2,3.2086242E-2,-1.12596555E-2,2.2251168E-2,-5.4653104E-2,4.169607E-2,-1.2556146E-2,3.823902E-2,-2.899479E-2,5.2694112E-2,1.8046653E-2],"split_indices":[6,14,18,19,20,4,4,9,20,16,14,0,0,4,14,0,18,17,5,16,20,8,6,0,0,20,7,0,0,0,0,0,0,0,0,0,0,0,0,0,0,0,0,0,0],"split_type":[0,0,0,0,0,0,0,0,0,0,0,0,0,0,0,0,0,0,0,0,0,0,0,0,0,0,0,0,0,0,0,0,0,0,0,0,0,0,0,0,0,0,0,0,0],"sum_hessian":[3.6766714E2,3.231865E2,4.4480648E1,4.0737854E1,2.8244864E2,4.3261943E0,4.0154453E1,2.0003416E1,2.0734438E1,2.5110355E2,3.1345087E1,1.4200804E0,2.906114E0,3.214466E0,3.6939987E1,1.9169469E0,1.808647E1,7.736821E0,1.2997617E1,6.786017E0,2.4431754E2,6.2866735E0,2.5058413E1,1.7197425E0,1.4947234E0,6.152739E0,3.0787247E1,1.5981112E1,2.1053574E0,6.005021E0,1.7317998E0,3.55056E0,9.447057E0,1.2624986E0,5.523518E0,9.474409E0,2.3484312E2,2.628808E0,3.6578658E0,2.1055403E1,4.0030093E0,2.0758111E0,4.076928E0,1.6279572E1,1.4507675E1],"tree_param":{"num_deleted":"0","num_feature":"22","num_nodes":"45","size_leaf_vector":"1"}},{"base_weights":[1.4273791E-2,3.4576576E-2,-7.263854E-1,-6.9948668E-3,7.8782713E-1,3.6116872E-2,-1.0703679E0,-4.8243257E-1,4.3586567E-2,1.2986976E0,-2.9697658E-2,7.6843165E-3,-7.041179E-2,-9.652781E-1,1.6458385E-1,2.872923E-1,-4.665123E-2,7.2014324E-2,2.517022E-3,-9.618877E-1,8.592361E-1,-5.5165257E-2,2.875919E-2,2.8178064E-2,-3.131367E-2,1.789168E-2,-3.363979E-2,4.569701E-2,-4.091937E-3,-5.3907824E-3,-6.749761E-2,6.5582976E-2,-3.7031092E-3],"categories":[],"categories_nodes":[],"categories_segments":[],"categories_sizes":[],"default_left":[0,0,0,0,0,0,0,0,0,0,0,0,0,0,0,0,0,0,0,0,0,0,0,0,0,0,0,0,0,0,0,0,0],"id":20,"left_children":[1,3,5,7,9,-1,11,13,15,17,19,-1,-1,21,23,25,27,-1,-1,29,31,-1,-1,-1,-1,-1,-1,-1,-1,-1,-1,-1,-1],"loss_changes":[5.556375E0,1.1246287E1,5.686434E0,8.226047E0,7.8837357E0,0E0,3.678195E0,1.0434382E1,6.815313E0,1.9747467E0,7.6227727E0,0E0,0E0,4.670418E0,5.0576735E0,5.9106064E0,7.733384E0,0E0,0E0,1.3376932E0,2.0928378E0,0E0,0E0,0E0,0E0,0E0,0E0,0E0,0E0,0E0,0E0,0E0,0E0],"parents":[2147483647,0,0,1,1,2,2,3,3,4,4,6,6,7,7,8,8,9,9,10,10,13,13,14,14,15,15,16,16,19,19,20,20],"right_children":[2,4,6,8,10,-1,12,14,16,18,20,-1,-1,22,24,26,28,-1,-1,30,32,-1,-1,-1,-1,-1,-1,-1,-1,-1,-1,-1,-1],"split_conditions":[5.6194047E4,5.468009E4,4.5747156E-3,1.389E5,5.659865E4,3.6116872E-2,3.370231E1,4.248177E-3,-1.0022683E-2,8.322165E-3,5.76145E4,7.6843165E-3,-7.041179E-2,3.3353206E-2,3.276257E-2,8.37083E-1,1.693623E4,7.2014324E-2,2.517022E-3,4.8293867E-3,2.115681E-2,-5.5165257E-2,2.875919E-2,2.8178064E-2,-3.131367E-2,1.789168E-2,-3.363979E-2,4.569701E-2,-4.091937E-3,-5.3907824E-3,-6.749761E-2,6.5582976E-2,-3.7031092E-3],"split_indices":[13,12,9,4,0,0,17,7,15,5,1,0,0,8,8,18,12,0,0,9,8,0,0,0,0,0,0,0,0,0,0,0,0],"split_type":[0,0,0,0,0,0,0,0,0,0,0,0,0,0,0,0,0,0,0,0,0,0,0,0,0,0,0,0,0,0,0,0,0],"sum_hessian":[3.6683237E2,3.5797302E2,8.85936E0,3.401889E2,1.7784107E1,1.4888726E0,7.370487E0,3.189122E1,3.082977E2,1.0582524E1,7.2015824E0,1.7122695E0,5.658218E0,1.7980852E1,1.3910367E1,8.271773E1,2.2557996E2,9.366436E0,1.2160884E0,3.4752035E0,3.726379E0,1.676268E1,1.2181715E0,9.436951E0,4.4734173E0,7.764047E1,5.0772495E0,7.088766E0,2.184912E2,1.484928E0,1.9902755E0,2.2367134E0,1.4896655E0],"tree_param":{"num_deleted":"0","num_feature":"22","num_nodes":"33","size_leaf_vector":"1"}},{"base_weights":[1.3364203E-2,1.0680225E0,-1.0653509E-2,5.7780474E-2,1.2117845E-2,1.1069764E-2,-7.966393E-1,-2.9501794E-2,7.5963736E-1,-1.2025122E-1,-6.763293E-2,1.9376324E-2,-6.9694E-1,6.626462E-2,-1.60214E-1,-8.5306954E-1,5.461492E-2,-1.6260967E-2,4.337601E-3,8.650481E-3,-6.376989E-2,5.8633424E-2,-3.7195172E-2,-5.617292E-2,-7.130459E-3],"categories":[],"categories_nodes":[],"categories_segments":[],"categories_sizes":[],"default_left":[0,0,0,0,0,0,0,0,0,0,0,0,0,0,0,0,0,0,0,0,0,0,0,0,0],"id":21,"left_children":[1,3,5,-1,-1,7,9,11,13,15,-1,17,19,-1,21,23,-1,-1,-1,-1,-1,-1,-1,-1,-1],"loss_changes":[9.20113E0,3.0482197E-1,6.0822153E0,0E0,0E0,1.0564818E1,3.440383E0,1.078703E1,9.517694E0,5.7478285E0,0E0,7.19497E0,1.1574129E1,0E0,6.8644705E0,5.9660816E-1,0E0,0E0,0E0,0E0,0E0,0E0,0E0,0E0,0E0],"parents":[2147483647,0,0,1,1,2,2,5,5,6,6,7,7,8,8,9,9,11,11,12,12,14,14,15,15],"right_children":[2,4,6,-1,-1,8,10,12,14,16,-1,18,20,-1,22,24,-1,-1,-1,-1,-1,-1,-1,-1,-1],"split_conditions":[1.4157478E2,2.6391694E-2,5.6194047E4,5.7780474E-2,1.2117845E-2,5.468009E4,-3.0123496E-1,5.156769E4,5.659865E4,1.2611973E-3,-6.763293E-2,-8.7841487E-1,-5.983708E-3,6.626462E-2,-3.4205415E-3,-1.0578848E-3,5.461492E-2,-1.6260967E-2,4.337601E-3,8.650481E-3,-6.376989E-2,5.8633424E-2,-3.7195172E-2,-5.617292E-2,-7.130459E-3],"split_indices":[16,8,13,0,0,12,21,12,0,14,0,21,6,0,6,6,0,0,0,0,0,0,0,0,0],"split_type":[0,0,0,0,0,0,0,0,0,0,0,0,0,0,0,0,0,0,0,0,0,0,0,0,0],"sum_hessian":[3.6179422E2,7.087823E0,3.547064E2,6.0467696E0,1.041053E0,3.4612598E2,8.5804E0,3.29242E2,1.6883974E1,4.419917E0,4.160484E0,3.076808E2,2.156124E1,1.0181918E1,6.7020555E0,2.939726E0,1.480191E0,4.9693657E1,2.5798712E2,8.890948E0,1.2670291E1,1.7337936E0,4.9682617E0,1.7082756E0,1.2314506E0],"tree_param":{"num_deleted":"0","num_feature":"22","num_nodes":"25","size_leaf_vector":"1"}},{"base_weights":[-5.5482215E-3,2.0680439E-2,-8.7163067E-1,-1.3589741E-2,6.553956E-1,-1.0961919E0,1.4897332E-2,2.9887736E-2,-5.7522815E-1,1.1081903E0,-4.3511942E-1,-1.31679E0,8.719607E-3,-2.6577113E-3,8.559542E-1,-9.857944E-1,2.7958322E-1,6.941284E-2,-4.5833897E-2,-1.1298213E0,4.0001303E-2,-1.3262327E-2,-7.370193E-2,-1.5638996E-3,4.707031E-2,-2.356646E-2,5.4804087E-2,-6.61432E-2,1.1769507E-2,4.1160494E-2,-3.8498018E-2,-3.3888526E-2,3.0351121E-2,-1.2444719E-2,-7.056149E-2],"categories":[],"categories_nodes":[],"categories_segments":[],"categories_sizes":[],"default_left":[0,0,0,0,0,0,0,0,0,0,0,0,0,0,0,0,0,0,0,0,0,0,0,0,0,0,0,0,0,0,0,0,0,0,0],"id":22,"left_children":[1,3,5,7,9,11,-1,13,15,17,19,21,-1,23,25,27,29,-1,31,33,-1,-1,-1,-1,-1,-1,-1,-1,-1,-1,-1,-1,-1,-1,-1],"loss_changes":[8.133347E0,7.5725365E0,3.090691E0,8.097095E0,9.287871E0,2.7642002E0,0E0,8.28457E0,8.636753E0,4.2274714E0,6.009488E0,9.0239906E-1,0E0,8.0646515E0,4.2393274E0,7.026988E0,5.488719E0,0E0,1.8487916E0,6.9558716E-1,0E0,0E0,0E0,0E0,0E0,0E0,0E0,0E0,0E0,0E0,0E0,0E0,0E0,0E0,0E0],"parents":[2147483647,0,0,1,1,2,2,3,3,4,4,5,5,7,7,8,8,9,9,10,10,11,11,13,13,14,14,15,15,16,16,18,18,19,19],"right_children":[2,4,6,8,10,12,-1,14,16,18,20,22,-1,24,26,28,30,-1,32,34,-1,-1,-1,-1,-1,-1,-1,-1,-1,-1,-1,-1,-1,-1,-1],"split_conditions":[5.6194047E4,5.4578285E4,1.3421187E-2,5.13113E4,6.545721E1,5.944648E-3,1.4897332E-2,5.05618E4,1.2595922E-2,5.68396E4,3.086121E-2,4.2250534E-3,8.719607E-3,5.900882E-2,2.5123745E1,1.0880282E-2,3.733312E-2,6.941284E-2,5.73758E4,1.8994866E-2,4.0001303E-2,-1.3262327E-2,-7.370193E-2,-1.5638996E-3,4.707031E-2,-2.356646E-2,5.4804087E-2,-6.61432E-2,1.1769507E-2,4.1160494E-2,-3.8498018E-2,-3.3888526E-2,3.0351121E-2,-1.2444719E-2,-7.056149E-2],"split_indices":[13,12,7,3,17,10,0,1,6,3,8,9,0,8,17,10,7,0,0,8,0,0,0,0,0,0,0,0,0,0,0,0,0,0,0],"split_type":[0,0,0,0,0,0,0,0,0,0,0,0,0,0,0,0,0,0,0,0,0,0,0,0,0,0,0,0,0,0,0,0,0,0,0],"sum_hessian":[3.5624844E2,3.4672427E2,9.524164E0,3.2989105E2,1.683322E1,8.042695E0,1.4814687E0,3.070672E2,2.2823858E1,1.1883036E1,4.9501843E0,6.821913E0,1.2207823E0,2.963869E2,1.0680297E1,1.5314883E1,7.5089755E0,9.399041E0,2.483994E0,3.2228053E0,1.727379E0,1.2369637E0,5.584949E0,2.8860443E2,7.782474E0,1.4887173E0,9.19158E0,1.1936833E1,3.3780503E0,5.088804E0,2.4201717E0,1.2428281E0,1.2411658E0,1.2365E0,1.9863052E0],"tree_param":{"num_deleted":"0","num_feature":"22","num_nodes":"35","size_leaf_vector":"1"}},{"base_weights":[-1.2072258E-2,-2.7524456E-2,5.6562025E-2,5.720667E-2,-2.3960434E-1,-1.0089171E-2,9.614698E-1,-3.2128868E-1,8.278762E-1,1.2439913E-1,-2.1470746E-1,1.1431597E0,-3.3296105E-2,-5.6090343E-1,3.9881766E-2,6.1858047E-2,-3.5765003E-2,-9.871543E-4,3.495324E-2,-1.5342466E-2,5.2776456E-2,1.8683916E-2,6.47123E-2,8.344482E-3,-3.5462257E-2,2.7839959E-2,-2.3340523E-2],"categories":[],"categories_nodes":[],"categories_segments":[],"categories_sizes":[],"default_left":[0,0,0,0,0,0,0,0,0,0,0,0,0,0,0,0,0,0,0,0,0,0,0,0,0,0,0],"id":23,"left_children":[1,3,-1,5,7,9,11,13,15,17,19,21,-1,23,25,-1,-1,-1,-1,-1,-1,-1,-1,-1,-1,-1,-1],"loss_changes":[6.510634E0,6.5340166E0,0E0,1.5835966E1,9.314869E0,6.715104E0,6.090769E0,8.4272785E0,5.720536E0,1.2214327E1,1.1648737E1,1.4442081E0,0E0,6.4288807E0,1.0649797E1,0E0,0E0,0E0,0E0,0E0,0E0,0E0,0E0,0E0,0E0,0E0,0E0],"parents":[2147483647,0,0,1,1,3,3,4,4,5,5,6,6,7,7,8,8,9,9,10,10,11,11,13,13,14,14],"right_children":[2,4,-1,6,8,10,12,14,16,18,20,22,-1,24,26,-1,-1,-1,-1,-1,-1,-1,-1,-1,-1,-1,-1],"split_conditions":[1.0826381E3,5.4610767E2,5.6562025E-2,5.140036E2,5.481721E4,2.1075003E-2,5.6408293E4,1.852E5,1.3620931E-2,1.2574994E-2,1.2207785E-2,-7.0739635E-3,-3.3296105E-2,1.8783408E-1,5.7420917E-3,6.1858047E-2,-3.5765003E-2,-9.871543E-4,3.495324E-2,-1.5342466E-2,5.2776456E-2,1.8683916E-2,6.47123E-2,8.344482E-3,-3.5462257E-2,2.7839959E-2,-2.3340523E-2],"split_indices":[16,16,0,16,11,15,13,4,7,7,10,7,0,18,15,0,0,0,0,0,0,0,0,0,0,0,0],"split_type":[0,0,0,0,0,0,0,0,0,0,0,0,0,0,0,0,0,0,0,0,0,0,0,0,0,0,0],"sum_hessian":[3.6576343E2,3.6184885E2,3.9145656E0,2.5907306E2,1.02775795E2,2.420485E2,1.702456E1,9.6119675E1,6.6561227E0,1.462896E2,9.5758896E1,1.5582417E1,1.4421452E0,5.745124E1,3.8668438E1,5.417566E0,1.2385569E0,1.1772621E2,2.8563383E1,8.998956E1,5.7693315E0,3.127476E0,1.245494E1,9.706115E0,4.7745125E1,1.909213E1,1.9576305E1],"tree_param":{"num_deleted":"0","num_feature":"22","num_nodes":"27","size_leaf_vector":"1"}},{"base_weights":[2.5441702E-2,9.813919E-1,8.134806E-3,6.104712E-2,-4.0391646E-3,-4.4413137E-1,4.544595E-2,5.0761264E-2,-6.2641597E-1,-7.222672E-2,2.9315862E-1,-3.9487186E-1,-7.180694E-2,3.9453977E-1,-1.6629167E-1,1.0405725E0,-1.6234634E-2,4.41771E-2,-3.2685515E-2,8.033674E-3,6.467043E-2,-6.5285645E-2,-6.057716E-3,5.827404E-2,1.0276851E-2,-3.8147047E-2,1.4332774E-2],"categories":[],"categories_nodes":[],"categories_segments":[],"categories_sizes":[],"default_left":[0,0,0,0,0,0,0,0,0,0,0,0,0,0,0,0,0,0,0,0,0,0,0,0,0,0,0],"id":24,"left_children":[1,3,5,-1,-1,7,9,-1,11,13,15,17,-1,19,21,23,25,-1,-1,-1,-1,-1,-1,-1,-1,-1,-1],"loss_changes":[6.0852575E0,1.7629032E0,6.141477E0,0E0,0E0,8.01491E0,9.81565E0,0E0,4.1719923E0,1.0102723E1,2.5086443E1,7.5382414E0,0E0,7.914622E0,9.663172E0,3.0724869E0,1.7782423E1,0E0,0E0,0E0,0E0,0E0,0E0,0E0,0E0,0E0,0E0],"parents":[2147483647,0,0,1,1,2,2,5,5,6,6,8,8,9,9,10,10,11,11,13,13,14,14,15,15,16,16],"right_children":[2,4,6,-1,-1,8,10,-1,12,14,16,18,-1,20,22,24,26,-1,-1,-1,-1,-1,-1,-1,-1,-1,-1],"split_conditions":[1.6296843E4,9.445085E-3,1.7465537E4,6.104712E-2,-4.0391646E-3,2.8327679E1,9.205236E-3,5.0761264E-2,1.777235E4,1.941671E4,3.5366754E4,9.859213E-3,-7.180694E-2,1.8735129E4,1.9374959E4,4.21E5,3.8790547E4,4.41771E-2,-3.2685515E-2,8.033674E-3,6.467043E-2,-6.5285645E-2,-6.057716E-3,5.827404E-2,1.0276851E-2,-3.8147047E-2,1.4332774E-2],"split_indices":[13,10,13,0,0,17,10,0,1,11,13,10,0,11,13,4,13,0,0,0,0,0,0,0,0,0,0],"split_type":[0,0,0,0,0,0,0,0,0,0,0,0,0,0,0,0,0,0,0,0,0,0,0,0,0,0,0],"sum_hessian":[3.6729337E2,5.5408006E0,3.6175256E2,4.3991866E0,1.1416142E0,2.6738537E1,3.35014E2,2.461611E0,2.4276926E1,2.2760274E2,1.07411285E2,2.0035378E1,4.2415485E0,3.7638695E1,1.8996404E2,3.0754093E1,7.665719E1,2.967126E0,1.706825E1,3.0803135E1,6.835561E0,6.1743655E0,1.8378967E2,2.6408123E1,4.345969E0,2.1683245E1,5.4973946E1],"tree_param":{"num_deleted":"0","num_feature":"22","num_nodes":"27","size_leaf_vector":"1"}},{"base_weights":[4.3670405E-3,9.5102316E-1,-1.833853E-2,5.6180935E-2,1.4736843E-2,-1.484658E-1,1.4748427E-1,-4.1070148E-1,5.803723E-2,5.6113034E-1,4.05489E-2,-5.373237E-1,4.232504E-1,-6.763797E-1,1.5211847E-1,-7.8614223E-1,7.531274E-1,-2.1473607E-1,2.4530554E-1,-3.4399863E-2,9.065366E-3,5.021072E-2,-4.1376393E-2,-5.3566277E-2,3.5406034E-2,1.8811326E-2,-1.0925633E-2,1.3770202E-2,-7.009278E-2,4.7902156E-2,-1.3963057E-3,3.596281E-3,-2.843464E-2,3.5764422E-2,-1.0042228E-2],"categories":[],"categories_nodes":[],"categories_segments":[],"categories_sizes":[],"default_left":[0,0,0,0,0,0,0,0,0,0,0,0,0,0,0,0,0,0,0,0,0,0,0,0,0,0,0,0,0,0,0,0,0,0,0],"id":25,"left_children":[1,3,5,-1,-1,7,9,11,13,15,17,19,21,23,25,27,29,31,33,-1,-1,-1,-1,-1,-1,-1,-1,-1,-1,-1,-1,-1,-1,-1,-1],"loss_changes":[7.767333E0,6.27594E-1,7.640904E0,0E0,0E0,1.0764284E1,6.8667355E0,9.467292E0,7.830171E0,8.8479E0,6.578065E0,8.398052E0,9.619024E0,7.8032417E0,8.384412E0,3.3078775E0,4.579527E0,5.732732E0,1.4767145E1,0E0,0E0,0E0,0E0,0E0,0E0,0E0,0E0,0E0,0E0,0E0,0E0,0E0,0E0,0E0,0E0],"parents":[2147483647,0,0,1,1,2,2,5,5,6,6,7,7,8,8,9,9,10,10,11,11,12,12,13,13,14,14,15,15,16,16,17,17,18,18],"right_children":[2,4,6,-1,-1,8,10,12,14,16,18,20,22,24,26,28,30,32,34,-1,-1,-1,-1,-1,-1,-1,-1,-1,-1,-1,-1,-1,-1,-1,-1],"split_conditions":[1.4157478E2,3.387409E-2,-7.930171E-2,5.6180935E-2,1.4736843E-2,-4.6694773E-4,5.8541815E-3,7.498253E2,5.290978E-3,4.3362835E-3,3.7182367E2,3.161418E-2,8.5774E2,5.6987914E4,2.115681E-2,2.8325056E-3,1.2476981E-2,5.6941807E-3,4.4434496E4,-3.4399863E-2,9.065366E-3,5.021072E-2,-4.1376393E-2,-5.3566277E-2,3.5406034E-2,1.8811326E-2,-1.0925633E-2,1.3770202E-2,-7.009278E-2,4.7902156E-2,-1.3963057E-3,3.596281E-3,-2.843464E-2,3.5764422E-2,-1.0042228E-2],"split_indices":[16,15,21,0,0,6,10,16,10,10,16,15,16,12,8,6,6,8,13,0,0,0,0,0,0,0,0,0,0,0,0,0,0,0,0],"split_type":[0,0,0,0,0,0,0,0,0,0,0,0,0,0,0,0,0,0,0,0,0,0,0,0,0,0,0,0,0,0,0,0,0,0,0],"sum_hessian":[3.5955463E2,7.4642673E0,3.5209033E2,5.346195E0,2.118072E0,1.9733722E2,1.5475313E2,8.650136E1,1.1083586E2,3.0916178E1,1.2383695E2,7.540761E1,1.1093748E1,1.1883282E1,9.8952576E1,3.4702635E0,2.7445915E1,5.5096012E1,6.874094E1,6.237271E1,1.3034899E1,7.7098083E0,3.3839397E0,9.421798E0,2.4614837E0,6.165612E1,3.7296455E1,1.4768119E0,1.9934516E0,2.1562275E1,5.88364E0,3.088209E1,2.4213924E1,3.318256E1,3.555838E1],"tree_param":{"num_deleted":"0","num_feature":"22","num_nodes":"35","size_leaf_vector":"1"}},{"base_weights":[-7.3719593E-3,2.8177664E-1,-8.240641E-2,8.479242E-1,8.612441E-2,-6.4360404E-1,-1.4486376E-2,1.4766742E0,-3.0992666E-2,-4.8172018E-1,3.947334E-1,1.3033772E-1,-1.3089445E0,6.6682637E-1,-6.0057428E-2,2.4217343E-2,7.741942E-2,4.83582E-1,-6.7501776E-2,3.780973E-1,-8.369675E-1,6.2849724E-1,-7.4517924E-1,1.1550047E0,-8.493465E-1,-4.05704E-1,-1.6762012E0,9.798731E-1,-3.7589544E-1,-4.672322E-1,3.942577E-2,-2.0728635E-2,5.2884698E-2,4.5960303E-2,-2.8626204E-2,4.2014066E-2,-5.958718E-2,-3.4668077E-2,4.0181164E-2,7.0852237E-3,-7.4311815E-2,1.2575367E-2,7.087196E-2,3.1118384E-2,-6.5230206E-2,-6.8670906E-2,1.9809967E-2,-1.1946422E-2,-9.133582E-2,-1.2662979E-2,6.1166402E-2,-5.6587506E-2,3.3877525E-2,-5.5928E-2,3.844885E-3,3.68322E-2,-3.2329068E-3],"categories":[],"categories_nodes":[],"categories_segments":[],"categories_sizes":[],"default_left":[0,0,0,0,0,0,0,0,0,0,0,0,0,0,0,0,0,0,0,0,0,0,0,0,0,0,0,0,0,0,0,0,0,0,0,0,0,0,0,0,0,0,0,0,0,0,0,0,0,0,0,0,0,0,0,0,0],"id":26,"left_children":[1,3,5,7,9,11,13,15,17,19,21,23,25,27,29,-1,-1,31,-1,33,35,37,39,41,43,45,47,49,51,53,55,-1,-1,-1,-1,-1,-1,-1,-1,-1,-1,-1,-1,-1,-1,-1,-1,-1,-1,-1,-1,-1,-1,-1,-1,-1,-1],"loss_changes":[7.7569866E0,8.087171E0,1.0807756E1,1.0439058E1,9.979502E0,1.59353895E1,7.9316897E0,3.1749725E-2,6.641269E0,6.462058E0,1.025898E1,1.6100952E1,4.8109875E0,5.5968585E0,9.70595E0,0E0,0E0,4.0908136E0,0E0,3.906466E0,9.6585655E0,7.7408314E0,4.620661E0,1.4895649E0,6.357101E0,5.2811394E0,2.0402908E0,4.091447E0,4.2872415E0,1.6756126E1,1.4062191E1,0E0,0E0,0E0,0E0,0E0,0E0,0E0,0E0,0E0,0E0,0E0,0E0,0E0,0E0,0E0,0E0,0E0,0E0,0E0,0E0,0E0,0E0,0E0,0E0,0E0,0E0],"parents":[2147483647,0,0,1,1,2,2,3,3,4,4,5,5,6,6,7,7,8,8,9,9,10,10,11,11,12,12,13,13,14,14,17,17,19,19,20,20,21,21,22,22,23,23,24,24,25,25,26,26,27,27,28,28,29,29,30,30],"right_children":[2,4,6,8,10,12,14,16,18,20,22,24,26,28,30,-1,-1,32,-1,34,36,38,40,42,44,46,48,50,52,54,56,-1,-1,-1,-1,-1,-1,-1,-1,-1,-1,-1,-1,-1,-1,-1,-1,-1,-1,-1,-1,-1,-1,-1,-1,-1,-1],"split_conditions":[2.0336092E2,1.7783225E4,2.300819E2,7.399624E1,1.9374959E4,6.5202466E-3,2.4478586E2,-9.946274E-3,1.807587E4,1.494965E2,2.499854E4,7.128044E-3,1.3871747E-1,1.4418303E-2,3.143393E2,2.4217343E-2,7.741942E-2,5.281332E-3,-6.7501776E-2,7.947969E-3,-1.5756156E-2,3.4086008E-3,4.809642E-3,2.0909264E2,3.4788742E1,6.0164545E-2,-1.1469194E0,-2.3047425E-2,2.244369E4,8.617065E-3,3.5366754E4,-2.0728635E-2,5.2884698E-2,4.5960303E-2,-2.8626204E-2,4.2014066E-2,-5.958718E-2,-3.4668077E-2,4.0181164E-2,7.0852237E-3,-7.4311815E-2,1.2575367E-2,7.087196E-2,3.1118384E-2,-6.5230206E-2,-6.8670906E-2,1.9809967E-2,-1.1946422E-2,-9.133582E-2,-1.2662979E-2,6.1166402E-2,-5.6587506E-2,3.3877525E-2,-5.5928E-2,3.844885E-3,3.68322E-2,-3.2329068E-3],"split_indices":[16,13,16,17,13,14,16,7,11,16,13,9,19,8,16,0,0,9,0,7,14,9,9,16,17,19,21,14,12,10,13,0,0,0,0,0,0,0,0,0,0,0,0,0,0,0,0,0,0,0,0,0,0,0,0,0,0],"split_type":[0,0,0,0,0,0,0,0,0,0,0,0,0,0,0,0,0,0,0,0,0,0,0,0,0,0,0,0,0,0,0,0,0,0,0,0,0,0,0,0,0,0,0,0,0,0,0,0,0,0,0,0,0,0,0,0,0],"sum_hessian":[3.5545874E2,7.266925E1,2.827895E2,1.780734E1,5.486191E1,2.9615107E1,2.531744E2,9.984576E0,7.8227644E0,1.9119972E1,3.574194E1,1.4061962E1,1.5553145E1,1.5017762E1,2.3815663E2,1.1955348E0,8.7890415E0,6.0830693E0,1.7396951E0,5.571283E0,1.3548689E1,3.0031893E1,5.7100472E0,6.785718E0,7.276244E0,5.1042676E0,1.0448877E1,1.1596519E1,3.4212425E0,4.6036648E1,1.9211998E2,2.4804623E0,3.602607E0,3.5714207E0,1.999862E0,2.1265712E0,1.1422117E1,3.1671197E0,2.6864773E1,2.9674444E0,2.7426028E0,1.9681659E0,4.817552E0,1.6323304E0,5.6439133E0,1.9900428E0,3.1142247E0,1.2357801E0,9.213098E0,1.9053557E0,9.691164E0,1.9487032E0,1.4725394E0,2.0473738E1,2.556291E1,2.4165714E1,1.6795427E2],"tree_param":{"num_deleted":"0","num_feature":"22","num_nodes":"57","size_leaf_vector":"1"}},{"base_weights":[2.5639908E-2,9.102322E-1,-1.7523671E-3,1.0844702E0,-6.71966E-3,6.759734E-1,-3.154455E-2,6.4076665E-3,1.3048735E0,6.2271934E-2,2.2285247E-1,-3.545629E-1,2.766774E-2,2.051768E-2,7.016912E-2,-4.109718E-1,1.0098848E0,-5.3453994E-1,5.823559E-1,4.1684678E-1,-5.4472722E-2,-6.291792E-2,2.5977472E-2,5.689602E-2,1.5100839E-2,-3.599399E-2,1.023716E-2,-9.645818E-3,4.458505E-2,2.9288007E-2,-5.322059E-2,-5.5601406E-3,1.62716E-2],"categories":[],"categories_nodes":[],"categories_segments":[],"categories_sizes":[],"default_left":[0,0,0,0,0,0,0,0,0,0,0,0,0,0,0,0,0,0,0,0,0,0,0,0,0,0,0,0,0,0,0,0,0],"id":27,"left_children":[1,3,5,7,-1,9,11,-1,13,-1,15,17,19,-1,-1,21,23,25,27,29,31,-1,-1,-1,-1,-1,-1,-1,-1,-1,-1,-1,-1],"loss_changes":[8.806208E0,2.1325693E0,7.157722E0,1.8279018E0,0E0,3.5742903E0,6.5036592E0,0E0,9.23872E-2,0E0,5.169409E0,9.192375E0,9.224517E0,0E0,0E0,5.3769875E0,6.787443E-2,6.272458E0,2.322198E0,1.3204126E1,5.1778307E0,0E0,0E0,0E0,0E0,0E0,0E0,0E0,0E0,0E0,0E0,0E0,0E0],"parents":[2147483647,0,0,1,1,2,2,3,3,5,5,6,6,8,8,10,10,11,11,12,12,15,15,16,16,17,17,18,18,19,19,20,20],"right_children":[2,4,6,8,-1,10,12,-1,14,-1,16,18,20,-1,-1,22,24,26,28,30,32,-1,-1,-1,-1,-1,-1,-1,-1,-1,-1,-1,-1],"split_conditions":[7.052242E-3,1.2353009E0,1.693623E4,1.418E5,-6.71966E-3,1.1225928E-2,-8.899028E-1,6.4076665E-3,-1.45489955E-2,6.2271934E-2,1.670444E4,2.183E5,1.7843114E-1,2.051768E-2,7.016912E-2,1.2963026E-2,1.4889837E-2,5.07361E4,1.95812E4,3.697E5,3.574E5,-6.291792E-2,2.5977472E-2,5.689602E-2,1.5100839E-2,-3.599399E-2,1.023716E-2,-9.645818E-3,4.458505E-2,2.9288007E-2,-5.322059E-2,-5.5601406E-3,1.62716E-2],"split_indices":[20,21,12,4,0,10,21,0,8,0,12,4,18,0,0,9,9,0,0,4,4,0,0,0,0,0,0,0,0,0,0,0,0],"split_type":[0,0,0,0,0,0,0,0,0,0,0,0,0,0,0,0,0,0,0,0,0,0,0,0,0,0,0,0,0,0,0,0,0],"sum_hessian":[3.6236157E2,9.9158125E0,3.5244577E2,8.465646E0,1.4501672E0,1.3927488E1,3.3851828E2,1.8818516E0,6.583794E0,5.3966293E0,8.530859E0,5.1668E1,2.8685028E2,1.1655505E0,5.4182434E0,4.9900336E0,3.5408251E0,4.370246E1,7.9655366E0,4.928145E1,2.3756883E2,2.4272885E0,2.5627453E0,2.4840002E0,1.056825E0,3.496333E1,8.739133E0,2.3792057E0,5.586331E0,4.4779617E1,4.501831E0,2.0731792E2,3.0250902E1],"tree_param":{"num_deleted":"0","num_feature":"22","num_nodes":"33","size_leaf_vector":"1"}},{"base_weights":[4.0235918E-2,6.28859E-2,-7.352375E-1,3.1356413E-2,6.3645416E-1,1.9312797E-2,-1.0851773E0,7.0482284E-2,-8.711017E-1,1.0217514E0,-2.384437E-1,-6.723047E-2,1.216776E-2,8.7554985E-1,4.826506E-2,3.2931513E-1,-7.499987E-2,6.50962E-2,1.6168582E-1,-9.5729756E-1,5.5227574E-2,5.5987574E-2,-1.7323576E-2,-3.3435997E-2,4.2254995E-3,4.9444173E-2,-2.3895022E-2,3.8803477E-2,-3.8276777E-2,8.58559E-3,-7.047979E-2],"categories":[],"categories_nodes":[],"categories_segments":[],"categories_sizes":[],"default_left":[0,0,0,0,0,0,0,0,0,0,0,0,0,0,0,0,0,0,0,0,0,0,0,0,0,0,0,0,0,0,0],"id":28,"left_children":[1,3,5,7,9,-1,11,13,15,17,19,-1,-1,21,23,25,-1,-1,27,29,-1,-1,-1,-1,-1,-1,-1,-1,-1,-1,-1],"loss_changes":[6.443014E0,6.3958974E0,4.506233E0,1.1972702E1,6.457727E0,0E0,3.153431E0,5.7573576E0,1.1132875E1,2.9189978E0,7.2813735E0,0E0,0E0,2.96915E0,8.283976E0,3.4886003E0,0E0,0E0,3.0624628E0,2.659944E0,0E0,0E0,0E0,0E0,0E0,0E0,0E0,0E0,0E0,0E0,0E0],"parents":[2147483647,0,0,1,1,2,2,3,3,4,4,6,6,7,7,8,8,9,9,10,10,13,13,14,14,15,15,18,18,19,19],"right_children":[2,4,6,8,10,-1,12,14,16,18,20,-1,-1,22,24,26,-1,-1,28,30,-1,-1,-1,-1,-1,-1,-1,-1,-1,-1,-1],"split_conditions":[5.6194047E4,5.4578285E4,4.2855986E-3,5.1881586E4,5.6114637E4,1.9312797E-2,5.2835443E2,7.052242E-3,-6.568056E-3,1.4034691E-2,5.6987914E4,-6.723047E-2,1.216776E-2,1.2353009E0,5.2069515E-2,5.118695E4,-7.499987E-2,6.50962E-2,5.3033234E2,-3.5406646E-4,5.5227574E-2,5.5987574E-2,-1.7323576E-2,-3.3435997E-2,4.2254995E-3,4.9444173E-2,-2.3895022E-2,3.8803477E-2,-3.8276777E-2,8.58559E-3,-7.047979E-2],"split_indices":[13,12,9,12,12,0,16,20,6,7,12,0,0,21,20,2,0,0,16,5,0,0,0,0,0,0,0,0,0,0,0],"split_type":[0,0,0,0,0,0,0,0,0,0,0,0,0,0,0,0,0,0,0,0,0,0,0,0,0,0,0,0,0,0,0],"sum_hessian":[3.6318866E2,3.5377454E2,9.414122E0,3.3634033E2,1.7434217E1,2.2142084E0,7.1999135E0,3.232479E2,1.3092441E1,1.1987276E1,5.446942E0,6.0135107E0,1.1864028E0,7.649528E0,3.1559836E2,4.6647906E0,8.42765E0,8.65432E0,3.3329566E0,3.7349555E0,1.7119864E0,6.4452386E0,1.2042894E0,1.4346701E1,3.0125165E2,2.443321E0,2.2214699E0,2.1027048E0,1.2302517E0,1.2457414E0,2.4892142E0],"tree_param":{"num_deleted":"0","num_feature":"22","num_nodes":"31","size_leaf_vector":"1"}},{"base_weights":[-7.1012916E-4,8.2170653E-1,-2.0529442E-2,-1.0375113E-2,9.9666256E-1,4.5897892E-1,-5.5893637E-2,5.471781E-2,1.0931986E-2,-8.04953E-2,9.496653E-1,-1.0911038E-1,3.354918E-1,9.195074E-1,-6.235307E-1,1.1033906E0,3.895678E-3,5.654675E-1,-1.4645424E-1,-2.8821784E-1,4.9756992E-1,5.2662075E-2,1.0216717E-2,6.2625594E-3,-6.414578E-2,2.4649417E-2,6.0419437E-2,4.247138E-2,-3.368018E-2,-7.048625E-2,-6.391421E-3,1.0432144E-2,-6.7068E-2,3.9943524E-2,-7.532515E-4],"categories":[],"categories_nodes":[],"categories_segments":[],"categories_sizes":[],"default_left":[0,0,0,0,0,0,0,0,0,0,0,0,0,0,0,0,0,0,0,0,0,0,0,0,0,0,0,0,0,0,0,0,0,0,0],"id":29,"left_children":[1,3,5,-1,7,9,11,-1,-1,13,15,17,19,21,23,25,-1,27,29,31,33,-1,-1,-1,-1,-1,-1,-1,-1,-1,-1,-1,-1,-1,-1],"loss_changes":[5.934411E0,1.7495232E0,6.0536447E0,0E0,3.3040905E-1,6.568436E0,6.9506116E0,0E0,0E0,7.417485E0,1.645606E0,7.4632406E0,4.184833E0,2.476592E-1,4.4877253E0,1.03401184E-1,0E0,6.0517354E0,6.370419E0,4.9260798E0,4.970006E0,0E0,0E0,0E0,0E0,0E0,0E0,0E0,0E0,0E0,0E0,0E0,0E0,0E0,0E0],"parents":[2147483647,0,0,1,1,2,2,4,4,5,5,6,6,9,9,10,10,11,11,12,12,13,13,14,14,15,15,17,17,18,18,19,19,20,20],"right_children":[2,4,6,-1,8,10,12,-1,-1,14,16,18,20,22,24,26,-1,28,30,32,34,-1,-1,-1,-1,-1,-1,-1,-1,-1,-1,-1,-1,-1,-1],"split_conditions":[1.4157478E2,8.4635764E-2,-3.721719E-2,-1.0375113E-2,6.288195E-1,-4.0773027E-2,5.6189513E-1,5.471781E-2,1.0931986E-2,-6.521918E-2,4.7823635E-1,-3.579999E-2,-9.453858E-3,1.928348E-2,1.2784058E-2,1.10067405E-1,3.895678E-3,7.1703405E-3,-2.8850682E-2,-1.2178249E-2,9.381173E-3,5.2662075E-2,1.0216717E-2,6.2625594E-3,-6.414578E-2,2.4649417E-2,6.0419437E-2,4.247138E-2,-3.368018E-2,-7.048625E-2,-6.391421E-3,1.0432144E-2,-6.7068E-2,3.9943524E-2,-7.532515E-4],"split_indices":[16,20,15,0,20,8,20,0,0,15,20,8,14,9,10,20,0,6,14,14,6,0,0,0,0,0,0,0,0,0,0,0,0,0,0],"split_type":[0,0,0,0,0,0,0,0,0,0,0,0,0,0,0,0,0,0,0,0,0,0,0,0,0,0,0,0,0,0,0,0,0,0,0],"sum_hessian":[3.6204532E2,7.567477E0,3.5447784E2,1.0724688E0,6.4950085E0,2.3524675E1,3.309532E2,5.4092073E0,1.0858016E0,1.1603462E1,1.1921214E1,2.9197458E2,3.8978603E1,3.8395803E0,7.7638817E0,9.908267E0,2.0129464E0,1.4573706E1,2.7740085E2,7.8792763E0,3.1099329E1,2.8364654E0,1.0031149E0,4.014808E0,3.7490735E0,2.2900968E0,7.6181707E0,1.2112359E1,2.4613469E0,2.9454176E0,2.7445544E2,5.8983746E0,1.9809017E0,1.9235392E1,1.1863937E1],"tree_param":{"num_deleted":"0","num_feature":"22","num_nodes":"35","size_leaf_vector":"1"}},{"base_weights":[-1.6019305E-2,-3.231503E-2,7.657682E-1,5.957394E-1,-5.3505093E-2,6.305582E-2,-1.3534521E-2,5.5298742E-2,1.7252566E-1,1.8188845E-1,-1.1516235E-1,-5.894891E-1,7.008464E-1,-4.7841018E-1,3.1910655E-1,8.395044E-1,-1.3401574E-1,-6.306507E-2,2.2637626E-2,3.4065251E-3,5.3046186E-2,-5.5680525E-2,6.8510766E-3,2.1242151E-2,-4.6619795E-2,5.415846E-2,-1.3615108E-3,2.1266872E-2,-7.846569E-3],"categories":[],"categories_nodes":[],"categories_segments":[],"categories_sizes":[],"default_left":[0,0,0,0,0,0,0,0,0,0,0,0,0,0,0,0,0,0,0,0,0,0,0,0,0,0,0,0,0],"id":30,"left_children":[1,3,5,7,9,-1,-1,-1,11,13,15,17,19,21,23,25,27,-1,-1,-1,-1,-1,-1,-1,-1,-1,-1,-1,-1],"loss_changes":[4.639339E0,4.7668085E0,4.1593223E0,2.3344727E0,5.029455E0,0E0,0E0,0E0,3.4636166E0,6.6776447E0,5.045449E0,3.1236558E0,1.0512645E0,5.1528444E0,8.365641E0,1.1795225E0,3.5228052E0,0E0,0E0,0E0,0E0,0E0,0E0,0E0,0E0,0E0,0E0,0E0,0E0],"parents":[2147483647,0,0,1,1,2,2,3,3,4,4,8,8,9,9,10,10,11,11,12,12,13,13,14,14,15,15,16,16],"right_children":[2,4,6,8,10,-1,-1,-1,12,14,16,18,20,22,24,26,28,-1,-1,-1,-1,-1,-1,-1,-1,-1,-1,-1,-1],"split_conditions":[5.189E5,7.052242E-3,8.501647E-3,-3.2336792E-1,2.1149737E-1,6.305582E-2,-1.3534521E-2,5.5298742E-2,7.3051658E-3,-9.6928626E-1,1.6296843E4,1.103794E-2,4.9167406E-3,8.424635E-4,3.908E5,9.041931E-3,-4.808347E-2,-6.306507E-2,2.2637626E-2,3.4065251E-3,5.3046186E-2,-5.5680525E-2,6.8510766E-3,2.1242151E-2,-4.6619795E-2,5.415846E-2,-1.3615108E-3,2.1266872E-2,-7.846569E-3],"split_indices":[4,20,6,21,18,0,0,0,10,21,13,7,5,6,4,10,15,0,0,0,0,0,0,0,0,0,0,0,0],"split_type":[0,0,0,0,0,0,0,0,0,0,0,0,0,0,0,0,0,0,0,0,0,0,0,0,0,0,0,0,0],"sum_hessian":[3.6121878E2,3.5478232E2,6.436485E0,1.0694444E1,3.4408786E2,4.2084236E0,2.228061E0,4.117284E0,6.57716E0,7.101575E1,2.730721E2,2.6455767E0,3.9315834E0,1.1790917E1,5.922483E1,4.445395E0,2.686267E2,1.4808581E0,1.1647185E0,1.8572667E0,2.0743167E0,5.4039283E0,6.386989E0,5.521996E1,4.00487E0,3.274987E0,1.1704082E0,9.880886E0,2.5874585E2],"tree_param":{"num_deleted":"0","num_feature":"22","num_nodes":"29","size_leaf_vector":"1"}},{"base_weights":[-1.14645185E-2,9.1282237E-1,-3.3375047E-2,3.1484358E-3,5.4890346E-2,-1.8051238E-1,1.03784904E-1,-1.0870659E-1,-8.426747E-1,1.1134404E0,2.09212E-2,3.9497234E-2,-4.6348628E-1,-1.1798857E0,4.3270263E-1,1.2619927E0,2.6606846E-1,-8.192923E-1,1.2053243E-1,4.016338E-2,-4.117398E-3,-6.279286E-2,-1.1327751E-2,-1.0053769E-2,-7.661671E-2,5.2472234E-2,-1.4193589E-2,6.667874E-2,1.2903096E-2,-2.3467137E-2,4.3844786E-2,3.851716E-2,-4.890513E-2,4.1856494E-2,1.9286292E-3],"categories":[],"categories_nodes":[],"categories_segments":[],"categories_sizes":[],"default_left":[0,0,0,0,0,0,0,0,0,0,0,0,0,0,0,0,0,0,0,0,0,0,0,0,0,0,0,0,0,0,0,0,0,0,0],"id":31,"left_children":[1,3,5,-1,-1,7,9,11,13,15,17,19,21,23,25,27,29,31,33,-1,-1,-1,-1,-1,-1,-1,-1,-1,-1,-1,-1,-1,-1,-1,-1],"loss_changes":[7.31359E0,1.2456255E0,7.127993E0,0E0,0E0,8.006522E0,1.5283057E1,8.157829E0,7.612952E0,1.4085312E0,1.4334694E1,1.031338E1,8.293447E0,4.2902794E0,2.1474535E0,4.839325E-1,1.9092606E0,5.3370523E0,8.95006E0,0E0,0E0,0E0,0E0,0E0,0E0,0E0,0E0,0E0,0E0,0E0,0E0,0E0,0E0,0E0,0E0],"parents":[2147483647,0,0,1,1,2,2,5,5,6,6,7,7,8,8,9,9,10,10,11,11,12,12,13,13,14,14,15,15,16,16,17,17,18,18],"right_children":[2,4,6,-1,-1,8,10,12,14,16,18,20,22,24,26,28,30,32,34,-1,-1,-1,-1,-1,-1,-1,-1,-1,-1,-1,-1,-1,-1,-1,-1],"split_conditions":[1.4157478E2,-2.9243168E-3,3.7758594E2,3.1484358E-3,5.4890346E-2,2.5046299E4,3.5366754E4,8.473442E-3,4.360658E-1,4.1762143E-2,3.8494074E4,1.767195E4,2.300819E2,4.7104545E-3,4.9048383E-3,5.393401E-1,3.5549305E-2,-6.521918E-2,4.0916445E4,4.016338E-2,-4.117398E-3,-6.279286E-2,-1.1327751E-2,-1.0053769E-2,-7.661671E-2,5.2472234E-2,-1.4193589E-2,6.667874E-2,1.2903096E-2,-2.3467137E-2,4.3844786E-2,3.851716E-2,-4.890513E-2,4.1856494E-2,1.9286292E-3],"split_indices":[16,5,16,0,0,13,13,9,19,7,11,2,16,9,9,20,15,15,13,0,0,0,0,0,0,0,0,0,0,0,0,0,0,0,0],"split_type":[0,0,0,0,0,0,0,0,0,0,0,0,0,0,0,0,0,0,0,0,0,0,0,0,0,0,0,0,0,0,0,0,0,0,0],"sum_hessian":[3.5863177E2,7.363052E0,3.5126874E2,1.5558031E0,5.8072486E0,1.6931801E2,1.8195073E2,1.5380351E2,1.5514496E1,1.2857014E1,1.6909372E2,1.0911221E2,4.4691296E1,1.232945E1,3.1850462E0,1.0522941E1,2.3340726E0,1.715634E1,1.5193738E2,1.4242497E1,9.486971E1,9.297406E0,3.539389E1,3.67999E0,8.64946E0,1.4621078E0,1.7229384E0,9.516075E0,1.006866E0,1.1641324E0,1.1699402E0,1.2085425E0,1.5947797E1,1.464841E1,1.3728897E2],"tree_param":{"num_deleted":"0","num_feature":"22","num_nodes":"35","size_leaf_vector":"1"}},{"base_weights":[-4.131854E-3,-2.9076985E-1,6.655323E-2,6.7776465E-1,-3.8035598E-1,-1.1570102E-1,1.815362E-1,-1.2764598E-2,9.4330204E-1,-4.8827305E-2,-5.8510935E-1,-1.5427976E-2,-8.792525E-1,4.6545577E-1,5.0428204E-2,1.0443304E-2,6.192417E-2,2.4259242E-1,-9.4255793E-1,-7.981931E-1,4.3320317E-2,5.931725E-1,-1.5860246E-1,3.9760455E-2,-1.3830477E0,5.0857157E-1,-3.6402103E-2,4.812678E-2,1.6095877E-2,-4.112701E-3,3.5492122E-2,-9.4145285E-3,-6.899674E-2,-2.2342093E-2,-5.983541E-2,3.2629058E-2,-2.3935659E-2,2.025029E-3,4.4170488E-2,-7.063308E-2,-1.3719109E-3,-5.6956735E-2,3.1169826E-2,-8.04218E-2,-8.120968E-3,3.2260936E-2,2.575007E-3,9.360216E-3,-1.1062021E-2],"categories":[],"categories_nodes":[],"categories_segments":[],"categories_sizes":[],"default_left":[0,0,0,0,0,0,0,0,0,0,0,0,0,0,0,0,0,0,0,0,0,0,0,0,0,0,0,0,0,0,0,0,0,0,0,0,0,0,0,0,0,0,0,0,0,0,0,0,0],"id":32,"left_children":[1,3,5,7,9,11,13,-1,15,17,19,21,23,25,27,-1,-1,29,31,33,35,37,39,41,43,45,-1,-1,47,-1,-1,-1,-1,-1,-1,-1,-1,-1,-1,-1,-1,-1,-1,-1,-1,-1,-1,-1,-1],"loss_changes":[7.504624E0,6.615113E0,6.2486057E0,1.8668208E0,4.5674143E0,8.834814E0,6.773812E0,0E0,8.9505625E-1,7.2455287E0,5.627198E0,9.084039E0,6.257922E0,3.3324003E0,3.9314435E0,0E0,0E0,3.262848E0,1.9931679E0,3.8395405E0,3.9776416E0,3.149859E0,1.3829477E1,4.6429214E0,2.127184E0,3.473464E0,0E0,0E0,5.0155864E0,0E0,0E0,0E0,0E0,0E0,0E0,0E0,0E0,0E0,0E0,0E0,0E0,0E0,0E0,0E0,0E0,0E0,0E0,0E0,0E0],"parents":[2147483647,0,0,1,1,2,2,3,3,4,4,5,5,6,6,8,8,9,9,10,10,11,11,12,12,13,13,14,14,17,17,18,18,19,19,20,20,21,21,22,22,23,23,24,24,25,25,28,28],"right_children":[2,4,6,8,10,12,14,-1,16,18,20,22,24,26,28,-1,-1,30,32,34,36,38,40,42,44,46,-1,-1,48,-1,-1,-1,-1,-1,-1,-1,-1,-1,-1,-1,-1,-1,-1,-1,-1,-1,-1,-1,-1],"split_conditions":[-6.0603926E-3,5.469368E-3,6.2111085E-3,3.6524925E-2,-1.8833537E-2,2.2257483E-2,1.2628715E-1,-1.2764598E-2,-3.4080502E-1,3.0638486E-1,6.0824775E-3,1.9481664E4,3.1440202E-2,5.60987E4,1.620325E4,1.0443304E-2,6.192417E-2,2.652E5,-1.468349E-2,5.3306334E-3,-8.596671E-4,2.199E5,1.976682E4,6.93555E1,6.6929418E-3,1.3161296E-2,-3.6402103E-2,4.812678E-2,9.859213E-3,-4.112701E-3,3.5492122E-2,-9.4145285E-3,-6.899674E-2,-2.2342093E-2,-5.983541E-2,3.2629058E-2,-2.3935659E-2,2.025029E-3,4.4170488E-2,-7.063308E-2,-1.3719109E-3,-5.6956735E-2,3.1169826E-2,-8.04218E-2,-8.120968E-3,3.2260936E-2,2.575007E-3,9.360216E-3,-1.1062021E-2],"split_indices":[5,9,9,19,14,7,19,0,21,19,7,12,8,1,2,0,0,4,5,8,6,4,12,17,5,5,0,0,10,0,0,0,0,0,0,0,0,0,0,0,0,0,0,0,0,0,0,0,0],"split_type":[0,0,0,0,0,0,0,0,0,0,0,0,0,0,0,0,0,0,0,0,0,0,0,0,0,0,0,0,0,0,0,0,0,0,0,0,0,0,0,0,0,0,0,0,0,0,0,0,0],"sum_hessian":[3.6844183E2,7.2268654E1,2.961732E2,5.562779E0,6.670587E1,1.1456895E2,1.8160425E2,1.2409301E0,4.321849E0,2.5941261E1,4.076461E1,1.02171524E2,1.2397423E1,5.656352E1,1.2504073E2,1.7285811E0,2.593268E0,2.011191E1,5.829351E0,3.024067E1,1.0523943E1,1.8859842E1,8.331168E1,4.715883E0,7.68154E0,5.514525E1,1.418273E0,3.5551512E0,1.2148558E2,1.2349868E1,7.7620425E0,2.6646297E0,3.164721E0,1.7198694E1,1.3041975E1,4.740855E0,5.7830877E0,6.886349E0,1.1973494E1,6.963509E0,7.6348175E1,1.2464237E0,3.4694593E0,6.2160406E0,1.4654992E0,4.213641E1,1.300884E1,7.071475E1,5.0770824E1],"tree_param":{"num_deleted":"0","num_feature":"22","num_nodes":"49","size_leaf_vector":"1"}},{"base_weights":[5.810163E-3,2.5876433E-2,-8.565573E-1,-8.655909E-3,6.680332E-1,1.2441295E-1,-6.777169E-2,3.6202304E-2,-7.4194694E-1,6.3595474E-2,-2.5838204E-2,3.3107728E-2,-2.6669476E-2,1.246884E-2,7.51784E-1,-1.1781982E-1,-1.0985613E0,-8.458029E-1,7.293881E-1,-7.5831113E-4,2.9849831E-2,4.7320984E-2,-1.8130878E-2,-3.133839E-2,4.3559384E-2,-6.522679E-2,-1.6822411E-3,5.375004E-3,-5.960512E-2,2.857885E-3,5.9043933E-2],"categories":[],"categories_nodes":[],"categories_segments":[],"categories_sizes":[],"default_left":[0,0,0,0,0,0,0,0,0,0,0,0,0,0,0,0,0,0,0,0,0,0,0,0,0,0,0,0,0,0,0],"id":33,"left_children":[1,3,5,7,9,11,-1,13,15,-1,17,-1,-1,19,21,23,25,27,29,-1,-1,-1,-1,-1,-1,-1,-1,-1,-1,-1,-1],"loss_changes":[6.206846E0,7.7725616E0,4.1603146E0,1.0992455E1,7.527464E0,1.649816E0,0E0,5.341982E0,4.1581745E0,0E0,6.377931E0,0E0,0E0,4.951982E0,2.5335436E0,4.6356764E0,2.6187563E0,1.7535098E0,1.5652618E0,0E0,0E0,0E0,0E0,0E0,0E0,0E0,0E0,0E0,0E0,0E0,0E0],"parents":[2147483647,0,0,1,1,2,2,3,3,4,4,5,5,7,7,8,8,10,10,13,13,14,14,15,15,16,16,17,17,18,18],"right_children":[2,4,6,8,10,12,-1,14,16,-1,18,-1,-1,20,22,24,26,28,30,-1,-1,-1,-1,-1,-1,-1,-1,-1,-1,-1,-1],"split_conditions":[5.6301973E4,5.4578285E4,4.799015E-3,5.156769E4,5.632115E4,4.2855986E-3,-6.777169E-2,5.085739E4,-7.213039E-3,6.3595474E-2,2.2295955E-1,3.3107728E-2,-2.6669476E-2,1.763624E-2,1.6425757E-2,1.0178593E-2,1.0341556E-2,4.8293867E-3,-6.2970014E-4,-7.5831113E-4,2.9849831E-2,4.7320984E-2,-1.8130878E-2,-3.133839E-2,4.3559384E-2,-6.522679E-2,-1.6822411E-3,5.375004E-3,-5.960512E-2,2.857885E-3,5.9043933E-2],"split_indices":[13,12,10,12,1,9,0,12,7,0,19,0,0,10,5,10,5,9,7,0,0,0,0,0,0,0,0,0,0,0,0],"split_type":[0,0,0,0,0,0,0,0,0,0,0,0,0,0,0,0,0,0,0,0,0,0,0,0,0,0,0,0,0,0,0],"sum_hessian":[3.5640314E2,3.4924658E2,7.15656E0,3.3236023E2,1.688634E1,2.6656153E0,4.490945E0,3.140964E2,1.8263847E1,8.583263E0,8.303076E0,1.4630127E0,1.2026026E0,3.0499805E2,9.098346E0,7.124798E0,1.113905E1,3.923413E0,4.379663E0,2.9215952E2,1.2838542E1,7.873873E0,1.2244729E0,4.9458866E0,2.1789112E0,9.145188E0,1.9938618E0,1.2292032E0,2.6942098E0,2.2123146E0,2.1673481E0],"tree_param":{"num_deleted":"0","num_feature":"22","num_nodes":"31","size_leaf_vector":"1"}},{"base_weights":[-9.20441E-3,1.0206287E0,-2.7078858E-2,5.6261208E-2,1.5396336E-2,7.987981E-1,-4.7133192E-2,-4.972696E-3,9.7441775E-1,-2.5094387E-1,2.594327E-2,9.414173E-3,5.3816456E-2,-1.4139967E-1,-1.1107017E0,7.6390356E-1,-3.183021E-2,3.959082E-2,-1.2646151E-2,5.1255147E-3,-6.9921896E-2,-1.8696187E-2,5.4334033E-2,-1.8690282E-2,2.0470594E-3],"categories":[],"categories_nodes":[],"categories_segments":[],"categories_sizes":[],"default_left":[0,0,0,0,0,0,0,0,0,0,0,0,0,0,0,0,0,0,0,0,0,0,0,0,0],"id":34,"left_children":[1,3,5,-1,-1,7,9,-1,11,13,15,-1,-1,17,19,21,23,-1,-1,-1,-1,-1,-1,-1,-1],"loss_changes":[6.703963E0,1.1670542E-1,5.958355E0,0E0,0E0,1.442586E0,5.218554E0,0E0,3.7642002E-1,8.550261E0,1.1045154E1,0E0,0E0,8.854136E0,3.7398014E0,7.3137827E0,6.0050664E0,0E0,0E0,0E0,0E0,0E0,0E0,0E0,0E0],"parents":[2147483647,0,0,1,1,2,2,5,5,6,6,8,8,9,9,10,10,13,13,14,14,15,15,16,16],"right_children":[2,4,6,-1,-1,8,10,-1,12,14,16,-1,-1,18,20,22,24,-1,-1,-1,-1,-1,-1,-1,-1],"split_conditions":[1.6296843E4,5.43209E-1,1.4157478E2,5.6261208E-2,1.5396336E-2,1.25199776E2,2.300819E2,-4.972696E-3,3.7542873E-3,8.473442E-3,2.4803223E2,9.414173E-3,5.3816456E-2,-1.4421288E-2,-1.905386E-2,6.0210642E-3,3.143393E2,3.959082E-2,-1.2646151E-2,5.1255147E-3,-6.9921896E-2,-1.8696187E-2,5.4334033E-2,-1.8690282E-2,2.0470594E-3],"split_indices":[13,20,16,0,0,16,16,0,9,9,16,0,0,15,8,9,16,0,0,0,0,0,0,0,0],"split_type":[0,0,0,0,0,0,0,0,0,0,0,0,0,0,0,0,0,0,0,0,0,0,0,0,0],"sum_hessian":[3.6169205E2,5.213565E0,3.5647845E2,4.0416083E0,1.1719567E0,7.5303926E0,3.489481E2,1.3024377E0,6.227955E0,9.145251E1,2.5749557E2,1.0414944E0,5.1864605E0,8.215E1,9.302503E0,1.7807821E1,2.3968774E2,8.118148E0,7.403185E1,1.906723E0,7.3957796E0,3.9003103E0,1.3907511E1,4.132974E1,1.98358E2],"tree_param":{"num_deleted":"0","num_feature":"22","num_nodes":"25","size_leaf_vector":"1"}},{"base_weights":[-4.943847E-3,-4.9263764E-2,3.945316E-1,-2.3599076E-1,4.899166E-2,-6.749098E-1,5.900689E-1,-1.63519E-1,-1.3003563E0,1.9552013E-1,-1.2753285E-1,-6.31767E-2,1.4769973E-2,-1.9497983E-1,7.9468095E-1,5.547997E-1,-2.4275723E-1,-2.3199903E-2,-7.977108E-2,1.2500893E-1,9.596169E-1,2.655459E-1,-2.7826998E-1,1.9805466E-1,-5.777305E-2,9.268882E-1,-3.7481257E-1,-1.7817548E-2,5.493858E-2,-2.153164E-2,7.666237E-3,1.9328583E-2,-8.538153E-3,-1.4012284E-2,5.8739495E-2,-9.9805E-3,3.092504E-2,-4.4150274E-2,-4.8963875E-3,-3.1163422E-2,2.9500028E-2,2.259005E-2,5.61732E-2,1.5510358E-2,-4.2584937E-2],"categories":[],"categories_nodes":[],"categories_segments":[],"categories_sizes":[],"default_left":[0,0,0,0,0,0,0,0,0,0,0,0,0,0,0,0,0,0,0,0,0,0,0,0,0,0,0,0,0,0,0,0,0,0,0,0,0,0,0,0,0,0,0,0,0],"id":35,"left_children":[1,3,5,7,9,11,13,15,17,19,21,-1,-1,23,25,27,29,-1,-1,31,33,35,37,39,-1,41,43,-1,-1,-1,-1,-1,-1,-1,-1,-1,-1,-1,-1,-1,-1,-1,-1,-1,-1],"loss_changes":[6.3556705E0,5.938222E0,7.8953166E0,8.391644E0,5.5210814E0,3.8048575E0,5.1092787E0,6.144065E0,9.79064E-1,6.156909E0,5.820321E0,0E0,0E0,2.9392247E0,4.160734E0,5.7413845E0,7.1938057E0,0E0,0E0,8.406508E0,2.915141E0,4.6209803E0,7.6119804E0,2.2826614E0,0E0,1.5886917E0,1.3151164E0,0E0,0E0,0E0,0E0,0E0,0E0,0E0,0E0,0E0,0E0,0E0,0E0,0E0,0E0,0E0,0E0,0E0,0E0],"parents":[2147483647,0,0,1,1,2,2,3,3,4,4,5,5,6,6,7,7,8,8,9,9,10,10,13,13,14,14,15,15,16,16,19,19,20,20,21,21,22,22,23,23,25,25,26,26],"right_children":[2,4,6,8,10,12,14,16,18,20,22,-1,-1,24,26,28,30,-1,-1,32,34,36,38,40,-1,42,44,-1,-1,-1,-1,-1,-1,-1,-1,-1,-1,-1,-1,-1,-1,-1,-1,-1,-1],"split_conditions":[5.820909E-1,6.2111085E-3,-9.6928626E-1,5.7485897E-2,9.859213E-3,1.6655824E-1,3.9820366E1,-1.3446949E-2,-1.1148937E-1,1.0752384E-2,-2.315806E-2,-6.31767E-2,1.4769973E-2,3.858358E1,5.1548977E4,2.4980725E4,3.3203587E-2,-2.3199903E-2,-7.977108E-2,2.32E5,-1.4009989E-2,-2.1576326E-2,2.163496E4,7.282609E-2,-5.777305E-2,8.9326093E-4,5.6639557E1,-1.7817548E-2,5.493858E-2,-2.153164E-2,7.666237E-3,1.9328583E-2,-8.538153E-3,-1.4012284E-2,5.8739495E-2,-9.9805E-3,3.092504E-2,-4.4150274E-2,-4.8963875E-3,-3.1163422E-2,2.9500028E-2,2.259005E-2,5.61732E-2,1.5510358E-2,-4.2584937E-2],"split_indices":[20,9,21,15,10,18,17,7,21,9,15,0,0,17,11,11,15,0,0,4,5,7,11,19,0,5,17,0,0,0,0,0,0,0,0,0,0,0,0,0,0,0,0,0,0],"split_type":[0,0,0,0,0,0,0,0,0,0,0,0,0,0,0,0,0,0,0,0,0,0,0,0,0,0,0,0,0,0,0,0,0,0,0,0,0,0,0,0,0,0,0,0,0],"sum_hessian":[3.5688394E2,3.2203262E2,3.4851322E1,1.1054617E2,2.1148645E2,5.0082746E0,2.9843046E1,1.04579094E2,5.9670734E0,1.1550287E2,9.5983574E1,2.9291506E0,2.0791242E0,6.1797733E0,2.3663273E1,9.793787E0,9.478531E1,2.2270527E0,3.740021E0,1.0680999E2,8.692872E0,2.6394007E1,6.958957E1,4.948581E0,1.2311921E0,2.1446287E1,2.216985E0,3.7901728E0,6.0036135E0,6.423105E1,3.0554264E1,5.6520084E1,5.028991E1,1.2407935E0,7.452079E0,1.1574518E1,1.4819489E1,1.5090576E1,5.4498993E1,1.407976E0,3.5406053E0,7.2420225E0,1.4204266E1,1.0533801E0,1.163605E0],"tree_param":{"num_deleted":"0","num_feature":"22","num_nodes":"45","size_leaf_vector":"1"}},{"base_weights":[4.0817622E-2,1.1786078E-1,-1.4539047E-1,8.469729E-2,9.8995274E-1,-3.8624534E-1,1.093408E-1,1.1856469E-1,-7.6947194E-1,1.2289487E0,-1.9843844E-6,-5.519002E-1,2.077082E-1,-5.3931445E-1,3.4987998E-1,8.0928934E-1,8.1039116E-2,-6.978237E-2,-1.5480184E-2,1.8823061E-2,6.59292E-2,3.253435E-2,-6.1421907E-1,7.81328E-1,-6.55587E-1,8.0538166E-1,-9.8675054E-1,5.3650636E-2,9.492857E-1,5.4709345E-2,1.3025292E-3,-9.225639E-3,1.1638839E-2,-2.241954E-2,4.2865023E-2,-3.6413245E-2,5.2505746E-3,4.8717994E-2,1.9958448E-3,5.990036E-4,-5.710591E-2,5.3166907E-2,3.5587568E-3,2.988179E-2,-6.16719E-2,1.9773914E-2,-4.3978732E-2,6.309388E-2,1.4730185E-2],"categories":[],"categories_nodes":[],"categories_segments":[],"categories_sizes":[],"default_left":[0,0,0,0,0,0,0,0,0,0,0,0,0,0,0,0,0,0,0,0,0,0,0,0,0,0,0,0,0,0,0,0,0,0,0,0,0,0,0,0,0,0,0,0,0,0,0,0,0],"id":36,"left_children":[1,3,5,7,9,11,13,15,17,19,-1,21,23,25,27,29,31,-1,33,-1,-1,-1,35,37,39,41,43,45,47,-1,-1,-1,-1,-1,-1,-1,-1,-1,-1,-1,-1,-1,-1,-1,-1,-1,-1,-1,-1],"loss_changes":[5.1784987E0,7.292205E0,6.52971E0,7.2303896E0,2.1885262E0,5.4839287E0,8.328448E0,6.1095867E0,4.4850287E0,7.294464E-2,0E0,3.6180182E0,6.7653236E0,9.522393E0,6.8141336E0,2.686006E0,9.192809E0,0E0,2.4027588E0,0E0,0E0,0E0,3.467577E0,1.1121473E0,1.8275213E0,7.145107E-1,5.166877E0,8.940241E0,2.2329683E0,0E0,0E0,0E0,0E0,0E0,0E0,0E0,0E0,0E0,0E0,0E0,0E0,0E0,0E0,0E0,0E0,0E0,0E0,0E0,0E0],"parents":[2147483647,0,0,1,1,2,2,3,3,4,4,5,5,6,6,7,7,8,8,9,9,11,11,12,12,13,13,14,14,15,15,16,16,18,18,22,22,23,23,24,24,25,25,26,26,27,27,28,28],"right_children":[2,4,6,8,10,12,14,16,18,20,-1,22,24,26,28,30,32,-1,34,-1,-1,-1,36,38,40,42,44,46,48,-1,-1,-1,-1,-1,-1,-1,-1,-1,-1,-1,-1,-1,-1,-1,-1,-1,-1,-1,-1],"split_conditions":[5.4610767E2,5.2497346E-2,7.0411383E2,6.0279686E-2,3.13895E-2,5.88448E-3,3.8400625E4,-3.651686E-2,6.693081E-3,3.0016437E-2,-1.9843844E-6,4.4394312E-3,9.892489E-3,3.5269633E4,1.2797533E-2,1.29475305E-2,-2.3260965E-5,-6.978237E-2,3.2907598E-2,1.8823061E-2,6.59292E-2,3.253435E-2,5.1505476E-1,6.857005E-1,3.2474127E-2,2.7447741E-2,1.0922326E-1,4.0032974E-1,1.2070321E-2,5.4709345E-2,1.3025292E-3,-9.225639E-3,1.1638839E-2,-2.241954E-2,4.2865023E-2,-3.6413245E-2,5.2505746E-3,4.8717994E-2,1.9958448E-3,5.990036E-4,-5.710591E-2,5.3166907E-2,3.5587568E-3,2.988179E-2,-6.16719E-2,1.9773914E-2,-4.3978732E-2,6.309388E-2,1.4730185E-2],"split_indices":[16,8,16,15,6,5,12,15,9,15,0,20,5,12,9,10,14,0,14,0,0,0,20,18,15,8,20,20,7,0,0,0,0,0,0,0,0,0,0,0,0,0,0,0,0,0,0,0,0],"split_type":[0,0,0,0,0,0,0,0,0,0,0,0,0,0,0,0,0,0,0,0,0,0,0,0,0,0,0,0,0,0,0,0,0,0,0,0,0,0,0,0,0,0,0,0,0,0,0,0,0],"sum_hessian":[3.5877563E2,2.5403592E2,1.04739716E2,2.4578639E2,8.249527E0,5.3570843E1,5.1168877E1,2.3724109E2,8.545302E0,6.4508443E0,1.798683E0,4.1943512E1,1.1627329E1,1.3505869E1,3.7663006E1,1.1164903E1,2.2607619E2,4.203427E0,4.3418756E0,1.1084746E0,5.3423696E0,1.6013074E0,4.0342205E1,7.042716E0,4.584613E0,3.172237E0,1.0333632E1,2.5935204E1,1.1727802E1,7.895843E0,3.2690601E0,8.2128815E1,1.4394737E2,3.2273288E0,1.1145469E0,3.4809956E1,5.5322523E0,5.338581E0,1.704135E0,2.343915E0,2.2406979E0,2.0157428E0,1.1564941E0,1.2005136E0,9.133119E0,1.9404007E1,6.531197E0,7.310014E0,4.4177885E0],"tree_param":{"num_deleted":"0","num_feature":"22","num_nodes":"49","size_leaf_vector":"1"}},{"base_weights":[3.4433227E-2,-2.9479945E-2,2.5415805E-1,-2.1205899E-1,1.0084776E-1,6.867294E-1,-2.8669866E-2,-2.9389298E-1,4.5615897E-1,4.9668545E-1,6.7213494E-3,-6.989462E-1,8.5726815E-1,2.9846624E-1,-4.0491244E-1,-5.40923E-1,-2.4365976E-2,6.538409E-1,-2.4032194E-2,8.091202E-1,-2.9063433E-1,8.547106E-1,-3.462416E-2,1.5319566E-2,-5.992155E-2,9.457185E-1,-3.125358E-2,6.009755E-1,-4.6824208E-1,-1.0307549E0,-4.311244E-2,-9.823508E-3,-4.3333378E-2,5.9307143E-3,-3.4470312E-2,-2.1553948E-3,4.5066513E-2,5.1555492E-2,-4.3199584E-2,-6.4353384E-2,8.57067E-3,3.1669815E-3,6.1727084E-2,-3.191704E-2,3.773745E-3,5.4313857E-2,-1.4261194E-3,4.7240234E-3,5.0715517E-2,1.575155E-2,-6.0672697E-2,1.9055816E-3,-7.940387E-2,3.212281E-2,-2.9278928E-2],"categories":[],"categories_nodes":[],"categories_segments":[],"categories_sizes":[],"default_left":[0,0,0,0,0,0,0,0,0,0,0,0,0,0,0,0,0,0,0,0,0,0,0,0,0,0,0,0,0,0,0,0,0,0,0,0,0,0,0,0,0,0,0,0,0,0,0,0,0,0,0,0,0,0,0],"id":37,"left_children":[1,3,5,7,9,11,13,15,17,19,21,23,25,27,29,31,33,35,-1,37,39,41,43,-1,-1,45,-1,47,49,51,53,-1,-1,-1,-1,-1,-1,-1,-1,-1,-1,-1,-1,-1,-1,-1,-1,-1,-1,-1,-1,-1,-1,-1,-1],"loss_changes":[5.0529847E0,6.665427E0,9.937073E0,6.5111194E0,6.0922003E0,8.18179E0,6.271856E0,6.9447803E0,2.7431026E0,7.962881E0,4.699125E0,2.4095273E0,4.396076E0,6.614999E0,5.3145113E0,5.9425955E0,4.9334445E0,1.979989E0,0E0,9.342249E0,4.6683836E0,1.7946868E0,8.553107E0,0E0,0E0,3.8356647E0,0E0,4.095273E0,5.2200522E0,5.199216E0,6.3417797E0,0E0,0E0,0E0,0E0,0E0,0E0,0E0,0E0,0E0,0E0,0E0,0E0,0E0,0E0,0E0,0E0,0E0,0E0,0E0,0E0,0E0,0E0,0E0,0E0],"parents":[2147483647,0,0,1,1,2,2,3,3,4,4,5,5,6,6,7,7,8,8,9,9,10,10,11,11,12,12,13,13,14,14,15,15,16,16,17,17,19,19,20,20,21,21,22,22,25,25,27,27,28,28,29,29,30,30],"right_children":[2,4,6,8,10,12,14,16,18,20,22,24,26,28,30,32,34,36,-1,38,40,42,44,-1,-1,46,-1,48,50,52,54,-1,-1,-1,-1,-1,-1,-1,-1,-1,-1,-1,-1,-1,-1,-1,-1,-1,-1,-1,-1,-1,-1,-1,-1],"split_conditions":[3.017E5,-1.236846E-3,-2.6549494E-3,2.4841761E-2,-1.1164735E-2,1.7454607E4,2.405756E4,3.8790547E4,4.359706E-3,1.6782654E-2,1.732631E4,1.703179E4,2.041777E-2,1.1462055E0,2.497671E4,2.22312E4,3.3469588E-4,1.5424581E-1,-2.4032194E-2,2.2428026E-2,1.4463769E-1,1.69936E4,1.9374959E4,1.5319566E-2,-5.992155E-2,2.4990022E0,-3.125358E-2,2.2149215E4,1.9622814E4,2.47507E4,4.3371645E4,-9.823508E-3,-4.3333378E-2,5.9307143E-3,-3.4470312E-2,-2.1553948E-3,4.5066513E-2,5.1555492E-2,-4.3199584E-2,-6.4353384E-2,8.57067E-3,3.1669815E-3,6.1727084E-2,-3.191704E-2,3.773745E-3,5.4313857E-2,-1.4261194E-3,4.7240234E-3,5.0715517E-2,1.575155E-2,-6.0672697E-2,1.9055816E-3,-7.940387E-2,3.212281E-2,-2.9278928E-2],"split_indices":[4,6,7,8,15,12,12,13,5,21,11,11,8,21,12,0,7,20,0,8,21,0,13,0,0,21,0,12,13,3,1,0,0,0,0,0,0,0,0,0,0,0,0,0,0,0,0,0,0,0,0,0,0,0,0],"split_type":[0,0,0,0,0,0,0,0,0,0,0,0,0,0,0,0,0,0,0,0,0,0,0,0,0,0,0,0,0,0,0,0,0,0,0,0,0,0,0,0,0,0,0,0,0,0,0,0,0,0,0,0,0,0,0],"sum_hessian":[3.582808E2,2.782188E2,8.0061966E1,1.1561875E2,1.6260007E2,3.108734E1,4.897463E1,1.03503296E2,1.2115455E1,3.041529E1,1.3218477E2,3.0671804E0,2.8020159E1,2.6307474E1,2.2667152E1,5.3480137E1,5.0023163E1,1.0253777E1,1.8616774E0,2.1754637E1,8.660654E0,5.230743E0,1.26954025E2,1.1463835E0,1.9207969E0,2.6783983E1,1.2361753E0,1.9019415E1,7.2880607E0,7.6262627E0,1.5040891E1,2.6772825E1,2.6707312E1,4.184775E1,8.17541E0,2.9033997E0,7.350377E0,1.9545097E1,2.2095394E0,2.1780303E0,6.482624E0,2.074765E0,3.155978E0,1.8841387E1,1.0811264E2,2.3306448E1,3.4775362E0,9.098641E0,9.920773E0,3.8347318E0,3.4533286E0,2.9329295E0,4.693333E0,6.5626674E0,8.478223E0],"tree_param":{"num_deleted":"0","num_feature":"22","num_nodes":"55","size_leaf_vector":"1"}},{"base_weights":[7.3604644E-3,-1.5071901E-2,6.0459775E-1,5.2669793E-1,-3.8228747E-2,5.8107298E-2,-6.470192E-2,9.2065483E-1,4.7020145E-2,-6.871595E-1,-5.2820086E-3,-1.0053077E0,6.76009E-1,-4.3982964E-5,1.1598547E0,4.036429E-2,-2.1328865E-1,2.9615793E-1,-1.041735E0,-1.3240787E-1,8.440643E-2,-6.0121894E-2,-1.7275518E-2,4.770198E-2,-3.6798238E-3,1.7723793E-2,6.3343704E-2,-4.664049E-2,1.862977E-2,4.935308E-2,-3.5545826E-2,-6.738236E-2,-2.2575108E-3,5.7007964E-3,-2.3890486E-2,2.9631669E-2,-5.213198E-4],"categories":[],"categories_nodes":[],"categories_segments":[],"categories_sizes":[],"default_left":[0,0,0,0,0,0,0,0,0,0,0,0,0,0,0,0,0,0,0,0,0,0,0,0,0,0,0,0,0,0,0,0,0,0,0,0,0],"id":38,"left_children":[1,3,5,7,9,-1,11,13,15,17,19,21,23,-1,25,-1,27,29,31,33,35,-1,-1,-1,-1,-1,-1,-1,-1,-1,-1,-1,-1,-1,-1,-1,-1],"loss_changes":[4.8232822E0,4.3772807E0,4.9384656E0,2.6597543E0,7.13731E0,0E0,5.465992E0,1.7203555E0,1.6572607E0,5.93251E0,3.6468225E0,3.0495644E-2,9.95836E-1,0E0,8.472824E-2,0E0,3.0375316E0,4.2179523E0,3.6209507E0,1.1314701E1,9.046627E0,0E0,0E0,0E0,0E0,0E0,0E0,0E0,0E0,0E0,0E0,0E0,0E0,0E0,0E0,0E0,0E0],"parents":[2147483647,0,0,1,1,2,2,3,3,4,4,6,6,7,7,8,8,9,9,10,10,11,11,12,12,14,14,16,16,17,17,18,18,19,19,20,20],"right_children":[2,4,6,8,10,-1,12,14,16,18,20,22,24,-1,26,-1,28,30,32,34,36,-1,-1,-1,-1,-1,-1,-1,-1,-1,-1,-1,-1,-1,-1,-1,-1],"split_conditions":[1.763624E-2,1.4874697E-2,3.4831344E4,1.5538545E-2,5.565134E-2,5.8107298E-2,-1.8378533E-2,-1.30967E-2,-1.0713442E-2,2.212835E4,-2.3260965E-5,1.0765564E-2,4.854675E-2,-4.3982964E-5,-1.3131221E-2,4.036429E-2,